
#include <eml_net.h>
static const float battery_soh_layer_0_biases[64] = { -0.006901f, -0.042167f, 0.135533f, 0.109643f, 0.122825f, -0.005594f, 0.167143f, 0.127230f, 0.140370f, 0.159062f, 0.108348f, 0.178028f, 0.149002f, -0.009072f, -0.048432f, -0.089862f, 0.098678f, 0.148337f, 0.178533f, 0.197453f, 0.122173f, -0.021635f, 0.026555f, -0.034874f, 0.145692f, 0.129157f, 0.134204f, 0.175755f, -0.005554f, -0.012387f, -0.016535f, 0.153966f, 0.129707f, 0.157464f, -0.005156f, 0.157499f, 0.098395f, 0.133598f, 0.000000f, -0.015516f, 0.136493f, 0.143804f, -0.007815f, 0.167275f, -0.005718f, 0.159287f, 0.145403f, 0.070508f, -0.123293f, -0.016681f, 0.197937f, 0.127028f, 0.135269f, 0.000000f, 0.136187f, 0.157876f, 0.063004f, 0.126774f, 0.148173f, 0.144780f, 0.131763f, 0.148314f, 0.149430f, 0.135306f };
static const float battery_soh_layer_0_weights[5120] = { -0.037462f, -0.156933f, 0.191333f, 0.069034f, 0.212004f, 0.141265f, 0.104283f, 0.020629f, 0.272139f, -0.006415f, -0.160330f, -0.031852f, 0.236363f, -0.164619f, -0.056844f, -0.008229f, 0.216188f, 0.077578f, 0.049036f, 0.198721f, 0.110716f, -0.152734f, -0.173980f, 0.097894f, 0.024556f, -0.008859f, 0.101633f, 0.204491f, -0.004873f, 0.009029f, 0.181188f, -0.076569f, 0.221895f, 0.105209f, 0.081811f, -0.100522f, -0.110361f, 0.205765f, -0.146740f, 0.054032f, 0.272780f, 0.272911f, -0.037977f, -0.027336f, -0.021269f, 0.179870f, -0.087945f, 0.148366f, -0.033226f, 0.107381f, 0.047551f, 0.125478f, -0.033468f, -0.182102f, 0.251072f, 0.084484f, -0.120773f, 0.248961f, 0.021446f, 0.137998f, -0.092818f, 0.198305f, 0.125698f, 0.042856f, -0.146144f, -0.195866f, 0.119034f, 0.119175f, 0.069516f, -0.159886f, 0.108947f, -0.072908f, 0.080879f, -0.114330f, -0.233384f, 0.094988f, 0.093768f, 0.180164f, 0.063021f, -0.053282f, 0.161383f, 0.166568f, -0.040223f, -0.197778f, 0.037885f, -0.114563f, -0.067528f, -0.040893f, 0.024477f, 0.010887f, -0.050420f, 0.147904f, -0.104953f, -0.076766f, -0.220013f, 0.099222f, -0.020168f, -0.062594f, -0.087889f, -0.107491f, -0.235389f, 0.119631f, 0.158343f, 0.161890f, 0.219045f, 0.046258f, 0.015085f, 0.094663f, -0.006819f, 0.166388f, 0.067510f, 0.094726f, 0.053550f, -0.090117f, -0.023239f, 0.096881f, 0.046756f, -0.164883f, 0.010803f, 0.196904f, -0.187947f, -0.060140f, -0.169295f, 0.184684f, 0.206997f, -0.041134f, 0.035226f, 0.175069f, 0.051964f, -0.008186f, -0.101429f, -0.083359f, 0.065362f, -0.189349f, -0.231670f, -0.246095f, -0.216303f, -0.064077f, -0.119774f, -0.188238f, 0.043318f, -0.161166f, -0.077845f, 0.196814f, 0.144577f, -0.051505f, 0.037048f, -0.136141f, -0.111525f, 0.076357f, -0.117833f, 0.186188f, 0.119323f, -0.130118f, -0.168704f, -0.227691f, 0.008188f, -0.182891f, 0.131496f, -0.044500f, -0.163638f, 0.085863f, 0.168591f, 0.097713f, 0.093037f, -0.094970f, 0.055008f, 0.059597f, 0.081990f, -0.269527f, -0.137466f, -0.019242f, -0.187531f, -0.226884f, -0.062618f, -0.023409f, -0.223787f, 0.066373f, -0.288531f, -0.172421f, 0.070682f, 0.059520f, -0.026678f, -0.086832f, -0.003512f, -0.094005f, -0.217567f, -0.021551f, -0.114052f, -0.092241f, 0.137798f, 0.100395f, -0.094896f, -0.039082f, 0.029405f, 0.297755f, 0.238615f, 0.025759f, 0.188085f, 0.183332f, 0.258170f, 0.031068f, -0.063679f, 0.158097f, -0.003382f, 0.137851f, 0.147033f, 0.002126f, 0.280675f, -0.053477f, -0.022052f, 0.165060f, 0.057328f, -0.145484f, 0.083089f, 0.001716f, 0.226607f, 0.267979f, 0.317469f, 0.126598f, -0.196436f, -0.142196f, 0.149363f, 0.066288f, -0.035721f, 0.311925f, 0.162921f, 0.211197f, 0.300582f, -0.048478f, 0.050134f, 0.093492f, 0.268501f, 0.130771f, -0.203854f, 0.333278f, -0.113745f, -0.036713f, 0.341660f, 0.112898f, -0.262810f, -0.089903f, 0.064342f, 0.220290f, 0.320463f, -0.176056f, 0.175864f, 0.079881f, 0.080062f, 0.316813f, 0.193471f, 0.295070f, 0.177223f, 0.256681f, -0.034337f, 0.311285f, 0.012203f, -0.042905f, 0.114939f, 0.252956f, -0.026163f, 0.184905f, -0.038870f, -0.012177f, -0.100491f, 0.004400f, -0.050724f, 0.081983f, -0.137154f, -0.007177f, 0.096370f, 0.004992f, -0.099140f, -0.033719f, 0.052076f, 0.139574f, 0.068291f, -0.126935f, -0.063393f, 0.048166f, 0.091550f, 0.086803f, 0.250931f, 0.011230f, -0.005816f, -0.125484f, -0.160305f, 0.241543f, -0.115420f, -0.095689f, 0.062771f, 0.166517f, -0.042913f, -0.106243f, -0.049342f, -0.054074f, 0.256065f, 0.229550f, -0.125007f, 0.007967f, 0.029741f, 0.238109f, 0.159171f, 0.103465f, -0.058670f, -0.168272f, 0.190825f, 0.148023f, 0.262275f, 0.174001f, 0.218989f, 0.160187f, 0.003910f, 0.109729f, 0.029340f, -0.051648f, -0.006033f, 0.030287f, -0.072748f, 0.244206f, 0.182691f, -0.151387f, 0.173609f, -0.084273f, -0.058557f, -0.079915f, 0.082656f, -0.078776f, -0.014156f, 0.181308f, -0.193013f, 0.145056f, 0.085168f, -0.111133f, -0.125960f, -0.053744f, 0.107839f, 0.149104f, -0.107244f, -0.035073f, 0.085855f, -0.111313f, 0.092675f, -0.182292f, 0.172965f, -0.209639f, -0.071657f, -0.179553f, 0.167968f, -0.073258f, 0.168170f, -0.089361f, 0.071679f, 0.110262f, -0.112455f, -0.172509f, 0.097975f, 0.031644f, 0.029460f, 0.083018f, 0.029821f, -0.172777f, -0.086299f, -0.165340f, -0.021288f, -0.038165f, 0.086194f, -0.016709f, 0.207185f, 0.101429f, -0.033683f, -0.059150f, 0.162286f, -0.196894f, 0.209979f, -0.118021f, -0.102463f, 0.092013f, -0.200336f, -0.120551f, -0.141869f, 0.061218f, 0.039526f, -0.095692f, 0.043396f, 0.049705f, -0.072144f, 0.048130f, -0.190173f, 0.126621f, -0.176963f, 0.081744f, -0.025436f, -0.180872f, -0.118276f, -0.090861f, -0.209662f, 0.034707f, 0.078557f, 0.108289f, -0.057932f, 0.123831f, -0.200523f, 0.153142f, -0.102554f, 0.030838f, -0.153416f, -0.066574f, 0.165347f, 0.138648f, -0.121751f, 0.058002f, 0.052158f, 0.201526f, 0.052659f, 0.105048f, 0.099394f, 0.147185f, 0.114385f, -0.186007f, -0.072660f, 0.151194f, -0.119460f, -0.105710f, -0.134674f, 0.151284f, 0.119209f, 0.121328f, 0.172462f, -0.019119f, -0.155915f, -0.090710f, -0.205287f, -0.177999f, -0.174254f, 0.069429f, 0.105031f, 0.197785f, -0.015652f, -0.195892f, 0.015422f, 0.074036f, -0.058948f, -0.165411f, 0.015462f, -0.002536f, 0.151094f, -0.102163f, -0.126427f, 0.017440f, 0.334836f, 0.286807f, 0.121799f, 0.099761f, 0.106011f, 0.135269f, 0.027246f, 0.032841f, -0.035856f, 0.153248f, 0.272707f, -0.212143f, -0.000838f, -0.246111f, 0.171762f, 0.324975f, 0.300580f, 0.358245f, 0.260419f, 0.108735f, -0.048775f, 0.073693f, 0.082364f, 0.258051f, 0.268962f, -0.017803f, -0.030156f, 0.098638f, 0.106345f, 0.025745f, 0.211270f, 0.336564f, -0.166886f, -0.014887f, 0.161421f, 0.277182f, 0.018456f, 0.003209f, 0.248248f, 0.290458f, -0.048307f, 0.219376f, -0.128855f, 0.161213f, 0.094981f, 0.053396f, -0.242340f, -0.018957f, 0.086032f, 0.092267f, 0.062272f, -0.137851f, 0.224291f, 0.093985f, 0.075050f, 0.208772f, 0.311386f, 0.197632f, 0.331753f, 0.335962f, 0.021747f, 0.277501f, 0.018145f, -0.212367f, 0.026263f, 0.138877f, 0.200659f, -0.209050f, -0.109390f, 0.188260f, 0.081335f, 0.109722f, -0.072570f, -0.021326f, -0.121525f, -0.153324f, 0.127145f, 0.013999f, 0.142361f, -0.068412f, 0.012634f, -0.059737f, 0.126677f, -0.044069f, -0.205793f, -0.147210f, -0.098993f, 0.127143f, 0.197482f, 0.276132f, 0.053850f, -0.116681f, 0.076044f, 0.169827f, -0.041451f, 0.177565f, 0.059331f, 0.277212f, -0.175409f, 0.006111f, -0.146046f, -0.006264f, 0.244700f, 0.190072f, 0.035929f, 0.091424f, -0.077170f, -0.013319f, 0.245303f, -0.065428f, 0.003190f, -0.065077f, 0.072476f, 0.184173f, 0.104361f, -0.064257f, 0.249101f, 0.124728f, 0.116276f, 0.222215f, 0.184794f, 0.076532f, 0.004369f, -0.112116f, 0.175895f, -0.101476f, -0.072117f, 0.076120f, -0.027774f, -0.196446f, -0.177407f, -0.175793f, 0.069692f, -0.158700f, 0.019013f, -0.117782f, 0.075779f, -0.233812f, 0.028703f, -0.118337f, 0.093049f, 0.194911f, 0.093470f, -0.223843f, -0.132630f, 0.060292f, -0.066182f, 0.126328f, -0.242966f, -0.172042f, -0.164325f, 0.151957f, 0.108055f, -0.097838f, -0.012950f, -0.189246f, -0.067591f, -0.039949f, -0.169608f, 0.120783f, 0.167768f, -0.035061f, 0.102449f, 0.172894f, -0.093793f, 0.092658f, 0.161681f, 0.062565f, -0.190536f, -0.152343f, 0.045920f, 0.005905f, 0.142511f, 0.072418f, -0.082653f, -0.152111f, -0.176598f, -0.109021f, 0.071610f, -0.165662f, 0.154316f, 0.162249f, 0.134346f, -0.070760f, 0.165120f, -0.217716f, 0.106581f, -0.078355f, -0.125165f, -0.135815f, 0.153634f, 0.111560f, -0.158549f, -0.043081f, 0.049643f, 0.167580f, -0.029913f, 0.181593f, -0.169259f, 0.135201f, 0.059078f, 0.103138f, 0.009609f, -0.091100f, -0.027555f, 0.083567f, 0.107995f, -0.090177f, -0.060576f, 0.171767f, 0.015293f, -0.151998f, -0.122598f, -0.157439f, -0.111556f, -0.057928f, 0.104185f, 0.051039f, 0.144678f, -0.003812f, -0.165405f, 0.131644f, -0.031558f, -0.163114f, 0.198297f, 0.131957f, 0.145220f, 0.046927f, 0.181886f, 0.193339f, -0.052285f, -0.102813f, -0.044500f, 0.039594f, -0.017993f, -0.011820f, 0.112843f, 0.216592f, 0.007931f, 0.160371f, -0.131144f, -0.097580f, -0.210625f, -0.128392f, 0.034843f, -0.153166f, -0.011116f, 0.179918f, 0.019057f, -0.184331f, 0.004052f, 0.036542f, -0.191695f, -0.148024f, -0.157949f, 0.057187f, 0.320870f, 0.311018f, 0.257496f, -0.121094f, 0.353124f, 0.011402f, 0.177990f, 0.129501f, 0.143572f, 0.035718f, 0.328032f, 0.006972f, -0.025951f, -0.153110f, -0.093140f, 0.135131f, 0.217061f, 0.076913f, 0.037922f, -0.053030f, 0.156493f, 0.086162f, 0.097844f, 0.017111f, 0.132105f, 0.098219f, -0.098914f, 0.057817f, -0.155102f, -0.025732f, 0.233784f, 0.032214f, 0.046917f, 0.310523f, 0.232120f, 0.048375f, 0.037496f, 0.146344f, 0.081402f, -0.029186f, 0.084062f, 0.094332f, 0.069689f, 0.167435f, 0.256588f, -0.041979f, -0.181090f, 0.035441f, 0.115472f, 0.179612f, 0.279242f, 0.054144f, 0.209169f, 0.113080f, -0.070339f, 0.104840f, 0.083732f, 0.328874f, 0.056198f, -0.051507f, 0.273509f, 0.330931f, 0.015135f, -0.046008f, 0.028564f, -0.098474f, 0.112719f, -0.153574f, -0.040523f, 0.236111f, 0.076369f, -0.068783f, -0.123185f, 0.035022f, -0.070408f, 0.024156f, -0.032572f, -0.084089f, -0.048938f, 0.252968f, 0.035640f, 0.189770f, -0.009907f, -0.169217f, -0.223712f, 0.024808f, 0.033029f, 0.191298f, 0.065116f, 0.020045f, 0.121692f, -0.070147f, -0.115292f, 0.173865f, 0.147318f, 0.020951f, -0.160302f, 0.023516f, -0.188066f, -0.025782f, -0.136913f, -0.139633f, 0.246358f, -0.097728f, 0.182452f, -0.020278f, -0.109333f, 0.067842f, 0.243294f, 0.207684f, 0.073792f, -0.174721f, 0.138310f, -0.100812f, 0.279753f, 0.109535f, 0.275892f, 0.146552f, -0.171103f, -0.135983f, 0.038673f, -0.087088f, 0.175570f, 0.083880f, -0.135543f, 0.029247f, 0.127084f, 0.070941f, -0.071487f, 0.123737f, -0.024509f, -0.059056f, -0.031457f, 0.176912f, -0.194029f, 0.119230f, 0.013253f, -0.038996f, 0.175468f, 0.188123f, 0.195175f, 0.176996f, 0.196704f, 0.051975f, -0.132756f, -0.064668f, -0.065469f, -0.137607f, -0.006279f, -0.147369f, 0.052689f, -0.123600f, -0.058038f, -0.085248f, 0.025635f, 0.104224f, 0.157302f, 0.111446f, 0.179274f, -0.142058f, 0.156768f, -0.004236f, 0.010964f, 0.114315f, -0.131902f, -0.097398f, 0.034500f, 0.078485f, 0.065186f, -0.160551f, 0.193728f, -0.010187f, 0.021185f, -0.095318f, 0.062363f, -0.029177f, -0.164523f, -0.140583f, 0.119687f, -0.012346f, 0.184639f, 0.067868f, -0.138697f, -0.005305f, -0.071500f, -0.143361f, 0.180832f, 0.025878f, 0.037460f, 0.160813f, -0.057131f, -0.056170f, 0.087993f, -0.153745f, 0.158982f, 0.100369f, -0.090463f, -0.162315f, 0.182946f, 0.185735f, 0.102316f, 0.063172f, -0.175239f, -0.025340f, 0.047267f, -0.122821f, -0.194184f, -0.043539f, 0.067246f, 0.034546f, -0.074366f, -0.020531f, -0.191594f, 0.004907f, -0.094404f, -0.134257f, 0.102288f, 0.151999f, -0.168019f, 0.156364f, 0.157150f, 0.136165f, -0.055616f, -0.046722f, 0.177401f, 0.180048f, -0.025413f, 0.018045f, 0.156390f, 0.013900f, 0.067670f, -0.003365f, 0.011855f, -0.117388f, -0.161805f, 0.125255f, 0.056662f, 0.140709f, 0.136749f, -0.143198f, -0.064676f, 0.011696f, 0.149835f, -0.119409f, -0.106137f, -0.084170f, 0.033265f, -0.178526f, 0.153833f, -0.207166f, 0.019573f, -0.172292f, -0.124435f, 0.100790f, -0.094532f, -0.093744f, 0.168226f, 0.070682f, 0.289665f, -0.188611f, 0.242363f, 0.133835f, 0.002844f, 0.311583f, 0.280971f, 0.314726f, 0.062262f, -0.111420f, -0.064320f, -0.248416f, 0.260366f, 0.326269f, 0.267301f, 0.166011f, 0.170986f, 0.116755f, -0.161845f, 0.052579f, 0.261486f, 0.089667f, 0.085171f, 0.026611f, -0.142591f, 0.186931f, -0.088229f, 0.312205f, 0.270534f, 0.144462f, -0.193724f, 0.186447f, 0.188807f, 0.293876f, -0.011214f, -0.092732f, 0.041230f, 0.115535f, 0.030020f, 0.303570f, -0.066309f, 0.118514f, -0.002521f, 0.019322f, 0.056659f, -0.061849f, 0.194052f, -0.075602f, 0.005231f, -0.009306f, 0.140646f, 0.222379f, 0.225818f, -0.002940f, 0.058842f, -0.046303f, 0.164886f, 0.227540f, 0.130089f, 0.188675f, 0.069156f, 0.106673f, 0.029641f, 0.168644f, 0.041114f, -0.100253f, 0.070782f, 0.098235f, 0.204340f, 0.203028f, -0.151249f, 0.076890f, 0.211083f, -0.024160f, 0.010481f, -0.031856f, 0.070827f, 0.188723f, -0.083453f, 0.163903f, -0.044051f, -0.093418f, 0.117446f, 0.101936f, 0.122734f, 0.193875f, 0.098317f, 0.258268f, 0.130028f, -0.019573f, 0.074380f, 0.029480f, 0.174070f, 0.088325f, 0.068650f, 0.214277f, -0.241958f, 0.248747f, -0.137280f, -0.035034f, 0.062149f, 0.188201f, 0.039830f, -0.151796f, -0.161774f, -0.044785f, 0.140915f, -0.064484f, -0.132990f, 0.036036f, 0.260141f, -0.077560f, 0.013162f, 0.166377f, -0.073925f, 0.090146f, 0.111195f, -0.076295f, 0.235921f, 0.201110f, 0.061546f, 0.028117f, 0.011185f, 0.175290f, 0.151475f, 0.071375f, -0.168916f, 0.133502f, -0.068099f, -0.005004f, 0.040377f, -0.202274f, -0.011696f, -0.128240f, 0.010680f, -0.063641f, -0.038842f, -0.078558f, -0.047292f, 0.181569f, 0.207096f, -0.026337f, -0.056671f, -0.082163f, -0.111769f, 0.087599f, 0.034629f, -0.203556f, -0.065092f, 0.064650f, -0.215649f, -0.147328f, 0.144944f, -0.108235f, 0.090455f, -0.141161f, 0.145249f, -0.016443f, 0.157511f, 0.150362f, 0.058446f, 0.168166f, 0.091237f, 0.031084f, -0.130050f, -0.179780f, 0.065322f, -0.157546f, -0.067084f, -0.079243f, -0.116524f, -0.228594f, -0.085328f, 0.052540f, -0.074049f, -0.014212f, 0.138028f, 0.049063f, 0.065094f, 0.143013f, -0.183604f, -0.189495f, 0.010267f, 0.093384f, -0.116245f, -0.151796f, -0.043749f, 0.007580f, -0.116775f, -0.130837f, -0.150287f, -0.154271f, 0.162117f, -0.142703f, 0.020542f, -0.097101f, 0.161429f, 0.127093f, 0.055993f, -0.086142f, -0.153563f, 0.030043f, -0.032979f, -0.034907f, -0.030103f, 0.184742f, 0.028937f, 0.081609f, 0.098713f, 0.136296f, -0.070427f, 0.124865f, -0.112384f, 0.127624f, 0.146566f, 0.150494f, -0.116433f, -0.041145f, 0.138608f, -0.172112f, -0.183023f, 0.205113f, 0.174249f, 0.059470f, 0.039348f, 0.055133f, -0.162884f, -0.127920f, -0.045167f, 0.099829f, 0.102617f, -0.035982f, -0.182115f, 0.011288f, 0.090507f, 0.220789f, -0.224387f, -0.143811f, -0.093799f, 0.223358f, -0.177003f, 0.022555f, 0.082629f, 0.077460f, -0.002998f, -0.084499f, 0.209769f, -0.163638f, -0.085954f, -0.176014f, 0.116257f, 0.039642f, -0.125701f, 0.154898f, 0.212305f, 0.093342f, 0.270194f, 0.035444f, 0.066857f, 0.103259f, 0.164238f, 0.156402f, -0.067062f, 0.301131f, 0.158989f, -0.173383f, 0.117618f, -0.173939f, 0.190702f, 0.214585f, 0.374054f, 0.254949f, 0.161222f, 0.093482f, -0.107932f, -0.223260f, 0.167162f, 0.133444f, 0.283613f, 0.159241f, 0.185437f, 0.172379f, -0.197547f, 0.146958f, 0.226035f, -0.005314f, -0.034499f, -0.002374f, -0.004813f, 0.091442f, 0.116183f, 0.051844f, 0.155226f, 0.323179f, -0.196527f, 0.078751f, -0.094069f, 0.078055f, 0.086332f, -0.087470f, -0.283716f, 0.140869f, 0.166604f, 0.191008f, 0.184891f, 0.071260f, 0.136648f, 0.215764f, -0.024497f, 0.249840f, 0.202155f, 0.079487f, 0.102446f, 0.214512f, -0.038133f, 0.255775f, 0.209480f, -0.103082f, 0.053742f, 0.046450f, 0.158704f, 0.096710f, 0.253367f, 0.002359f, -0.093298f, 0.027841f, 0.082428f, 0.036365f, 0.189742f, -0.188669f, -0.118861f, -0.113212f, 0.219702f, 0.003200f, 0.015370f, -0.038113f, 0.131185f, 0.025148f, -0.171087f, -0.157054f, -0.082986f, 0.069842f, -0.049139f, 0.186853f, -0.039186f, -0.028959f, -0.214147f, -0.012813f, 0.236373f, 0.134694f, 0.160422f, 0.044170f, -0.117358f, 0.228846f, 0.027164f, 0.012962f, -0.072481f, 0.208983f, -0.061526f, 0.082273f, -0.000135f, 0.090098f, 0.126282f, 0.008271f, -0.028231f, -0.072979f, 0.098580f, 0.084762f, 0.208211f, -0.196779f, 0.066629f, -0.056217f, 0.036940f, -0.068158f, 0.066265f, 0.040654f, 0.187449f, 0.271469f, -0.008365f, 0.025301f, 0.035539f, -0.169011f, -0.160882f, 0.091081f, 0.154233f, -0.109004f, 0.089560f, 0.205864f, -0.051730f, -0.032835f, -0.169405f, -0.214753f, -0.203555f, 0.086282f, 0.157176f, 0.223081f, -0.121568f, 0.186997f, -0.103338f, -0.080656f, -0.145529f, 0.131891f, -0.204730f, 0.032764f, 0.181769f, 0.104639f, -0.064706f, -0.090621f, -0.200072f, -0.050579f, -0.094839f, 0.183936f, 0.166340f, 0.109461f, -0.150527f, 0.121172f, -0.065947f, 0.133380f, -0.044061f, -0.024875f, -0.041696f, -0.125802f, 0.141443f, 0.038947f, -0.174446f, -0.130735f, 0.129269f, 0.103561f, 0.199476f, -0.094003f, 0.177103f, -0.182860f, -0.017267f, -0.082861f, 0.211086f, 0.191185f, -0.119492f, -0.103251f, 0.149279f, -0.051044f, 0.007227f, 0.170850f, 0.156378f, -0.041313f, 0.149886f, -0.139571f, 0.235524f, 0.158476f, 0.040163f, -0.010753f, 0.134883f, -0.136610f, 0.005306f, -0.180423f, 0.037398f, 0.042409f, -0.054098f, -0.157929f, -0.054439f, -0.188235f, 0.023044f, -0.011786f, -0.028118f, 0.175140f, -0.155776f, 0.043474f, -0.085794f, -0.037471f, -0.105673f, 0.169585f, 0.189259f, -0.174739f, 0.117461f, -0.081462f, 0.031220f, 0.074406f, -0.021644f, 0.005948f, -0.086429f, -0.026562f, 0.027654f, 0.072151f, 0.109344f, 0.184832f, 0.020750f, -0.085376f, 0.006143f, 0.199966f, -0.049583f, 0.010717f, -0.004086f, 0.089440f, -0.070787f, 0.105543f, -0.074227f, 0.136467f, 0.090845f, 0.193868f, -0.174312f, 0.005043f, -0.015610f, -0.011753f, 0.081120f, 0.015882f, -0.043118f, 0.067952f, 0.152904f, 0.180495f, -0.008859f, -0.051844f, 0.288872f, 0.309194f, 0.227734f, 0.106571f, 0.370677f, 0.164494f, 0.176520f, 0.155315f, -0.010724f, 0.344670f, 0.086925f, 0.178997f, -0.194423f, 0.061319f, -0.019636f, 0.192640f, 0.143861f, 0.282893f, 0.271307f, -0.216887f, -0.123440f, -0.119073f, 0.047616f, -0.067677f, 0.131692f, 0.072543f, -0.174891f, 0.032458f, 0.142110f, 0.279722f, 0.320050f, 0.180257f, 0.069079f, 0.019568f, 0.265370f, 0.025768f, 0.122658f, -0.000523f, -0.044386f, 0.305813f, -0.160548f, 0.226002f, -0.137264f, 0.056083f, -0.009016f, 0.238915f, -0.259002f, -0.148166f, 0.352351f, 0.181952f, 0.258704f, -0.064636f, -0.005320f, 0.090800f, -0.079664f, 0.178448f, 0.068877f, 0.157852f, 0.191554f, -0.025027f, 0.296483f, 0.134222f, -0.195194f, -0.209331f, 0.215879f, 0.034254f, 0.116362f, -0.027275f, -0.127803f, -0.040212f, -0.002021f, 0.036038f, -0.174918f, 0.100287f, -0.050445f, -0.071178f, -0.093352f, -0.026150f, 0.203081f, 0.053983f, -0.024148f, 0.059334f, 0.197241f, 0.135867f, -0.042133f, 0.065813f, 0.231441f, -0.151899f, 0.009040f, -0.060283f, 0.172667f, 0.159277f, -0.166141f, -0.090830f, 0.090093f, 0.191580f, -0.036015f, 0.193662f, 0.022251f, 0.046090f, -0.082575f, -0.163147f, 0.179340f, 0.174155f, -0.190378f, 0.120007f, 0.073376f, 0.172139f, 0.175225f, -0.107934f, -0.222615f, -0.199372f, 0.180458f, 0.159707f, 0.041056f, 0.188380f, 0.102531f, 0.071586f, 0.113352f, -0.048980f, -0.163459f, -0.113574f, -0.154690f, 0.003345f, -0.149151f, 0.147293f, -0.144183f, -0.047270f, 0.118529f, 0.099624f, -0.235611f, 0.162520f, -0.212111f, -0.090477f, 0.075479f, -0.158730f, 0.118864f, -0.169165f, -0.111169f, 0.117304f, -0.158939f, -0.136117f, 0.181206f, -0.099914f, 0.166382f, -0.005325f, 0.026951f, -0.126498f, -0.161460f, -0.088263f, 0.080876f, -0.142922f, -0.124248f, 0.131071f, -0.049002f, 0.090529f, -0.094402f, -0.052848f, -0.161946f, -0.175149f, 0.103163f, -0.077586f, -0.101522f, 0.131160f, -0.048173f, 0.072210f, -0.020133f, -0.119120f, -0.016366f, 0.117525f, 0.023779f, 0.123617f, 0.113088f, -0.058282f, 0.024596f, 0.113091f, -0.229002f, -0.229622f, -0.067983f, -0.043673f, 0.152928f, -0.081549f, -0.221242f, 0.180685f, 0.029927f, 0.136305f, -0.097542f, -0.115514f, 0.162537f, -0.030627f, 0.086360f, 0.081119f, 0.237711f, -0.009423f, -0.127431f, -0.147712f, -0.118291f, -0.075982f, 0.161033f, -0.030607f, 0.019550f, -0.140981f, -0.037345f, 0.127327f, 0.202512f, -0.075011f, 0.114585f, -0.094715f, 0.005884f, -0.146755f, 0.040467f, -0.016881f, -0.062141f, 0.006335f, 0.131928f, 0.216993f, 0.152481f, -0.168030f, 0.202747f, 0.191712f, -0.103811f, -0.076817f, 0.137072f, -0.070824f, -0.185158f, 0.088423f, 0.203950f, 0.037587f, 0.121805f, -0.100712f, 0.007842f, 0.170075f, 0.103951f, -0.126553f, 0.166894f, 0.027938f, 0.163183f, 0.021138f, -0.101229f, 0.179361f, -0.161265f, -0.067446f, 0.069188f, -0.113588f, -0.053254f, -0.023196f, 0.233589f, -0.155156f, -0.088768f, 0.127667f, 0.223694f, -0.143806f, -0.014581f, 0.149661f, -0.205031f, 0.064195f, 0.103076f, 0.099592f, 0.214330f, -0.194494f, 0.290692f, 0.170715f, 0.319171f, 0.049571f, 0.140746f, 0.283666f, 0.000572f, 0.001627f, -0.195094f, -0.239175f, -0.004972f, 0.041780f, 0.227799f, 0.309273f, 0.151290f, 0.025071f, -0.008120f, -0.195252f, 0.299349f, 0.016530f, -0.006837f, 0.164666f, 0.069369f, 0.157273f, -0.009405f, 0.056622f, -0.053834f, -0.028920f, -0.124111f, -0.013061f, 0.022541f, 0.014815f, 0.028711f, 0.101374f, 0.256815f, 0.136405f, -0.008538f, 0.262817f, -0.104021f, 0.167092f, 0.006386f, 0.056786f, -0.319430f, -0.027634f, 0.273308f, 0.168210f, 0.273230f, -0.052616f, 0.171050f, 0.060463f, -0.007719f, 0.033252f, 0.089264f, 0.168611f, 0.100222f, 0.180870f, 0.145557f, 0.320660f, -0.128464f, 0.109087f, 0.056207f, -0.007608f, 0.135815f, 0.161391f, 0.210152f, -0.069980f, 0.226168f, 0.273270f, -0.013413f, -0.077482f, 0.209286f, 0.174776f, 0.022106f, -0.156729f, 0.245374f, 0.031741f, 0.011797f, -0.125244f, 0.040918f, 0.179823f, -0.175604f, 0.108830f, 0.148825f, -0.149985f, -0.002825f, 0.129284f, 0.157666f, -0.184367f, -0.020098f, 0.176207f, 0.254497f, 0.014164f, -0.004811f, 0.147857f, -0.165169f, 0.149675f, 0.075578f, 0.072337f, 0.159984f, -0.072225f, -0.072211f, -0.135689f, 0.037513f, -0.065513f, 0.201608f, -0.078922f, 0.085405f, -0.014566f, 0.118728f, 0.100436f, 0.085236f, -0.003758f, 0.180611f, 0.037974f, 0.096293f, -0.066538f, 0.034734f, -0.127839f, 0.077043f, 0.212437f, 0.088579f, -0.121927f, 0.011199f, -0.120497f, -0.168903f, 0.068825f, 0.138070f, -0.051495f, -0.092886f, -0.044280f, -0.086235f, 0.159525f, -0.060672f, -0.043755f, -0.186555f, -0.064971f, 0.012315f, 0.060665f, 0.111185f, 0.071006f, 0.064386f, 0.010859f, -0.144015f, 0.015744f, -0.207468f, 0.021712f, 0.134002f, -0.202278f, 0.023979f, -0.169019f, 0.040336f, -0.162351f, 0.090657f, 0.155459f, 0.205016f, 0.197332f, 0.070608f, 0.068194f, -0.173511f, 0.207978f, -0.114594f, 0.135067f, -0.195782f, 0.130595f, -0.205823f, -0.156017f, -0.053702f, -0.174797f, -0.047233f, 0.155008f, 0.079865f, 0.167627f, 0.186580f, -0.147466f, -0.034466f, 0.162677f, 0.037384f, 0.028062f, 0.002257f, 0.026872f, -0.184287f, -0.086740f, -0.158424f, 0.022537f, -0.067126f, 0.013010f, -0.008922f, 0.119515f, -0.137204f, -0.126741f, 0.225412f, -0.180884f, 0.150794f, -0.017773f, 0.032963f, -0.094648f, 0.224922f, 0.083205f, 0.142509f, 0.034086f, 0.038410f, -0.150912f, 0.197222f, 0.123933f, -0.086880f, 0.019868f, 0.226675f, -0.001357f, -0.059260f, 0.068689f, -0.037788f, 0.037385f, -0.171722f, -0.132112f, -0.155526f, -0.184982f, -0.071597f, 0.150314f, 0.114417f, 0.222478f, -0.187033f, -0.167175f, 0.026342f, 0.125281f, 0.012362f, -0.048886f, -0.165096f, -0.169183f, -0.122883f, 0.215365f, -0.188239f, -0.098986f, 0.055439f, 0.232514f, -0.081285f, -0.005706f, 0.127510f, 0.162429f, -0.010602f, 0.081612f, 0.187275f, -0.051029f, -0.135111f, 0.153887f, 0.135336f, -0.137099f, 0.074533f, 0.038643f, -0.100720f, 0.115432f, 0.060624f, -0.089749f, 0.216432f, 0.123321f, 0.087852f, 0.025977f, 0.327781f, 0.335463f, 0.018000f, 0.155907f, 0.171470f, 0.059677f, 0.157188f, -0.148469f, 0.068394f, -0.279946f, -0.078330f, 0.283545f, 0.287137f, 0.397995f, 0.326945f, 0.082342f, 0.131303f, 0.018059f, 0.351480f, 0.204328f, 0.004987f, 0.269067f, -0.201576f, 0.168938f, 0.091322f, 0.046418f, 0.076559f, 0.008668f, 0.139449f, 0.058211f, 0.242139f, 0.052155f, -0.149781f, 0.006455f, 0.241934f, 0.354297f, 0.187746f, 0.136181f, 0.164776f, 0.188770f, 0.169211f, 0.172446f, -0.242499f, 0.057077f, 0.324690f, 0.307489f, -0.030318f, -0.164457f, 0.239680f, 0.163081f, 0.053753f, 0.273801f, 0.144975f, 0.314928f, 0.079445f, 0.263514f, 0.129398f, 0.311704f, -0.184438f, 0.161822f, 0.194388f, 0.201450f, -0.125540f, 0.170433f, -0.149836f, 0.012939f, 0.203455f, 0.181135f, -0.157439f, -0.084670f, 0.024239f, 0.000698f, 0.044372f, -0.015596f, 0.136226f, 0.015208f, -0.093924f, -0.110340f, 0.130229f, 0.155903f, -0.129779f, -0.104910f, -0.153220f, 0.109859f, 0.062986f, 0.128761f, 0.008641f, -0.145995f, -0.095589f, -0.004449f, 0.199545f, 0.073268f, 0.025849f, -0.230988f, -0.183706f, -0.119444f, 0.184374f, -0.110961f, -0.123163f, -0.040295f, -0.022077f, 0.090658f, 0.130044f, -0.036498f, -0.123870f, 0.106148f, -0.104886f, 0.102920f, 0.026588f, -0.144746f, -0.056444f, -0.074485f, 0.186910f, -0.099120f, 0.089938f, 0.091086f, 0.019090f, 0.027110f, 0.131349f, 0.186899f, 0.119668f, 0.121772f, 0.161184f, 0.200328f, -0.228127f, 0.128137f, -0.021951f, 0.194992f, -0.152089f, 0.000829f, 0.003523f, -0.083469f, 0.025959f, 0.108456f, -0.082158f, 0.052616f, 0.050202f, 0.256695f, 0.111194f, -0.181040f, -0.057550f, -0.105386f, -0.224786f, -0.052863f, 0.047961f, 0.029922f, -0.030758f, -0.157078f, -0.037481f, -0.140230f, 0.091548f, -0.082941f, -0.162163f, 0.171953f, 0.158304f, 0.033325f, -0.016106f, 0.190519f, -0.136942f, -0.135930f, 0.130516f, -0.188906f, -0.162973f, 0.065544f, 0.148787f, 0.047775f, 0.118616f, -0.113082f, -0.136381f, -0.036861f, 0.035349f, 0.016703f, 0.138825f, 0.143436f, -0.058252f, 0.030354f, 0.113617f, 0.106526f, -0.218598f, 0.027395f, -0.040208f, 0.108134f, 0.157083f, 0.018336f, -0.068885f, -0.154026f, -0.012191f, 0.130572f, -0.099728f, 0.182833f, 0.070426f, 0.054099f, -0.034288f, -0.146964f, 0.143618f, 0.128977f, 0.115896f, -0.127259f, 0.212670f, 0.024656f, -0.079304f, -0.220557f, -0.068415f, 0.125155f, 0.109508f, 0.085358f, 0.130964f, 0.158797f, -0.136514f, -0.103774f, -0.027993f, -0.131528f, -0.174272f, 0.056950f, -0.031248f, -0.176697f, 0.079475f, -0.003775f, 0.015123f, 0.164448f, 0.174371f, -0.013043f, -0.027635f, 0.001589f, -0.125398f, 0.111341f, -0.118218f, -0.044556f, 0.156556f, -0.102894f, 0.034070f, 0.190370f, -0.116847f, 0.095818f, -0.194132f, -0.173342f, 0.221112f, 0.229416f, -0.187083f, -0.004166f, -0.168478f, 0.110175f, 0.205534f, 0.020026f, 0.035224f, 0.075358f, -0.071052f, -0.121736f, -0.174964f, -0.123501f, 0.128685f, -0.118249f, 0.247992f, 0.091799f, 0.111231f, 0.064243f, 0.404078f, 0.019511f, 0.238311f, 0.333330f, 0.028409f, 0.284056f, 0.114764f, -0.044714f, 0.019204f, 0.053765f, -0.006942f, 0.014124f, 0.055734f, 0.280968f, -0.016578f, -0.023272f, -0.019824f, 0.088259f, 0.353838f, 0.012492f, 0.325036f, 0.267375f, 0.090719f, 0.165876f, 0.068548f, 0.142626f, 0.106384f, 0.271085f, -0.104385f, 0.362122f, -0.028633f, 0.210175f, -0.078471f, -0.171520f, 0.155262f, 0.330345f, 0.065816f, 0.393592f, -0.064219f, 0.129932f, 0.024012f, -0.057263f, -0.146311f, 0.171843f, 0.289704f, 0.043907f, 0.017708f, 0.152949f, 0.323307f, 0.140148f, -0.037015f, 0.228072f, 0.020732f, 0.088403f, 0.179496f, 0.325155f, 0.385066f, 0.113236f, -0.155998f, 0.159311f, 0.013937f, 0.203011f, 0.065917f, 0.064127f, -0.065493f, -0.026215f, -0.030366f, 0.091181f, -0.149155f, -0.097642f, -0.018638f, 0.081016f, -0.114531f, 0.187269f, 0.108083f, 0.205824f, -0.126181f, 0.108302f, -0.040802f, 0.179562f, -0.139252f, -0.194767f, 0.149027f, -0.128859f, -0.103890f, 0.138186f, -0.163931f, -0.179655f, 0.138669f, -0.180504f, 0.023982f, 0.162662f, -0.044556f, -0.147479f, -0.249255f, 0.050340f, 0.098660f, -0.172284f, 0.061089f, -0.016599f, 0.008558f, 0.136618f, 0.046852f, -0.145986f, 0.038844f, 0.022620f, -0.024211f, 0.067087f, -0.068723f, 0.196339f, 0.131578f, 0.149014f, 0.222281f, 0.123120f, 0.146947f, -0.082003f, -0.196480f, -0.158411f, 0.186248f, -0.134065f, 0.160652f, -0.042523f, 0.056082f, 0.091013f, 0.152989f, 0.112688f, -0.059656f, 0.151319f, 0.113105f, 0.142996f, -0.024547f, -0.076497f, -0.065039f, 0.165764f, 0.181161f, 0.040646f, 0.163542f, -0.037124f, -0.093700f, -0.074978f, -0.139293f, -0.100261f, 0.111826f, 0.130133f, 0.070783f, -0.232360f, 0.059178f, 0.007631f, 0.012475f, 0.081130f, -0.077986f, -0.069391f, 0.001697f, -0.071264f, 0.032030f, 0.012394f, 0.115935f, -0.191432f, -0.185990f, 0.015686f, -0.065124f, 0.158272f, 0.172010f, 0.153402f, -0.057287f, -0.048194f, 0.004801f, 0.087922f, -0.057709f, -0.191203f, -0.007987f, 0.181386f, -0.128517f, 0.011754f, 0.185302f, -0.088231f, 0.166210f, -0.112403f, -0.096201f, 0.025992f, 0.001733f, -0.072404f, -0.096441f, 0.105053f, 0.197567f, -0.091121f, -0.149629f, 0.039623f, 0.238691f, -0.045291f, 0.221477f, 0.174898f, 0.175549f, 0.201460f, 0.145784f, -0.125538f, 0.228127f, 0.033125f, -0.126371f, -0.072729f, 0.157961f, -0.096823f, 0.184802f, -0.108024f, 0.148650f, 0.143840f, 0.240257f, 0.179538f, 0.008735f, 0.059701f, 0.088529f, -0.090114f, 0.023617f, -0.155637f, 0.128975f, -0.084738f, 0.162294f, -0.117812f, -0.153727f, 0.094909f, -0.122142f, 0.159514f, 0.088022f, 0.085281f, -0.085598f, 0.042844f, -0.178544f, 0.026149f, -0.072631f, -0.009494f, -0.015656f, -0.077205f, 0.176902f, 0.012567f, -0.115123f, -0.052809f, -0.053864f, 0.125458f, -0.153351f, 0.179941f, 0.186466f, 0.075871f, 0.066528f, -0.064761f, 0.136147f, 0.051130f, -0.128576f, 0.181751f, 0.111563f, 0.016129f, 0.043094f, -0.157770f, 0.359023f, 0.101367f, 0.156061f, -0.009550f, 0.218401f, 0.326559f, 0.397070f, 0.080324f, 0.155461f, 0.204171f, 0.056409f, -0.091640f, -0.102662f, -0.268381f, 0.127283f, 0.215612f, 0.380756f, 0.139817f, 0.296615f, 0.102275f, 0.126174f, -0.146429f, 0.299636f, 0.313325f, 0.153591f, 0.311213f, 0.084773f, 0.163671f, 0.035384f, 0.415344f, 0.171540f, 0.129897f, -0.014434f, 0.240223f, 0.328526f, 0.247880f, -0.109620f, 0.163892f, 0.020557f, 0.179355f, -0.165191f, 0.453105f, -0.161486f, 0.041611f, 0.042393f, 0.156970f, -0.350121f, 0.115700f, 0.381788f, 0.341622f, 0.137043f, -0.024837f, 0.077762f, 0.222920f, 0.038455f, 0.288345f, 0.257397f, 0.262208f, 0.224445f, 0.383956f, 0.236853f, 0.218051f, 0.054821f, -0.138784f, -0.198831f, 0.051844f, -0.078050f, -0.160317f, -0.165432f, 0.054561f, 0.024656f, 0.100617f, -0.142610f, -0.059170f, -0.113963f, -0.142599f, 0.048570f, -0.066065f, 0.094725f, -0.018476f, 0.074512f, -0.169238f, 0.056861f, 0.177558f, 0.036695f, 0.024209f, -0.235038f, -0.078245f, -0.125339f, -0.243450f, -0.001937f, 0.107908f, 0.106322f, -0.044313f, 0.006723f, 0.052503f, -0.061531f, 0.083628f, 0.097523f, -0.053564f, 0.118639f, -0.194204f, -0.116927f, -0.162266f, -0.074260f, 0.052234f, 0.167230f, 0.087895f, -0.058368f, -0.220142f, -0.142590f, -0.198812f, 0.096623f, -0.213071f, -0.033781f, -0.126438f, -0.102286f, 0.184877f, 0.042811f, -0.087446f, -0.211893f, 0.065765f, -0.068256f, 0.093896f, -0.062158f, -0.088598f, 0.086979f, 0.173026f, 0.108681f, -0.194026f, -0.068050f, -0.037032f, -0.076269f, -0.018331f, -0.090407f, 0.148154f, 0.161573f, 0.099766f, 0.161404f, 0.178913f, 0.165434f, -0.097667f, 0.108168f, -0.211917f, 0.035658f, 0.041830f, -0.009109f, 0.222482f, -0.068369f, 0.090362f, -0.102397f, 0.051959f, 0.032675f, -0.185684f, 0.089182f, -0.058237f, 0.099788f, -0.044485f, -0.026201f, 0.164124f, -0.007538f, -0.119136f, -0.087901f, -0.161938f, -0.096287f, -0.090892f, -0.225974f, 0.172018f, -0.142932f, 0.073560f, 0.170100f, 0.149218f, -0.173478f, -0.053288f, -0.082498f, 0.165011f, -0.179320f, 0.004086f, 0.096271f, -0.168239f, 0.156780f, -0.054870f, -0.173293f, -0.016121f, 0.026529f, -0.150075f, -0.145673f, -0.052470f, -0.079708f, -0.119535f, -0.085533f, -0.087502f, -0.013208f, 0.183444f, -0.070081f, 0.060787f, 0.087702f, -0.022250f, -0.117412f, 0.134493f, -0.107246f, -0.062449f, 0.030677f, -0.010162f, 0.117484f, -0.115754f, 0.050558f, -0.053827f, 0.058112f, -0.040795f, -0.058853f, 0.044467f, 0.207430f, -0.103654f, -0.126533f, -0.021150f, 0.203591f, 0.189523f, 0.002949f, -0.125891f, 0.112901f, 0.195649f, 0.153665f, 0.188811f, 0.150676f, 0.059471f, 0.240404f, 0.104721f, -0.203198f, 0.030908f, 0.115204f, -0.124609f, 0.026507f, -0.008114f, -0.014465f, -0.126250f, 0.031171f, 0.073505f, -0.183747f, 0.114826f, 0.042488f, 0.211344f, 0.162458f, 0.067207f, 0.027452f, 0.031291f, -0.076053f, 0.169180f, -0.075176f, 0.119935f, 0.124073f, -0.087387f, -0.018579f, 0.101933f, 0.204279f, -0.067871f, -0.042486f, 0.140920f, 0.078497f, -0.089526f, 0.015457f, -0.241325f, 0.061788f, 0.037306f, 0.069514f, -0.257427f, -0.139951f, -0.054546f, -0.036394f, -0.001195f, -0.073019f, -0.008231f, -0.166017f, -0.246676f, -0.165335f, 0.154370f, -0.002310f, -0.031684f, -0.016195f, -0.243916f, -0.084303f, -0.163199f, -0.087627f, -0.020861f, 0.119358f, -0.076714f, -0.157605f, -0.001441f, 0.162371f, -0.231354f, 0.028992f, -0.237512f, 0.176628f, 0.106476f, -0.077727f, -0.229549f, 0.175075f, -0.080230f, -0.132613f, -0.213021f, 0.083429f, -0.083970f, -0.068262f, 0.203391f, 0.114635f, 0.049470f, -0.017486f, -0.021663f, -0.063935f, 0.061027f, 0.080065f, -0.186261f, -0.148513f, -0.262958f, -0.209194f, -0.171766f, 0.145587f, 0.070086f, -0.081165f, 0.154683f, 0.168247f, 0.103888f, -0.002634f, -0.201732f, 0.074189f, -0.185883f, -0.125049f, -0.149433f, 0.060976f, -0.045295f, 0.037425f, -0.178065f, 0.130151f, 0.134577f, -0.135639f, 0.051394f, 0.058856f, -0.180282f, 0.040101f, 0.147120f, -0.163193f, -0.118293f, 0.075932f, -0.016516f, 0.084384f, -0.216484f, -0.076924f, -0.102010f, 0.099994f, -0.211331f, -0.024418f, -0.152796f, 0.000606f, 0.056494f, -0.181371f, 0.195476f, 0.176023f, -0.013888f, -0.121828f, 0.126327f, 0.068931f, -0.183932f, 0.045251f, 0.003070f, 0.039223f, -0.108228f, -0.056116f, 0.149606f, -0.205498f, 0.115384f, 0.197550f, 0.111009f, 0.227992f, 0.011326f, -0.029118f, 0.139194f, -0.019008f, -0.034705f, 0.161880f, -0.185898f, -0.157262f, 0.025427f, -0.167239f, -0.039189f, 0.017680f, 0.000838f, -0.104558f, 0.077760f, -0.138650f, 0.201273f, 0.073725f, 0.210369f, -0.161859f, 0.165731f, -0.142105f, -0.186635f, -0.130246f, -0.035911f, 0.069110f, 0.127340f, 0.034203f, -0.183330f, 0.015200f, -0.090393f, 0.083031f, 0.018180f, 0.024752f, -0.044288f, 0.096694f, -0.070339f, 0.002885f, -0.029521f, 0.078533f, -0.180733f, 0.170231f, 0.024416f, -0.078446f, -0.126166f, 0.113364f, -0.101445f, -0.026418f, 0.034015f, -0.078107f, -0.075948f, 0.071883f, 0.096794f, 0.053734f, -0.003500f, -0.160556f, 0.060127f, 0.203887f, 0.183815f, -0.070837f, 0.187181f, -0.122136f, 0.058069f, 0.033309f, 0.148755f, -0.063902f, -0.109799f, -0.103155f, 0.145285f, -0.171888f, -0.083335f, -0.184347f, 0.040031f, 0.118416f, -0.175573f, 0.101895f, -0.052413f, 0.159605f, -0.143532f, 0.244408f, -0.040779f, -0.089266f, 0.157616f, 0.066226f, 0.146498f, 0.021728f, -0.160605f, 0.040309f, -0.061828f, -0.078280f, 0.056801f, 0.059592f, 0.135758f, -0.119716f, -0.129672f, -0.042084f, -0.055032f, 0.181368f, -0.054292f, -0.035121f, -0.032118f, 0.151142f, 0.138318f, -0.188594f, 0.037747f, -0.056031f, 0.085333f, -0.185134f, 0.027135f, -0.071763f, -0.082751f, 0.116523f, -0.167676f, -0.060341f, 0.139905f, -0.147110f, -0.090906f, 0.208683f, -0.055013f, 0.062328f, 0.072299f, -0.169593f, -0.163046f, 0.137964f, 0.124620f, -0.003388f, 0.174994f, -0.161713f, -0.110618f, 0.152490f, -0.162172f, 0.073238f, 0.154766f, -0.067942f, -0.167012f, 0.178830f, -0.120594f, 0.087357f, -0.051444f, -0.228617f, -0.072100f, 0.073155f, 0.051588f, 0.074742f, 0.060271f, -0.197849f, -0.229915f, -0.232048f, -0.264040f, -0.070112f, 0.072329f, -0.045808f, 0.079892f, -0.238872f, 0.000505f, -0.298543f, -0.204520f, -0.002146f, -0.094799f, -0.170727f, -0.128009f, -0.283127f, -0.066381f, -0.000776f, -0.240536f, -0.075469f, 0.051586f, 0.060053f, 0.081889f, -0.194573f, -0.145306f, 0.165807f, -0.029768f, 0.080486f, -0.269546f, 0.093924f, -0.035483f, -0.097118f, -0.299298f, -0.109874f, 0.004814f, -0.085310f, 0.006861f, -0.097845f, 0.067041f, 0.225189f, -0.004798f, -0.295726f, -0.046062f, -0.052477f, -0.040430f, -0.098960f, -0.085865f, -0.120375f, -0.210578f, 0.029706f, -0.158521f, -0.127280f, -0.006899f, -0.151507f, -0.160774f, -0.164700f, -0.046612f, 0.061181f, 0.160191f, -0.102951f, 0.180896f, -0.079165f, -0.052605f, -0.034326f, 0.063986f, -0.071469f, -0.020641f, 0.144290f, -0.151606f, -0.091646f, 0.239102f, 0.173201f, -0.106400f, 0.001895f, -0.072143f, -0.056886f, 0.015095f, 0.108612f, 0.020406f, -0.179995f, 0.112514f, -0.034429f, -0.017920f, -0.146708f, 0.135722f, -0.230533f, 0.085318f, -0.067399f, 0.023233f, -0.100889f, -0.049489f, -0.002049f, -0.036680f, -0.057824f, 0.082406f, 0.001366f, -0.075107f, -0.201581f, -0.016780f, -0.133504f, -0.175699f, 0.053803f, -0.096512f, -0.198532f, 0.082169f, -0.159751f, 0.002884f, -0.096565f, 0.198175f, -0.108905f, 0.212747f, -0.036203f, 0.092459f, 0.080479f, -0.085197f, 0.060020f, 0.085146f, -0.213126f, 0.058357f, -0.126830f, -0.070249f, -0.042894f, 0.143292f, 0.048146f, 0.024158f, -0.006413f, 0.067395f, 0.034610f, 0.077472f, -0.009155f, -0.096050f, -0.214171f, 0.175634f, -0.101798f, 0.227937f, -0.078806f, 0.027359f, -0.151248f, -0.063385f, -0.113225f, -0.098824f, -0.158383f, -0.073032f, 0.165590f, -0.088985f, -0.084619f, 0.056148f, 0.098884f, 0.002925f, 0.112573f, -0.185949f, 0.186689f, 0.175310f, -0.162347f, -0.174141f, 0.180602f, -0.067260f, -0.180786f, 0.023300f, 0.025582f, -0.050834f, 0.068041f, -0.033370f, 0.078381f, -0.139759f, -0.115919f, -0.201631f, -0.114097f, -0.103074f, -0.141611f, -0.090627f, -0.019146f, -0.155349f, -0.019573f, 0.021427f, 0.033991f, 0.019289f, 0.011350f, 0.076118f, -0.121373f, 0.122208f, 0.056554f, 0.112423f, 0.158090f, 0.127121f, -0.047898f, 0.122934f, -0.012480f, -0.113559f, 0.119322f, 0.037259f, 0.102806f, 0.011762f, 0.173012f, -0.101761f, -0.167373f, -0.108788f, -0.057550f, -0.067049f, -0.048459f, 0.075907f, 0.169471f, -0.187737f, -0.162836f, 0.023205f, -0.159116f, -0.008838f, 0.101296f, -0.021907f, -0.126165f, -0.047873f, -0.163398f, 0.071378f, -0.041611f, -0.023391f, -0.107914f, -0.089569f, -0.069582f, 0.130333f, -0.096161f, 0.095746f, -0.060604f, -0.144397f, 0.017235f, -0.010649f, 0.146882f, 0.120459f, -0.119844f, 0.028904f, -0.122344f, 0.157207f, -0.166882f, -0.004850f, -0.015801f, -0.019605f, 0.139636f, -0.093481f, 0.061789f, -0.053539f, 0.088915f, 0.045103f, 0.032734f, 0.176602f, 0.116146f, 0.162281f, -0.143141f, -0.067721f, -0.090243f, 0.182195f, -0.225709f, -0.136103f, -0.239012f, 0.053209f, -0.237137f, 0.027044f, -0.154500f, -0.322190f, -0.142024f, -0.109629f, -0.182623f, 0.173128f, -0.114176f, -0.116509f, -0.055042f, -0.186931f, -0.281345f, -0.072167f, -0.287909f, -0.073528f, 0.111133f, -0.070213f, 0.036542f, -0.044804f, -0.295511f, -0.140866f, -0.143274f, -0.030093f, 0.185772f, -0.179099f, -0.014757f, 0.050655f, -0.183618f, -0.242769f, -0.199983f, -0.281268f, -0.102886f, -0.024300f, -0.045597f, -0.156759f, 0.157405f, -0.038032f, 0.133823f, -0.024842f, -0.083041f, -0.238431f, 0.270976f, 0.063037f, -0.277051f, -0.182870f, -0.221314f, -0.069288f, -0.226469f, -0.269086f, 0.006443f, -0.062048f, -0.204392f, 0.036629f, 0.026162f, -0.053159f, -0.276428f, -0.045695f, 0.179050f, 0.160958f, -0.141978f, -0.210386f, 0.191997f, -0.127221f, -0.067803f, -0.050454f, -0.178111f, 0.228155f, 0.150540f, 0.119395f, -0.077832f, -0.123506f, -0.089754f, -0.002622f, -0.054131f, -0.057057f, -0.174217f, 0.122446f, -0.040809f, 0.046736f, 0.070151f, 0.027268f, -0.195322f, 0.061691f, -0.223755f, 0.000076f, -0.164144f, 0.186030f, -0.216026f, -0.045802f, 0.177434f, 0.001914f, -0.023998f, -0.199020f, -0.256492f, 0.055301f, -0.028217f, 0.080524f, 0.114931f, -0.191738f, 0.130888f, -0.077601f, 0.044373f, -0.014338f, -0.013086f, 0.129819f, -0.005703f, 0.207387f, -0.027226f, -0.173122f, 0.201018f, -0.137676f, -0.066030f, 0.246786f, -0.044873f, -0.174046f, 0.089067f, -0.115411f, -0.209084f, 0.017497f, -0.179368f, -0.152960f, -0.171721f, 0.094854f, 0.136989f, 0.045360f, 0.062274f, -0.086319f, 0.041115f, -0.160645f, -0.039204f, -0.143378f, -0.037678f, -0.094353f, 0.162379f, -0.146905f, -0.186660f, 0.034009f, -0.081140f, -0.086172f, -0.048629f, 0.180664f, -0.048332f, -0.063153f, -0.060408f, -0.201649f, -0.028809f, -0.150876f, 0.157726f, 0.184564f, 0.027101f, 0.038396f, 0.077967f, 0.062839f, -0.145505f, 0.002295f, -0.111398f, -0.191966f, 0.023825f, 0.210624f, 0.147296f, 0.140316f, 0.051617f, 0.120155f, 0.115726f, -0.159551f, -0.141928f, -0.046391f, -0.174880f, 0.110708f, -0.050598f, -0.103055f, -0.034868f, -0.098276f, 0.078062f, -0.152890f, 0.184610f, 0.066491f, 0.045249f, 0.112548f, 0.053151f, 0.181749f, -0.177301f, 0.136972f, 0.079828f, -0.163118f, 0.191320f, -0.018015f, 0.014854f, -0.014119f, -0.006688f, 0.016846f, 0.062911f, -0.085475f, -0.054199f, -0.197888f, 0.077454f, 0.144404f, 0.140553f, 0.062920f, 0.148959f, -0.185215f, 0.107813f, -0.047374f, -0.183341f, -0.153715f, 0.081148f, -0.205136f, -0.080158f, 0.077486f, -0.155938f, -0.148190f, 0.007093f, 0.102823f, -0.147407f, -0.160335f, 0.112741f, -0.124616f, 0.164583f, 0.017124f, 0.179150f, 0.022990f, 0.217602f, -0.109728f, -0.160513f, -0.007076f, 0.103370f, -0.054914f, -0.097855f, -0.086747f, 0.071233f, -0.185198f, -0.125501f, 0.237482f, -0.198010f, -0.044139f, 0.043002f, 0.046925f, -0.122915f, -0.119667f, 0.057744f, -0.049018f, 0.141287f, 0.205222f, -0.136498f, 0.091210f, 0.066800f, -0.138899f, 0.135673f, 0.005967f, -0.049750f, 0.214536f, -0.096328f, 0.029659f, -0.135106f, 0.144079f, 0.020535f, -0.104427f, 0.037020f, -0.281429f, -0.163401f, -0.044908f, -0.140732f, 0.091360f, 0.009227f, -0.088919f, -0.200125f, -0.112985f, -0.273874f, -0.201353f, -0.086070f, 0.170606f, -0.021565f, 0.181440f, -0.335417f, -0.089511f, 0.004578f, -0.008820f, 0.197619f, 0.162625f, 0.019919f, -0.221447f, -0.112736f, -0.037717f, -0.023773f, -0.287924f, -0.175104f, -0.022349f, 0.156336f, 0.018036f, -0.015494f, 0.068760f, 0.176277f, -0.289247f, -0.010351f, -0.177166f, -0.202533f, -0.001708f, -0.010358f, 0.111411f, -0.275315f, -0.162581f, -0.076197f, 0.121397f, -0.129941f, -0.006709f, -0.051509f, -0.062470f, -0.010749f, -0.190263f, -0.112081f, -0.142964f, -0.176518f, -0.159985f, -0.077977f, -0.118082f, -0.111017f, -0.205903f, 0.147771f, 0.004696f, -0.004882f, 0.045895f, -0.160226f, -0.043989f, 0.008041f, -0.118878f, -0.140793f, -0.013929f, -0.048360f, 0.050001f, 0.121130f, -0.089869f, -0.004614f, 0.001692f, 0.143257f, 0.010640f, 0.015816f, -0.122601f, -0.248877f, 0.071355f, 0.162951f, 0.000350f, -0.004689f, 0.040140f, 0.025073f, -0.043919f, 0.114693f, 0.178355f, -0.172515f, 0.136815f, 0.012809f, -0.133649f, 0.169140f, 0.151622f, -0.074795f, 0.112439f, 0.159719f, 0.128886f, -0.162670f, -0.116063f, -0.178210f, -0.159683f, 0.134438f, -0.066813f, 0.029158f, -0.134149f, 0.107453f, 0.091552f, -0.169855f, 0.147625f, -0.166654f, -0.039242f, -0.186707f, 0.113557f, -0.145457f, -0.110820f, 0.131482f, -0.096719f, 0.002341f, 0.138952f, -0.016606f, -0.007304f, 0.048839f, -0.121651f, 0.049798f, 0.038137f, -0.137063f, 0.078615f, 0.019333f, -0.122000f, 0.071838f, -0.002681f, -0.094981f, 0.069112f, 0.198701f, -0.065341f, 0.055538f, -0.036545f, 0.155371f, -0.077593f, -0.036628f, -0.203538f, -0.217735f, 0.162525f, 0.158977f, 0.019949f, 0.044837f, 0.177080f, -0.120223f, -0.054791f, 0.162095f, -0.048215f, 0.146015f, -0.159787f, -0.033534f, 0.027583f, 0.153863f, 0.037116f, -0.117150f, 0.066057f, 0.041617f, 0.129240f, 0.040606f, 0.135734f, -0.040328f, 0.135599f, -0.091737f, -0.196146f, -0.070920f, 0.126139f, 0.146213f, 0.185833f, -0.060758f, -0.068200f, 0.158226f, 0.023831f, -0.083685f, -0.130584f, 0.111478f, -0.069737f, -0.019017f, -0.045463f, -0.110575f, 0.003087f, -0.112377f, 0.165445f, -0.008688f, -0.062962f, -0.036551f, 0.032057f, 0.174238f, -0.192133f, -0.138701f, 0.097957f, -0.149487f, 0.034436f, -0.048874f, -0.093296f, 0.057041f, -0.018336f, -0.081651f, -0.017889f, 0.021707f, 0.009660f, 0.066688f, -0.144763f, -0.058522f, 0.060982f, -0.122956f, 0.062147f, -0.042279f, -0.062326f, 0.093038f, -0.009748f, 0.034306f, -0.221322f, -0.119622f, -0.230527f, -0.106802f, -0.106256f, 0.171637f, 0.046590f, 0.124512f, -0.181218f, 0.142556f, -0.005491f, 0.158754f, 0.160824f, 0.048709f, 0.076300f, -0.228721f, 0.134370f, 0.041025f, -0.148346f, -0.113418f, -0.024974f, 0.053402f, -0.104204f, -0.058797f, -0.005840f, 0.151199f, 0.032648f, 0.145352f, 0.024427f, 0.066185f, 0.077777f, -0.004583f, -0.113003f, 0.067391f, -0.205984f, 0.061698f, 0.064673f, -0.298918f, 0.057446f, -0.134690f, -0.151071f, -0.223478f, -0.234840f, -0.292650f, 0.143565f, 0.057611f, -0.052670f, -0.250017f, -0.190333f, -0.322915f, -0.195908f, -0.070717f, -0.132592f, -0.201481f, 0.047437f, -0.059804f, -0.149458f, -0.239530f, -0.108714f, -0.068881f, -0.078726f, -0.033379f, -0.209105f, 0.027576f, -0.092682f, -0.024246f, -0.264111f, -0.213279f, -0.158575f, -0.102024f, 0.026690f, -0.123712f, -0.098966f, -0.081893f, -0.264238f, 0.161340f, -0.288119f, -0.094082f, 0.021055f, 0.222696f, 0.090915f, -0.057203f, -0.239843f, -0.089484f, 0.108686f, -0.251547f, -0.119117f, -0.249120f, -0.055579f, -0.334078f, -0.100469f, -0.290315f, -0.082641f, -0.227095f, -0.119889f, -0.160361f, -0.002062f, 0.147526f, 0.028643f, 0.041698f, 0.078207f, -0.062104f, -0.090750f, 0.170560f, 0.261756f, -0.053872f, -0.123960f, -0.004809f, 0.178119f, 0.111813f, -0.066583f, 0.012446f, 0.067699f, 0.067890f, 0.052606f, 0.000756f, 0.066687f, -0.093550f, -0.177728f, -0.097321f, -0.197471f, -0.189848f, 0.040520f, 0.050935f, 0.170314f, 0.007981f, -0.088358f, -0.111266f, -0.036439f, -0.111636f, 0.046852f, 0.155406f, 0.228504f, 0.030569f, 0.016412f, 0.057226f, -0.095898f, 0.015864f, 0.061345f, 0.097279f, 0.139232f, -0.017365f, -0.079699f, -0.199561f, -0.055417f, 0.080990f, 0.090598f, -0.015557f, 0.181047f, -0.055072f, 0.207879f, 0.155788f, 0.011612f, -0.120191f, -0.049232f, -0.029950f, -0.110594f, 0.047159f, -0.023858f, 0.019066f, -0.059171f, -0.042161f, 0.034346f, -0.123197f, 0.174491f, 0.049588f, -0.131699f, 0.089450f, 0.046819f, 0.064079f, -0.209081f, -0.089314f, -0.053922f, 0.110278f, 0.166077f, -0.091190f, 0.010402f, 0.166806f, 0.116575f, 0.027277f, 0.171829f, -0.231517f, -0.214046f, -0.086592f, 0.136534f, -0.142384f, -0.210179f, 0.111467f, -0.040507f, 0.022981f, 0.144127f, -0.141642f, -0.134548f, 0.146547f, -0.180662f, 0.008284f, -0.156268f, -0.167154f, -0.083869f, 0.077475f, -0.024870f, 0.066177f, 0.155159f, 0.166165f, 0.048741f, -0.011623f, -0.120495f, 0.029826f, 0.140844f, 0.174808f, 0.140965f, 0.114253f, -0.199132f, 0.121586f, 0.057083f, 0.076590f, -0.140314f, -0.052535f, 0.147559f, -0.147521f, -0.175278f, -0.194126f, -0.174664f, -0.184788f, -0.030330f, -0.104724f, 0.158624f, 0.170314f, 0.079219f, -0.227749f, 0.193359f, -0.023442f, 0.127165f, 0.168017f, 0.156357f, -0.091381f, -0.062173f, 0.113809f, -0.207465f, -0.142438f, -0.022639f, 0.046465f, -0.252331f, -0.144760f, -0.075965f, 0.127493f, -0.083079f, -0.130808f, -0.094048f, 0.178502f, 0.054984f, -0.056399f, 0.051071f, 0.112890f, 0.100634f, 0.013130f, 0.137098f, -0.162690f, -0.062247f, 0.073695f, -0.214038f, 0.128963f, -0.053614f, -0.207566f, 0.167356f, -0.130235f, 0.094583f, -0.085036f, -0.151769f, -0.048407f, -0.002741f, -0.255261f, -0.148484f, -0.171283f, -0.190968f, -0.092534f, -0.180709f, 0.039385f, 0.105753f, -0.062202f, 0.113165f, 0.014307f, -0.133581f, 0.063730f, -0.111735f, -0.164221f, 0.116508f, -0.085661f, 0.009900f, -0.166862f, 0.050920f, -0.172862f, 0.120328f, -0.021853f, -0.046208f, 0.031127f, -0.156048f, -0.292180f, -0.283288f, -0.297577f, -0.091749f, -0.081139f, -0.067914f, 0.020630f, -0.182925f, -0.244161f, -0.127749f, -0.268652f, -0.020057f, 0.012364f, 0.140460f, 0.051457f, 0.050492f, -0.143342f, -0.328870f, 0.188306f, 0.150307f, -0.096934f, 0.047679f, -0.013070f, -0.086952f, 0.121034f, -0.103384f, 0.066114f, -0.312146f, 0.198869f, -0.050977f, -0.263440f, -0.015916f, 0.129990f, -0.261722f, 0.074820f, -0.126567f, 0.037325f, -0.037965f, 0.092685f, -0.139781f, -0.372539f, -0.039041f, -0.231669f, -0.064549f, -0.200437f, -0.031805f, -0.022176f, -0.259544f, -0.124545f, -0.110748f, -0.278422f, -0.070070f, -0.315497f, -0.174258f, 0.050712f, 0.182476f, 0.131016f, -0.182818f, 0.022188f, 0.051015f, -0.101892f, -0.059920f, -0.021390f, 0.168943f, 0.117662f, 0.057924f, 0.142033f, 0.023728f, -0.125637f, -0.040715f, 0.025572f, -0.194503f, -0.060753f, 0.086131f, -0.099030f, 0.101483f, 0.051580f, -0.143934f, -0.014756f, -0.063256f, 0.036370f, 0.039901f, 0.032075f, 0.157152f, 0.011598f, -0.158258f, 0.215253f, -0.074455f, -0.016638f, 0.034176f, -0.173886f, 0.157075f, 0.061686f, 0.100794f, 0.106830f, -0.055568f, 0.129121f, 0.084649f, 0.140789f, -0.130710f, -0.123958f, -0.125921f, 0.122446f, -0.094215f, -0.005263f, 0.011182f, 0.024626f, -0.024478f, 0.090925f, -0.115538f, 0.064767f, -0.045033f, 0.184186f, 0.003298f, 0.125381f, -0.216959f, 0.219616f, -0.156017f, -0.107047f, 0.128304f, -0.166982f, -0.207914f, 0.165122f, 0.129755f, 0.024320f, -0.199671f, 0.155257f, 0.099760f, 0.155880f, -0.119253f, -0.046034f, 0.021765f, 0.039182f, -0.019302f, 0.173943f, -0.005220f, 0.141855f, 0.094617f, -0.149255f, -0.116803f, -0.080116f, 0.084252f, -0.116027f, 0.098756f, 0.053203f, -0.001861f, -0.028565f, -0.041028f, 0.174096f, -0.096296f, 0.163494f, -0.024848f, -0.081438f, 0.036769f, -0.220394f, 0.144884f, 0.082138f, -0.150461f, -0.014305f, 0.136187f, -0.055922f, 0.022050f, -0.136183f, 0.003291f, -0.135444f, 0.009375f, -0.101168f, -0.200636f, -0.184881f, 0.133928f, -0.043061f, -0.041330f, 0.074082f, -0.004586f, -0.095842f, 0.086200f, 0.068564f, 0.090186f, 0.150827f, -0.171332f, -0.208012f, 0.060394f, -0.105785f, -0.101316f, -0.004296f, 0.039173f, -0.230636f, 0.000629f, 0.020806f, 0.033198f, 0.057234f, -0.143926f, -0.117483f, -0.080216f, 0.072022f, 0.045239f, -0.109544f, 0.134879f, -0.105335f, 0.004502f, 0.103378f, -0.165570f, -0.180085f, 0.106010f, 0.210030f, -0.158321f, -0.116915f, 0.209517f, 0.096512f, -0.012014f, -0.155662f, -0.071643f, -0.011353f, -0.143431f, -0.180520f, -0.206290f, 0.018529f, -0.081717f, -0.065358f, 0.160354f, 0.123133f, 0.153804f, 0.086459f, 0.156336f, 0.065112f, -0.010802f, -0.123448f, -0.018139f, -0.209610f, 0.000143f, 0.065017f, 0.100479f, 0.142992f, -0.196262f, -0.163229f, -0.022924f, -0.194183f, 0.062013f, 0.191576f, 0.184213f, -0.109834f, 0.029167f, -0.055456f, -0.153523f, 0.036965f, -0.074996f, 0.106396f, 0.217343f, -0.284325f, -0.042812f, -0.319930f, 0.054633f, -0.320102f, -0.240186f, -0.222911f, -0.241328f, -0.026762f, -0.043126f, -0.162144f, 0.077326f, 0.166930f, 0.015661f, -0.065793f, -0.096981f, -0.011566f, -0.176384f, -0.293403f, -0.004938f, -0.004346f, 0.181870f, -0.243208f, -0.116589f, -0.109080f, -0.009873f, -0.022221f, 0.154543f, -0.112414f, -0.220043f, -0.001475f, -0.354406f, -0.119565f, -0.290113f, 0.010441f, -0.187913f, -0.201831f, -0.067902f, -0.130115f, -0.118549f, 0.122907f, -0.209804f, 0.141653f, -0.091031f, -0.342404f, -0.250999f, -0.037426f, 0.088733f, -0.137783f, -0.195990f, -0.063069f, 0.147634f, -0.325521f, -0.016870f, -0.220433f, -0.053645f, -0.172388f, 0.036828f, 0.004095f, -0.226545f, -0.230521f, -0.172651f, -0.022867f, 0.195104f, 0.054487f, -0.015155f, 0.212662f, -0.017632f, 0.243361f, 0.038440f, -0.191221f, 0.228938f, -0.113223f, 0.226228f, -0.026586f, 0.186476f, -0.035023f, 0.104642f, 0.198578f, -0.159541f, 0.236901f, 0.038872f, 0.172080f, -0.139556f, -0.023997f, -0.139284f, 0.051727f, 0.129726f, 0.046436f, -0.171941f, 0.042868f, -0.081267f, -0.046991f, -0.132972f, 0.009187f, -0.109060f, 0.088208f, -0.007241f, -0.010879f, 0.160362f, 0.078383f, 0.079423f, -0.128638f, 0.221747f, 0.114633f, 0.170599f, -0.149606f, -0.115634f, -0.072992f, -0.104857f, 0.014493f, 0.132138f, 0.227009f, -0.025359f, -0.049154f, -0.020579f, 0.125650f, 0.240508f, -0.031080f, 0.002739f, -0.022145f, 0.085031f, -0.005367f, -0.109446f, 0.135842f, -0.016007f, 0.019837f, -0.167932f, -0.196203f, -0.190219f, 0.084534f, -0.197135f, 0.028976f, -0.130741f, 0.082021f, 0.048455f, -0.019059f, 0.168320f, 0.039334f, -0.160212f, -0.131329f, 0.240372f, 0.021701f, -0.164764f, -0.054050f, -0.203114f, 0.041405f, -0.177481f, -0.158171f, -0.119211f, 0.142071f, -0.021834f, -0.059262f, 0.145670f, -0.112529f, 0.106809f, 0.011395f, -0.046319f, 0.219577f, 0.160457f, 0.008080f, 0.035436f, -0.024229f, -0.078576f, -0.092972f, -0.136903f, 0.041563f, 0.135119f, -0.188792f, 0.023044f, -0.200544f, 0.051017f, -0.184073f, 0.089122f, 0.262744f, 0.181643f, -0.100195f, -0.183497f, -0.013693f, -0.051899f, 0.085236f, 0.225601f, -0.019913f, -0.168523f, -0.137565f, -0.006456f, -0.149638f, 0.023021f, -0.077555f, 0.036413f, 0.087004f, 0.028174f, -0.142118f, 0.070684f, 0.018759f, 0.161562f, -0.251608f, -0.041032f, -0.124056f, -0.156971f, -0.014206f, -0.118444f, -0.049764f, 0.076088f, -0.140872f, -0.022699f, 0.046834f, 0.058236f, -0.179296f, 0.125673f, -0.176102f, -0.021821f, -0.022284f, -0.199575f, -0.170099f, -0.106394f, 0.010461f, -0.022777f, -0.003301f, -0.086548f, -0.101204f, 0.059089f, 0.197805f, 0.110252f, -0.070854f, -0.248436f, -0.028323f, 0.026822f, -0.105024f, 0.118352f, 0.159954f, 0.039706f, 0.112084f, -0.017309f, 0.116621f, 0.132766f, -0.040365f, -0.017948f, -0.247991f, 0.094592f, -0.011522f, -0.132499f, -0.009220f, -0.085268f, -0.060023f, -0.131441f, 0.195592f, -0.196416f, 0.101743f, 0.027247f, -0.127579f, -0.178361f, 0.123607f, -0.071192f, 0.130431f, -0.159468f, 0.070484f, 0.042570f, -0.024375f, 0.178831f, -0.317762f, 0.067431f, 0.035328f, 0.029706f, -0.211977f, -0.154701f, -0.318380f, 0.115963f, -0.004676f, -0.010620f, -0.135812f, -0.118424f, -0.133430f, -0.208550f, -0.152234f, 0.024771f, 0.122144f, 0.172281f, -0.322487f, -0.307952f, -0.277046f, -0.093504f, 0.140861f, 0.146257f, 0.071493f, -0.139307f, -0.101138f, -0.077886f, 0.047261f, -0.289230f, -0.064659f, 0.012883f, 0.161765f, -0.067906f, -0.238598f, -0.174156f, -0.090874f, -0.003464f, -0.092901f, -0.213867f, -0.270363f, -0.194867f, 0.217512f, 0.118026f, -0.363990f, -0.294007f, -0.039308f, 0.185349f, -0.183068f, -0.188814f, 0.140370f, -0.305684f, -0.216462f, -0.129567f, -0.277450f, -0.128782f, -0.221460f, -0.077818f, 0.035033f, -0.140633f, -0.022740f, -0.087054f, 0.050472f, 0.126929f, 0.239797f, -0.151442f, 0.098822f, 0.247898f, 0.180057f, 0.019060f, 0.127946f, 0.089373f, -0.119741f, -0.014506f, 0.011991f, -0.064013f, 0.245077f, -0.010446f, 0.001070f, 0.140355f, -0.223745f, -0.176709f, 0.226179f, 0.064155f, 0.138241f, 0.201454f, 0.175020f, -0.111674f, -0.072924f, -0.118958f, 0.196081f, 0.012460f, 0.054601f, 0.191203f, -0.091282f, 0.216663f, -0.032697f, 0.131776f, 0.228144f, 0.134656f, -0.040045f, 0.258866f, 0.084690f, 0.194443f, 0.066438f, 0.144993f, 0.106672f, 0.122181f, 0.237463f, 0.031345f, -0.086480f, -0.129008f, 0.140168f, 0.012807f, -0.207059f, 0.103764f, 0.137787f, 0.191487f, 0.047571f, -0.056837f, 0.172183f, 0.093042f, 0.004572f, 0.170247f, -0.117100f, 0.133710f, -0.022459f, 0.067943f, -0.132435f, -0.037831f, -0.106737f, -0.024382f, -0.027177f, -0.128825f, -0.008555f, 0.193641f, 0.170940f, -0.030327f, 0.069375f, -0.033261f, 0.128904f, -0.001783f, -0.101050f, 0.025313f, -0.118576f, 0.036226f, 0.034236f, 0.165359f, 0.067225f, -0.118834f, -0.063114f, 0.126593f, -0.127810f, 0.094404f, -0.072004f, -0.038076f, 0.041675f, -0.064766f, -0.224306f, 0.016903f, 0.019845f, 0.103924f, 0.136539f, 0.168515f, 0.121773f, 0.119735f, 0.157842f, -0.006038f, 0.128157f, -0.149617f, 0.108423f, -0.070025f, -0.081295f, -0.132654f, 0.211394f, -0.052755f, 0.036486f, 0.052983f, 0.002595f, -0.071554f, -0.157602f, 0.123039f, 0.055254f, 0.101841f, -0.012567f, -0.149142f, -0.182781f, 0.057629f, 0.067676f, 0.132367f, -0.016473f, 0.016141f, -0.101589f, -0.143483f, -0.024253f, -0.096278f, 0.184292f, -0.172171f, -0.034789f, 0.107653f, -0.127697f, -0.113730f, -0.051230f, -0.123646f, 0.102785f, -0.263045f, -0.198016f, 0.163581f, 0.055258f, 0.174990f, 0.135146f, 0.014087f, 0.160054f, 0.141487f, -0.000128f, 0.148265f, -0.221180f, 0.115856f, -0.059268f, -0.019776f, 0.072223f, -0.127621f, -0.005198f, 0.093246f, -0.191158f, 0.153555f, 0.069418f, 0.178905f, 0.161889f, 0.035018f, 0.073552f, -0.098084f, -0.148658f, -0.070183f, 0.058744f, -0.130251f, -0.007678f, -0.222593f, -0.094859f, -0.003251f, -0.043090f, 0.079416f, 0.027659f, -0.171569f, -0.244590f, -0.017474f, -0.142796f, -0.131145f, 0.024519f, -0.048702f, 0.043910f, -0.104191f, 0.060514f, -0.293115f, -0.100766f, 0.013978f, -0.082430f, -0.064500f, -0.019777f, -0.054306f, -0.199856f, -0.159462f, -0.174261f, 0.159667f, -0.071761f, 0.229303f, -0.103587f, -0.345962f, -0.188659f, -0.228758f, -0.272369f, 0.080298f, -0.053233f, -0.027019f, -0.041081f, -0.301121f, -0.015240f, -0.265040f, -0.172122f, 0.161931f, -0.136477f, -0.226710f, -0.000677f, 0.044400f, 0.201458f, -0.197969f, -0.033927f, -0.143221f, 0.144833f, 0.173449f, 0.031789f, -0.153870f, -0.017318f, -0.101871f, -0.152451f, -0.150617f, -0.021828f, 0.096936f, 0.042681f, 0.178603f, -0.116390f, 0.045123f, -0.327600f, 0.062026f, 0.031413f, -0.078778f, 0.131824f, -0.089933f, -0.160725f, -0.241826f, -0.085199f, -0.274977f, -0.277909f, -0.170809f, -0.138318f, -0.076413f, -0.040116f, -0.186235f, -0.118195f, -0.086134f, 0.033855f, -0.133371f, 0.075696f, -0.184660f, -0.076219f, 0.205994f, 0.044226f, 0.089069f, 0.241036f, 0.220032f, 0.108239f, 0.006999f, -0.093628f, -0.172126f, -0.093611f, 0.101766f, 0.020045f, -0.163912f, -0.173287f, -0.189713f, -0.005053f, -0.218509f, -0.060041f, 0.021224f, 0.217905f, 0.148969f, 0.078114f, 0.182296f, 0.043371f, -0.019596f, 0.142589f, 0.052448f, 0.089846f, 0.166806f, 0.095684f, -0.071578f, -0.125498f, 0.105332f, 0.149264f, -0.025564f, -0.084454f, -0.064911f, 0.255236f, -0.137568f, -0.168583f, 0.171904f, 0.175937f, 0.123738f, -0.012025f, -0.204919f, -0.030034f, 0.036994f, -0.034189f, -0.104314f, 0.004569f, -0.229842f, 0.062250f, -0.158443f, 0.149108f, -0.168573f, -0.194146f, -0.163679f, -0.018131f, 0.100387f, -0.143684f, 0.200759f, 0.021285f, 0.061192f, 0.055661f, 0.070744f, 0.121068f, -0.155980f, 0.075970f, 0.196679f, 0.064688f, -0.006563f, 0.071095f, 0.140388f, -0.178016f, -0.180604f, 0.008358f, -0.155751f, 0.022576f, -0.145576f, 0.115590f, 0.157009f, 0.149374f, 0.148520f, -0.159497f, -0.007667f, -0.123311f, 0.120755f, -0.080226f, -0.160873f, -0.063019f, -0.064052f, 0.092382f, -0.085584f, 0.107825f, 0.101370f, 0.186610f, -0.192527f, -0.153936f, -0.075185f, 0.098962f, -0.069079f, 0.255547f, 0.093311f, 0.041874f, -0.029519f, 0.184409f, 0.070037f, 0.093234f, 0.043829f, -0.201330f, 0.196561f, 0.191201f, 0.032067f, 0.041737f, 0.058543f, 0.109371f, -0.039813f, 0.018182f, 0.150769f, -0.070194f, 0.042658f, 0.073912f, 0.174475f, -0.050449f, 0.115155f, -0.003710f, -0.140378f, 0.189121f, -0.116986f, 0.154262f, -0.112857f, -0.052774f, -0.175218f, -0.049543f, -0.003397f, 0.057376f, 0.090315f, -0.218653f, -0.156439f, -0.126177f, 0.121167f, 0.112561f, -0.064703f, 0.197145f, -0.023997f, 0.199828f, 0.053877f, -0.182466f, -0.074026f, -0.189157f, -0.019827f, -0.165316f, -0.260305f, 0.154766f, -0.059549f, 0.165185f, -0.030355f, -0.148936f, 0.053179f, -0.010628f, 0.067422f, 0.032872f, -0.160779f, 0.034794f, -0.073226f, 0.070407f, 0.101488f, 0.001464f, -0.159255f, -0.031541f, -0.115130f, 0.042633f, -0.177497f, 0.179814f, -0.110017f, -0.291499f, 0.136116f, -0.122409f, 0.127595f, -0.112099f, -0.051021f, 0.160302f, -0.092282f, -0.244120f, -0.191959f, -0.321837f, 0.148245f, 0.000007f, -0.137280f, -0.330457f, -0.084062f, 0.081081f, -0.086840f, -0.153712f, -0.125182f, 0.175221f, -0.001388f, 0.036174f, -0.315781f, -0.201600f, -0.080652f, -0.124081f, -0.132991f, -0.045261f, -0.114886f, 0.011049f, -0.310211f, -0.310347f, 0.004446f, 0.194181f, 0.181240f, 0.037655f, -0.300651f, -0.218099f, -0.092196f, 0.135803f, -0.001670f, -0.094107f, 0.066324f, -0.102432f, 0.143472f, -0.106974f, -0.193672f, 0.170603f, -0.228098f, -0.102165f, -0.216930f, -0.232988f, -0.018675f, 0.268206f, 0.219177f, -0.070503f, -0.322040f, -0.093972f, 0.084449f, 0.016030f, -0.170532f, 0.016453f, -0.161924f, -0.308791f, -0.101976f, -0.185638f, -0.052706f, -0.173462f, 0.051252f };
static const float battery_soh_layer_1_biases[32] = { -0.033906f, 0.255349f, -0.054391f, 0.378871f, -0.058356f, -0.024336f, -0.038668f, 0.278346f, 0.177626f, -0.026564f, 0.266900f, 0.204070f, 0.384319f, 0.255011f, 0.248123f, -0.044508f, -0.027939f, -0.015903f, 0.311709f, -0.039391f, 0.347749f, 0.231639f, 0.201789f, -0.034689f, 0.288321f, -0.042701f, 0.174379f, 0.298199f, 0.416384f, 0.429853f, -0.040459f, 0.351217f };
static const float battery_soh_layer_1_weights[2048] = { 0.086383f, 0.201450f, -0.101604f, -0.146019f, 0.053535f, 0.138090f, 0.034721f, -0.058822f, -0.109047f, -0.017516f, -0.145257f, -0.131881f, -0.135087f, 0.195575f, -0.198241f, 0.117792f, 0.181126f, 0.001036f, -0.108591f, -0.027331f, -0.067625f, -0.021324f, -0.174769f, -0.064996f, 0.022597f, -0.232158f, 0.094764f, -0.095336f, -0.157326f, -0.240987f, -0.140063f, 0.142719f, -0.186768f, 0.214978f, -0.213639f, -0.082171f, -0.084674f, 0.201301f, 0.034181f, -0.006502f, 0.012991f, 0.011786f, -0.009074f, -0.127995f, 0.035171f, -0.203188f, 0.118658f, 0.021078f, 0.094884f, -0.167268f, -0.201335f, 0.215760f, 0.049413f, -0.178844f, -0.201754f, 0.188171f, 0.217320f, -0.130940f, -0.208086f, -0.207224f, 0.164638f, -0.219378f, 0.110780f, -0.025321f, -0.164520f, 0.346598f, -0.011715f, 0.288916f, 0.065596f, -0.237395f, -0.148963f, -0.064009f, 0.314819f, 0.013502f, 0.242099f, -0.083039f, 0.163065f, -0.100399f, 0.214469f, 0.011853f, -0.272572f, -0.062350f, 0.050569f, 0.030289f, 0.223621f, -0.036843f, 0.269687f, -0.251209f, -0.061489f, 0.173042f, -0.068488f, 0.369056f, 0.007142f, 0.261661f, 0.179835f, 0.258230f, -0.064090f, 0.018669f, 0.035952f, -0.012966f, -0.208188f, 0.148223f, 0.106139f, -0.101360f, 0.238468f, -0.095491f, 0.186485f, 0.233684f, -0.080808f, 0.256186f, 0.123116f, 0.039400f, 0.107856f, -0.226001f, 0.035871f, -0.134309f, 0.083493f, -0.110839f, 0.074791f, 0.095192f, 0.224340f, -0.162776f, 0.079512f, 0.137825f, 0.010790f, 0.030050f, 0.127898f, 0.210762f, -0.252230f, 0.095004f, -0.079813f, 0.096914f, -0.020343f, -0.189965f, 0.045617f, -0.035812f, 0.017881f, -0.112342f, -0.112097f, 0.169926f, 0.398326f, -0.045050f, 0.312984f, 0.078246f, 0.069176f, 0.038078f, 0.152925f, -0.067693f, 0.289439f, 0.347562f, -0.052539f, -0.098053f, -0.022680f, -0.223021f, 0.140849f, 0.054916f, -0.010230f, 0.301922f, 0.093516f, 0.104094f, 0.023613f, -0.006931f, 0.175843f, 0.132964f, 0.041658f, -0.059334f, 0.051156f, -0.137888f, 0.000874f, -0.218330f, 0.052060f, 0.115555f, 0.107655f, -0.217386f, 0.046360f, -0.004955f, -0.047640f, 0.228055f, 0.078395f, -0.053235f, 0.040415f, -0.010451f, 0.001857f, 0.128063f, -0.104044f, 0.073302f, -0.102155f, -0.110037f, 0.049242f, 0.195432f, -0.061979f, 0.057526f, 0.093551f, 0.282402f, -0.115849f, 0.034580f, 0.039065f, -0.077796f, 0.048830f, 0.196476f, -0.155547f, 0.024134f, 0.151153f, -0.134107f, 0.272533f, 0.310236f, 0.303558f, -0.155251f, -0.256113f, -0.149185f, 0.256982f, 0.006380f, 0.280954f, -0.037030f, 0.219821f, -0.086937f, 0.035682f, 0.009230f, -0.082910f, 0.060785f, 0.136020f, 0.387201f, -0.156506f, 0.315176f, -0.059507f, 0.237862f, -0.298932f, 0.199229f, -0.172397f, 0.093810f, 0.060659f, -0.051303f, 0.022312f, -0.110943f, 0.080762f, 0.307327f, 0.074686f, 0.171788f, 0.301265f, -0.107918f, -0.235443f, 0.201028f, 0.112394f, -0.070807f, 0.080178f, 0.179916f, 0.195419f, -0.009981f, -0.074550f, 0.024496f, 0.286998f, -0.113668f, -0.090090f, 0.165353f, 0.053469f, 0.075641f, -0.079885f, -0.085742f, 0.142943f, 0.003597f, 0.107195f, -0.151820f, -0.125382f, 0.375173f, 0.320467f, 0.044086f, 0.213331f, 0.326482f, 0.080108f, 0.333512f, -0.069042f, 0.152821f, -0.260581f, -0.139341f, 0.272134f, -0.267973f, 0.133826f, -0.089523f, -0.084077f, -0.241013f, 0.149708f, -0.317257f, 0.141004f, 0.162093f, 0.189706f, -0.040421f, 0.025166f, 0.137394f, 0.073909f, 0.253046f, -0.241564f, 0.162453f, -0.235188f, 0.074555f, 0.092900f, 0.130004f, 0.221424f, -0.093200f, 0.262668f, 0.235983f, 0.258802f, -0.001352f, 0.227776f, -0.212614f, -0.152479f, -0.199246f, -0.078611f, 0.014887f, 0.389825f, -0.021258f, -0.073763f, -0.133167f, -0.085158f, -0.258089f, 0.036837f, -0.013790f, 0.270967f, 0.212028f, -0.328056f, 0.134033f, 0.121134f, -0.145286f, -0.212416f, 0.067097f, 0.106499f, -0.200416f, -0.308013f, 0.243876f, 0.152838f, -0.257977f, 0.004711f, 0.117338f, 0.242539f, 0.056327f, -0.093947f, -0.300061f, -0.271418f, 0.077503f, -0.005015f, 0.154607f, 0.227909f, 0.132240f, 0.216700f, -0.326858f, 0.106393f, -0.150200f, -0.102155f, 0.089022f, 0.068228f, 0.217181f, -0.214174f, 0.212765f, -0.230964f, 0.160380f, 0.018163f, 0.098304f, -0.014980f, 0.114176f, -0.250740f, 0.263226f, 0.103488f, -0.018408f, 0.048006f, 0.167579f, 0.275073f, -0.080487f, 0.330754f, -0.170728f, 0.113799f, 0.056674f, 0.082511f, -0.048034f, -0.032317f, -0.003733f, -0.110146f, -0.298739f, 0.015985f, 0.166068f, 0.206546f, 0.019864f, 0.294915f, 0.388631f, -0.348421f, 0.346867f, -0.186337f, 0.015845f, 0.085161f, 0.248393f, -0.145837f, -0.009834f, -0.195939f, 0.305959f, -0.124622f, 0.079761f, 0.212890f, 0.056190f, 0.331123f, 0.123263f, -0.120020f, -0.118640f, 0.171494f, -0.106479f, -0.038423f, -0.031744f, 0.220798f, 0.023178f, 0.082308f, -0.040404f, 0.032920f, -0.108917f, 0.245941f, 0.356478f, 0.138793f, -0.039371f, -0.264003f, 0.303020f, -0.231607f, 0.027696f, 0.241092f, 0.032870f, 0.137966f, -0.185438f, 0.138345f, -0.176788f, 0.051559f, 0.102738f, -0.152945f, 0.161193f, 0.091910f, 0.230472f, -0.081503f, 0.126617f, -0.057453f, -0.230157f, 0.168106f, -0.070614f, -0.227870f, 0.105226f, -0.166055f, 0.145920f, -0.027997f, 0.008838f, -0.073047f, -0.151037f, -0.068137f, -0.189494f, 0.040960f, 0.186321f, -0.046955f, 0.093758f, -0.097600f, -0.189438f, -0.027734f, -0.108556f, 0.145757f, -0.135765f, -0.108071f, -0.144213f, 0.172944f, -0.070908f, -0.046830f, -0.079059f, 0.052736f, -0.085222f, 0.109961f, 0.224359f, -0.085460f, 0.059014f, -0.002516f, -0.114203f, 0.144534f, -0.009628f, 0.150107f, -0.222321f, 0.173162f, -0.153716f, 0.004921f, 0.142503f, -0.107581f, -0.172584f, -0.017044f, 0.153687f, -0.048090f, 0.057494f, 0.094094f, -0.137422f, -0.115327f, 0.055410f, -0.276150f, -0.181295f, -0.115212f, -0.083951f, -0.080406f, -0.060029f, -0.210700f, -0.093747f, 0.184544f, -0.028265f, 0.087324f, -0.003947f, -0.054812f, -0.261356f, -0.192843f, -0.068487f, -0.265665f, -0.190666f, -0.255673f, -0.208936f, -0.133659f, -0.023722f, -0.053316f, -0.150630f, 0.094278f, 0.326602f, 0.153115f, -0.035950f, 0.068359f, -0.045795f, 0.148624f, 0.273219f, 0.160534f, -0.027245f, -0.049477f, 0.190908f, -0.039349f, -0.072477f, 0.141148f, 0.062599f, -0.218957f, -0.037577f, 0.254917f, -0.066664f, 0.234503f, 0.121493f, 0.229333f, -0.003482f, 0.141229f, -0.061153f, 0.054004f, 0.011878f, -0.020937f, 0.299840f, -0.205386f, 0.327401f, 0.055859f, 0.176177f, -0.162332f, 0.296647f, -0.031988f, 0.215146f, -0.255011f, 0.082617f, 0.114653f, -0.249140f, 0.207836f, -0.121477f, 0.219566f, 0.038081f, 0.200989f, -0.053903f, 0.149564f, -0.015036f, 0.161588f, -0.124252f, 0.368015f, 0.038838f, 0.036338f, 0.155016f, 0.227096f, 0.043512f, 0.228273f, -0.060785f, 0.134995f, -0.037543f, -0.123767f, -0.007049f, -0.224190f, 0.337221f, -0.318111f, 0.331486f, 0.093392f, -0.221239f, 0.187357f, 0.183220f, 0.027740f, -0.272989f, 0.173555f, -0.168545f, 0.073143f, 0.200513f, 0.174931f, -0.097584f, -0.218937f, -0.246047f, 0.301224f, -0.170121f, 0.359231f, 0.159250f, 0.188739f, -0.168404f, 0.023449f, -0.093530f, -0.104106f, 0.113668f, 0.190498f, 0.023380f, -0.190008f, 0.043106f, -0.065705f, 0.316578f, 0.078167f, 0.261137f, -0.248859f, -0.002894f, -0.244145f, 0.092084f, -0.057580f, -0.248626f, 0.121118f, 0.025721f, 0.213407f, -0.089379f, -0.083930f, -0.209017f, -0.186963f, -0.216371f, 0.242329f, 0.005850f, 0.158845f, 0.091759f, 0.009842f, -0.202969f, 0.290761f, -0.099999f, 0.034351f, 0.077340f, 0.325698f, 0.231307f, -0.030395f, 0.071559f, -0.246474f, -0.121391f, 0.129987f, 0.238611f, -0.064745f, -0.245567f, 0.206104f, 0.260083f, -0.183820f, -0.019860f, 0.245179f, 0.163193f, 0.133978f, 0.167697f, 0.066608f, 0.039679f, -0.167039f, -0.012070f, -0.006983f, -0.138932f, -0.000973f, 0.308725f, 0.132302f, 0.045572f, 0.261428f, -0.070676f, 0.078284f, 0.239483f, 0.155877f, 0.378682f, 0.042202f, 0.016510f, 0.047750f, 0.145310f, -0.038182f, -0.138993f, -0.090932f, 0.058498f, -0.188976f, -0.105109f, -0.178412f, 0.157418f, 0.198647f, 0.152008f, 0.072189f, -0.045474f, 0.173294f, -0.116020f, 0.206500f, -0.018092f, -0.199642f, 0.180383f, -0.067319f, 0.274327f, -0.195990f, 0.225441f, 0.157090f, 0.180701f, -0.104452f, 0.073121f, -0.064422f, -0.214257f, -0.194260f, -0.105167f, -0.163573f, 0.183395f, 0.170648f, 0.082602f, -0.139492f, 0.028800f, -0.088011f, -0.124137f, -0.034588f, 0.175570f, -0.088811f, 0.218795f, 0.075362f, -0.086079f, -0.086557f, -0.019183f, -0.144453f, 0.146408f, 0.289993f, 0.154420f, 0.221329f, 0.271809f, -0.032535f, 0.048386f, 0.132858f, 0.063260f, 0.064444f, -0.145850f, 0.277163f, 0.200163f, -0.242057f, 0.144840f, -0.245934f, 0.256030f, 0.095536f, -0.094575f, -0.182619f, 0.112955f, -0.048724f, 0.004134f, 0.263747f, -0.248686f, 0.008021f, -0.078303f, 0.044474f, 0.108282f, 0.068538f, 0.041535f, -0.250989f, -0.246244f, 0.013192f, -0.235823f, 0.219987f, 0.130079f, -0.065983f, -0.078515f, 0.120477f, -0.126844f, -0.124431f, 0.018837f, 0.251358f, -0.099481f, -0.188489f, -0.013258f, 0.050574f, -0.105303f, 0.083041f, -0.016819f, 0.018426f, 0.142524f, -0.187200f, 0.088967f, 0.121679f, -0.014903f, 0.266526f, 0.311992f, 0.209036f, 0.348169f, 0.271456f, 0.041936f, -0.265121f, -0.102960f, 0.203739f, 0.095257f, -0.094486f, 0.138764f, -0.151871f, -0.088213f, 0.067815f, -0.220002f, 0.206769f, -0.005147f, 0.156869f, 0.073840f, 0.014951f, -0.017253f, -0.001182f, 0.355954f, -0.226519f, -0.047170f, -0.232182f, -0.189811f, 0.174888f, -0.088916f, 0.004014f, -0.225412f, -0.016187f, 0.191067f, 0.052625f, -0.041585f, 0.313790f, -0.108990f, 0.171817f, -0.023847f, 0.005387f, -0.267869f, 0.184763f, 0.183799f, 0.286736f, 0.124943f, 0.350797f, -0.223919f, -0.063662f, 0.125252f, -0.042160f, 0.151645f, 0.052271f, 0.349380f, -0.231378f, 0.268280f, -0.082114f, 0.185552f, -0.246486f, -0.048641f, -0.267737f, 0.032004f, 0.012597f, -0.138374f, -0.043740f, 0.153778f, 0.235831f, 0.031528f, 0.016312f, -0.096889f, 0.109690f, -0.250609f, -0.021369f, -0.196119f, 0.365538f, 0.036615f, 0.126586f, -0.267643f, 0.152517f, -0.153811f, 0.296691f, 0.082492f, -0.062148f, -0.000462f, -0.132976f, 0.202712f, 0.054292f, 0.203509f, -0.237925f, 0.323699f, -0.058624f, -0.214801f, -0.228381f, 0.063706f, -0.069947f, 0.156080f, 0.248256f, 0.193230f, 0.028776f, -0.146571f, 0.066885f, 0.009361f, -0.250231f, 0.140489f, 0.233749f, 0.153664f, 0.323008f, 0.111869f, 0.221059f, 0.072103f, -0.080897f, -0.288618f, 0.014500f, 0.294109f, -0.083549f, 0.010195f, 0.015692f, 0.337928f, -0.163176f, 0.226888f, -0.169839f, -0.081516f, -0.116274f, 0.024273f, 0.033646f, -0.045754f, 0.013731f, -0.203871f, -0.210310f, -0.065090f, -0.092637f, 0.183423f, 0.058204f, -0.250666f, -0.114512f, 0.012425f, 0.055606f, -0.254802f, 0.046682f, -0.180251f, -0.084733f, 0.041971f, -0.095638f, -0.206743f, 0.123159f, -0.108292f, -0.142494f, 0.235270f, -0.142376f, -0.072826f, 0.238406f, -0.033286f, 0.227353f, -0.193106f, -0.159689f, 0.083604f, -0.109367f, 0.025927f, -0.093312f, 0.130929f, 0.133984f, 0.071006f, -0.193497f, -0.198768f, -0.013963f, 0.185022f, 0.135571f, -0.108131f, -0.124567f, -0.204229f, 0.185174f, -0.075837f, -0.063834f, 0.132627f, 0.029611f, 0.215012f, -0.171063f, -0.081972f, 0.170430f, 0.097256f, 0.038556f, -0.186618f, -0.111239f, -0.063478f, 0.010695f, -0.142967f, -0.264166f, -0.099628f, 0.019659f, -0.158743f, -0.138593f, -0.174194f, 0.036320f, -0.011397f, 0.149024f, 0.232976f, 0.246097f, 0.163429f, 0.126174f, -0.059821f, 0.176543f, 0.012235f, 0.140399f, 0.172626f, -0.070475f, -0.008986f, 0.003306f, -0.120942f, -0.111854f, -0.018466f, 0.336570f, 0.089253f, 0.054016f, -0.159512f, 0.051983f, -0.085358f, 0.116736f, 0.361192f, 0.158036f, -0.133335f, 0.052978f, -0.117299f, 0.167336f, 0.189682f, 0.348315f, -0.011566f, 0.000126f, 0.245801f, -0.097530f, -0.019917f, -0.028010f, 0.094288f, -0.028085f, 0.003166f, 0.138680f, 0.295705f, 0.259787f, 0.060889f, 0.325369f, 0.043592f, 0.091032f, -0.095088f, 0.318013f, 0.120220f, 0.040532f, -0.015999f, 0.084720f, -0.103310f, -0.186949f, 0.098984f, -0.251956f, -0.251188f, -0.211057f, -0.083791f, 0.295258f, -0.197117f, 0.303083f, 0.277134f, 0.096516f, 0.333095f, 0.216445f, 0.063505f, -0.193286f, 0.207860f, -0.123589f, -0.145893f, 0.025219f, -0.024747f, 0.026606f, -0.214411f, -0.050552f, 0.037689f, 0.102129f, 0.080433f, 0.328956f, 0.080608f, -0.013390f, 0.192037f, -0.125189f, -0.043256f, 0.018710f, 0.362817f, 0.153628f, -0.120153f, 0.071922f, 0.007672f, 0.199692f, -0.117218f, 0.078866f, 0.247175f, 0.114041f, -0.000237f, 0.250394f, -0.107502f, -0.026187f, 0.006337f, 0.318838f, 0.110593f, 0.338477f, 0.282905f, -0.004152f, -0.052469f, 0.284705f, 0.032374f, 0.113647f, -0.034139f, 0.234096f, 0.041514f, 0.071209f, 0.127096f, -0.102552f, -0.081042f, -0.026808f, -0.142175f, 0.153685f, -0.215554f, 0.142877f, 0.120603f, -0.131396f, 0.191932f, 0.116247f, -0.092124f, -0.190861f, -0.066513f, 0.078420f, -0.046651f, -0.077025f, 0.186787f, 0.051609f, -0.050904f, 0.120535f, 0.063397f, -0.115794f, -0.015276f, -0.038269f, 0.200338f, 0.010301f, 0.104019f, -0.100281f, -0.025088f, 0.038662f, 0.033398f, -0.021798f, 0.279648f, -0.339505f, 0.254733f, 0.032446f, -0.073376f, -0.055023f, 0.076994f, -0.149032f, -0.009197f, 0.250987f, 0.190116f, 0.125861f, 0.259102f, 0.301263f, -0.127240f, 0.174884f, -0.010614f, 0.223922f, 0.184845f, 0.196840f, 0.199228f, -0.066003f, 0.093374f, 0.001878f, 0.048866f, 0.247882f, 0.339365f, 0.134551f, 0.037087f, -0.173575f, -0.055426f, 0.106929f, -0.104641f, -0.045714f, -0.033672f, -0.078202f, -0.120973f, 0.085748f, 0.087906f, 0.102685f, -0.086115f, -0.011730f, 0.171597f, -0.066584f, 0.247261f, 0.011283f, 0.062867f, -0.257823f, 0.029771f, 0.066564f, -0.030337f, 0.284231f, 0.023160f, -0.060224f, 0.110649f, 0.119623f, -0.029054f, 0.159236f, 0.265843f, 0.020564f, 0.090721f, 0.082352f, 0.166459f, -0.051389f, 0.254462f, -0.110609f, 0.252158f, -0.048239f, 0.114219f, 0.043608f, -0.027395f, 0.060737f, -0.014310f, -0.026120f, 0.278172f, 0.379757f, 0.090906f, 0.234857f, -0.243669f, -0.193742f, -0.119253f, 0.013994f, -0.231756f, 0.318153f, 0.174731f, 0.263655f, -0.153137f, 0.256394f, 0.016945f, 0.169337f, 0.051208f, 0.013956f, 0.030625f, 0.175343f, 0.209444f, -0.131718f, -0.153720f, 0.128958f, 0.179085f, -0.143404f, 0.241968f, -0.018550f, 0.049186f, 0.087908f, -0.021335f, 0.187145f, -0.001886f, -0.091310f, -0.234063f, -0.217156f, 0.022779f, 0.084486f, 0.096982f, 0.103093f, -0.191507f, 0.193230f, -0.095149f, 0.137631f, -0.217324f, -0.087558f, 0.149813f, -0.209417f, 0.051253f, -0.061825f, -0.122393f, -0.151526f, 0.218329f, -0.085977f, -0.012779f, -0.213828f, -0.063185f, 0.211044f, 0.218874f, 0.187973f, 0.088673f, -0.143434f, 0.104966f, -0.170937f, -0.072528f, 0.054541f, 0.275637f, 0.237212f, 0.061170f, -0.086603f, -0.248369f, -0.033870f, 0.115091f, 0.199737f, -0.046840f, 0.113939f, 0.214072f, -0.056401f, -0.013375f, -0.180676f, -0.165692f, 0.144330f, 0.290012f, 0.090190f, -0.145718f, -0.144577f, 0.217696f, 0.058859f, -0.110468f, -0.244902f, 0.170544f, -0.137304f, 0.340400f, 0.302301f, 0.169144f, -0.033200f, -0.142207f, 0.365487f, -0.077445f, -0.036799f, -0.116470f, -0.241850f, 0.084312f, 0.102141f, 0.194441f, 0.175821f, 0.176787f, -0.059184f, 0.018931f, 0.045231f, -0.109184f, 0.257772f, -0.071118f, 0.280022f, 0.117897f, 0.180045f, 0.085488f, -0.113281f, 0.281375f, 0.159993f, 0.025559f, 0.105960f, -0.212534f, -0.265581f, 0.277541f, -0.035590f, -0.054694f, 0.165043f, -0.055390f, 0.029437f, 0.195197f, -0.085660f, -0.091782f, -0.158172f, -0.159035f, -0.164690f, -0.202047f, 0.217774f, 0.279610f, 0.238699f, -0.097086f, -0.112844f, 0.181437f, 0.046283f, 0.259193f, 0.051012f, 0.255881f, 0.174588f, -0.045515f, -0.231683f, 0.151323f, -0.052274f, -0.137417f, -0.111269f, -0.114410f, -0.073716f, -0.172715f, -0.195768f, 0.045270f, -0.045105f, -0.113681f, -0.221822f, -0.132686f, -0.073990f, 0.117859f, -0.105153f, -0.134563f, 0.252758f, 0.177347f, 0.064308f, 0.030827f, -0.237934f, 0.146019f, 0.141269f, 0.211059f, 0.132966f, 0.233238f, 0.211708f, -0.034044f, 0.149458f, -0.238623f, -0.256574f, -0.018921f, -0.133188f, 0.127027f, 0.074455f, 0.165194f, 0.222727f, 0.196167f, 0.004931f, 0.217008f, 0.288290f, 0.150103f, 0.099741f, 0.318232f, 0.253140f, 0.181161f, 0.116244f, -0.221856f, 0.303429f, -0.059929f, 0.413146f, -0.101807f, -0.042862f, 0.136802f, 0.025107f, 0.028179f, 0.064128f, -0.006262f, 0.396671f, 0.506374f, 0.028842f, 0.011187f, -0.125578f, -0.228551f, 0.035759f, -0.095029f, 0.217499f, 0.204745f, 0.236272f, -0.121730f, -0.026007f, -0.187083f, 0.217858f, -0.165407f, -0.076494f, 0.114131f, 0.244241f, -0.204329f, -0.084390f, 0.158387f, 0.047939f, 0.056775f, 0.034083f, -0.186812f, 0.211722f, -0.196938f, 0.103470f, -0.062795f, 0.063045f, 0.100110f, -0.099239f, -0.137358f, 0.190951f, -0.223902f, 0.196959f, 0.039420f, -0.166608f, 0.215719f, -0.049564f, 0.112446f, -0.129444f, 0.162885f, 0.276117f, -0.280714f, 0.177865f, -0.137028f, 0.322296f, 0.213832f, 0.171049f, -0.241134f, 0.132838f, -0.046766f, -0.085914f, -0.029161f, -0.017865f, 0.316330f, -0.022117f, 0.052168f, 0.128185f, -0.074141f, 0.049556f, 0.113171f, 0.267715f, 0.023215f, -0.245877f, 0.024441f, -0.084820f, -0.120532f, -0.172213f, -0.094180f, 0.021400f, -0.003628f, -0.271451f, -0.052115f, -0.183224f, 0.141710f, -0.006499f, 0.172114f, 0.386761f, 0.229910f, 0.169777f, -0.159720f, -0.025860f, -0.118262f, 0.318155f, -0.043057f, -0.030290f, 0.314417f, -0.021783f, -0.031081f, 0.342019f, 0.075993f, 0.181249f, 0.230733f, -0.012480f, 0.290862f, -0.239376f, 0.156011f, 0.073833f, 0.306026f, -0.075197f, -0.040698f, -0.118249f, -0.012847f, 0.068130f, 0.206964f, -0.145004f, -0.176404f, 0.193282f, 0.068844f, 0.035195f, -0.014614f, 0.343742f, -0.250794f, -0.003396f, -0.140777f, -0.012411f, -0.131343f, 0.284043f, 0.003931f, -0.003490f, -0.240189f, -0.021241f, -0.164614f, -0.116631f, 0.205717f, 0.073478f, 0.352877f, -0.188779f, -0.099848f, -0.161852f, -0.183066f, 0.105877f, -0.176002f, 0.204864f, 0.091289f, -0.119569f, -0.289719f, -0.260062f, 0.131211f, -0.235302f, 0.045093f, -0.337519f, -0.083287f, -0.363515f, 0.175072f, 0.210691f, -0.136119f, -0.045640f, -0.084633f, -0.235331f, -0.019742f, 0.084427f, -0.039714f, -0.193609f, 0.167479f, -0.362997f, 0.028065f, -0.288705f, -0.394939f, 0.231075f, -0.073906f, -0.241279f, 0.141849f, 0.120913f, -0.044022f, -0.215437f, -0.226395f, 0.002439f, -0.036540f, -0.043118f, -0.050099f, -0.095981f, 0.088604f, -0.045055f, -0.126106f, 0.081136f, -0.164567f, 0.000421f, -0.250946f, 0.236479f, -0.099696f, -0.204886f, -0.156994f, -0.117679f, -0.245987f, 0.123201f, -0.221693f, -0.139450f, 0.033661f, -0.215965f, -0.138229f, 0.082389f, -0.229443f, -0.170816f, 0.290884f, -0.166523f, 0.223533f, 0.057537f, -0.057709f, -0.173263f, 0.073185f, 0.109116f, -0.272246f, 0.319644f, -0.172957f, 0.147867f, 0.199924f, -0.099387f, 0.004604f, -0.086713f, -0.211336f, 0.228040f, -0.065628f, 0.067853f, -0.002362f, -0.161170f, 0.093822f, 0.049389f, 0.064412f, -0.040574f, 0.160115f, 0.287399f, 0.370542f, -0.139811f, 0.255105f, 0.078147f, -0.041952f, 0.059285f, 0.356693f, 0.042287f, -0.145668f, -0.029533f, 0.103835f, 0.273747f, -0.294434f, 0.110813f, 0.120680f, 0.078843f, 0.080608f, -0.073317f, 0.124057f, -0.255421f, -0.141658f, -0.069980f, 0.114293f, 0.288604f, 0.389272f, 0.329451f, -0.280007f, 0.073365f, 0.124378f, -0.009503f, 0.419578f, 0.078434f, 0.379797f, 0.024862f, 0.323869f, -0.200931f, -0.093864f, -0.160596f, -0.040292f, -0.083433f, -0.018602f, 0.216878f, 0.177083f, 0.196550f, -0.112104f, 0.037974f, -0.116221f, 0.244528f, 0.298842f, -0.013086f, -0.098337f, 0.127533f, -0.230300f, 0.201929f, -0.004265f, -0.073804f, 0.160798f, 0.115948f, 0.173932f, -0.008089f, -0.283436f, 0.040621f, 0.237156f, 0.108978f, 0.167834f, -0.120442f, 0.197769f, 0.051174f, 0.138556f, -0.090386f, -0.230575f, -0.104180f, -0.147020f, 0.151570f, 0.058458f, -0.093578f, -0.127605f, -0.100228f, -0.055695f, 0.214438f, -0.149111f, -0.130708f, -0.027837f, 0.003131f, 0.002670f, 0.141797f, 0.040395f, 0.051373f, -0.234659f, -0.131439f, 0.023538f, 0.161421f, 0.203052f, -0.164623f, 0.095620f, 0.066603f, 0.082972f, -0.134735f, 0.072672f, 0.200463f, 0.190154f, -0.009494f, -0.042858f, -0.068142f, 0.056671f, -0.109583f, -0.039944f, 0.093678f, 0.060214f, 0.092210f, 0.186168f, 0.191718f, -0.149784f, -0.084382f, 0.111090f, -0.111780f, 0.005969f, 0.240482f, 0.026943f, 0.222342f, 0.211504f, -0.114756f, -0.221550f, 0.245412f, 0.184780f, 0.174158f, 0.212210f, -0.093105f, 0.178224f, 0.024887f, 0.019111f, -0.066733f, 0.298936f, -0.131977f, 0.306218f, -0.061399f, -0.206600f, -0.139837f, 0.052002f, 0.078329f, 0.096859f, 0.149861f, -0.088969f, 0.300621f, -0.033337f, 0.108781f, -0.235335f, 0.117431f, -0.009952f, 0.072496f, 0.101076f, 0.203254f, -0.089585f, 0.114726f, -0.150608f, 0.357302f, -0.064807f, 0.069579f, -0.005242f, -0.128086f, 0.234496f, -0.159207f, -0.109169f, -0.074839f, 0.264399f, -0.096065f, -0.114228f, -0.261003f, -0.205217f, 0.198533f, 0.221239f, 0.269243f, 0.054286f, -0.133701f, 0.244727f, -0.114932f, -0.030161f, -0.126899f, -0.133574f, -0.008455f, -0.083655f, 0.005271f, -0.191932f, -0.116148f, -0.156470f, 0.137398f, 0.002892f, 0.219802f, -0.115146f, -0.047129f, -0.090288f, 0.046961f, 0.302929f, -0.185444f, -0.114136f, 0.094806f, 0.271420f, 0.059628f, 0.041624f, 0.081316f, -0.213115f, -0.102139f, -0.082666f, 0.205476f, -0.132304f, 0.012430f, 0.077621f, 0.155189f, 0.115766f, -0.022485f, 0.175256f, -0.108528f, -0.209142f, 0.068520f, -0.003703f, -0.054737f, 0.299551f, 0.225832f, -0.222928f, 0.064002f, 0.085248f, 0.105143f, 0.116938f, 0.219275f, -0.067348f, -0.052400f, 0.378451f, -0.213431f, 0.308857f, -0.015081f, 0.245341f, -0.273543f, -0.039894f, -0.080116f, -0.070439f, 0.166987f, 0.211635f, 0.238092f, -0.137746f, 0.376901f, 0.268598f, 0.042215f, 0.082023f, 0.117897f, -0.041991f, 0.138708f, 0.181593f, 0.262646f, 0.103593f, 0.150323f, 0.217793f, 0.128754f, -0.096903f, -0.136545f, 0.033339f, 0.270491f, 0.189890f, 0.152336f, 0.381305f, -0.130293f, -0.100948f, 0.041874f, 0.064901f, -0.067107f, -0.269063f, -0.181680f, 0.238134f, -0.182457f, 0.015574f, 0.262319f, 0.159989f, 0.054424f, -0.028708f, 0.330802f, -0.273948f, -0.238365f, 0.191426f, -0.096301f, -0.059933f, 0.328471f, 0.040795f, 0.100114f, -0.039547f, 0.289523f, -0.211527f, 0.272501f, 0.025413f, 0.305486f, 0.340908f, -0.021436f, 0.149458f, 0.167501f, 0.101798f, -0.035160f, 0.204307f, -0.189348f, -0.041591f, 0.090351f, 0.138806f, -0.064507f, -0.061601f, 0.206538f, 0.081426f, 0.408167f, 0.034358f, 0.279092f, -0.073891f, -0.035531f, -0.152136f, -0.011504f, 0.110522f, -0.054925f, 0.142254f, 0.314526f, -0.098377f, 0.319607f, -0.260312f, -0.028933f, 0.330904f, 0.206117f, 0.097584f, -0.260024f, 0.157225f, -0.168348f, 0.080041f, 0.111931f, 0.222127f, 0.021724f, -0.054929f, 0.088678f, 0.271252f, 0.136603f, -0.255719f, 0.126509f, -0.036372f, -0.086764f, 0.267062f, -0.069220f, -0.081324f, -0.148301f, -0.115000f, 0.063142f, -0.056509f, 0.265345f, 0.065847f, -0.067862f, 0.131467f, 0.232793f, -0.076288f, 0.141993f, 0.187155f, -0.057558f, 0.144896f, -0.142364f, -0.029273f, -0.249920f, 0.346334f, 0.147403f, -0.051633f, 0.147304f, 0.123817f, -0.268299f, 0.081376f, 0.208201f, 0.073666f, 0.284652f, 0.103615f, 0.286951f, 0.209801f, -0.052753f, 0.175300f, 0.200753f, -0.019914f, 0.315835f, 0.004672f, 0.255798f, 0.137160f, 0.182777f, 0.084430f, -0.070563f, 0.047476f, 0.061291f, -0.025247f, 0.270878f, 0.194421f, 0.010951f, 0.192429f, 0.124188f, -0.077051f, -0.105524f, 0.159204f, 0.116179f, 0.050146f, 0.069194f, 0.225101f, 0.033407f, -0.024310f, 0.310469f, 0.133033f, 0.006483f, -0.078927f, -0.099048f, -0.083734f, 0.128736f, 0.225044f, 0.265651f, -0.115274f, 0.134618f, 0.108831f, 0.094361f, -0.264221f, 0.054952f, 0.077557f, 0.079928f, 0.218869f, 0.270739f, -0.021541f, -0.104846f, 0.101476f };
static const float battery_soh_layer_2_biases[1] = { 0.340251f };
static const float battery_soh_layer_2_weights[32] = { -0.101488f, 0.217281f, -0.102318f, 0.203629f, -0.018205f, -0.000542f, -0.029297f, 0.301533f, 0.378267f, -0.392431f, 0.198436f, 0.373469f, 0.184191f, 0.284846f, 0.298099f, -0.205332f, -0.393375f, -0.056547f, 0.246300f, -0.336314f, 0.163811f, 0.259427f, 0.358873f, -0.021345f, 0.245244f, -0.203120f, 0.333750f, 0.239534f, 0.227404f, 0.187759f, -0.026587f, 0.204212f };
static float battery_soh_buf1[80];
static float battery_soh_buf2[80];
static const EmlNetLayer battery_soh_layers[3] = { 
{ 64, 80, battery_soh_layer_0_weights, battery_soh_layer_0_biases, EmlNetActivationRelu }, 
{ 32, 64, battery_soh_layer_1_weights, battery_soh_layer_1_biases, EmlNetActivationRelu }, 
{ 1, 32, battery_soh_layer_2_weights, battery_soh_layer_2_biases, EmlNetActivationIdentity } };
static EmlNet battery_soh = { 3, battery_soh_layers, battery_soh_buf1, battery_soh_buf2, 80 };

    int32_t
    battery_soh_predict(const float *features, int32_t n_features)
    {
        return eml_net_predict(&battery_soh, features, n_features);
    }
    

    int32_t
    battery_soh_regress(const float *features, int32_t n_features, float *out, int32_t out_length)
    {
        return eml_net_regress(&battery_soh, features, n_features, out, out_length);
    }
    

    float
    battery_soh_regress1(const float *features, int32_t n_features)
    {
        return eml_net_regress1(&battery_soh, features, n_features);
    }
    