
#include <eml_net.h>
static const float power_predictor_layer_0_biases[64] = { -0.048347f, -0.008900f, 0.002031f, -0.002167f, 0.007775f, -0.056639f, -0.008358f, -0.006696f, -0.027441f, 0.015928f, 0.000000f, -0.105617f, 0.050373f, 0.038650f, -0.112666f, 0.048979f, -0.057180f, 0.021312f, 0.014706f, 0.005911f, -0.037707f, -0.015649f, -0.019865f, 0.102316f, 0.017125f, -0.001035f, 0.018321f, -0.077513f, 0.000178f, -0.011629f, 0.011887f, 0.014411f, 0.016965f, -0.005436f, 0.081247f, 0.025678f, 0.046154f, -0.114963f, -0.092606f, 0.057424f, 0.047086f, 0.002447f, 0.028578f, -0.020708f, -0.002158f, -0.011383f, -0.015940f, 0.080120f, -0.005539f, 0.080454f, 0.001770f, 0.033037f, -0.005547f, 0.024950f, -0.115609f, -0.029365f, 0.059531f, -0.011660f, -0.004973f, 0.040675f, -0.032512f, 0.011555f, -0.006680f, -0.018851f };
static const float power_predictor_layer_0_weights[7680] = { -0.042100f, -0.127619f, -0.065312f, 0.132473f, -0.012003f, -0.051026f, -0.172541f, -0.018471f, -0.029103f, 0.043418f, -0.096968f, -0.168968f, -0.122926f, -0.075563f, -0.291951f, -0.176537f, -0.092773f, 0.069436f, -0.052059f, 0.028538f, 0.009590f, 0.069125f, 0.051971f, 0.093954f, 0.031159f, -0.099745f, -0.065914f, -0.072600f, 0.037220f, 0.159687f, 0.093186f, -0.167295f, -0.027703f, -0.111828f, 0.145449f, 0.074962f, -0.134219f, 0.025878f, -0.196383f, 0.071391f, -0.035438f, 0.124525f, -0.102068f, -0.082353f, 0.030431f, -0.134900f, -0.150944f, 0.024282f, -0.008254f, 0.049737f, 0.119007f, 0.075509f, 0.080777f, 0.058144f, -0.371518f, -0.062597f, -0.037887f, 0.086008f, 0.094308f, -0.048038f, -0.041543f, 0.029187f, -0.032327f, -0.032982f, 0.054179f, 0.167520f, 0.172519f, -0.006994f, 0.009220f, -0.012960f, -0.155655f, 0.049848f, -0.049829f, -0.092006f, -0.087900f, -0.075529f, -0.088695f, -0.131561f, -0.168238f, 0.086369f, 0.069951f, 0.060502f, -0.038244f, -0.196277f, -0.067253f, -0.180852f, 0.037106f, -0.001554f, -0.052795f, 0.088402f, -0.111308f, 0.067884f, -0.072887f, 0.068755f, 0.047072f, 0.028620f, -0.041230f, 0.053701f, -0.139267f, -0.084307f, -0.049593f, -0.107267f, 0.070398f, 0.110169f, -0.146411f, 0.028369f, -0.001738f, 0.017538f, -0.057449f, -0.154189f, 0.128944f, -0.164038f, 0.128698f, 0.059746f, 0.009571f, -0.092060f, 0.119718f, -0.012674f, -0.017543f, 0.063889f, -0.143650f, 0.098004f, -0.011028f, -0.074985f, -0.109038f, 0.041324f, -0.198148f, -0.167538f, 0.156790f, 0.030044f, -0.104786f, -0.081000f, -0.070403f, -0.036933f, -0.003419f, -0.085219f, -0.004048f, -0.145273f, 0.059180f, -0.137296f, -0.450684f, -0.116327f, 0.059541f, -0.277791f, -0.027389f, -0.095154f, 0.052179f, -0.120130f, -0.164429f, -0.078375f, 0.089405f, 0.116961f, -0.033850f, -0.002755f, 0.021225f, 0.087775f, 0.056185f, -0.040260f, -0.124031f, -0.148027f, -0.145722f, -0.022420f, -0.132192f, 0.075250f, -0.146816f, -0.265663f, -0.155589f, -0.315773f, -0.035259f, 0.093400f, 0.117652f, -0.055459f, -0.023649f, -0.108084f, -0.013804f, -0.103784f, 0.049408f, -0.042947f, 0.082390f, -0.106519f, -0.038121f, -0.138073f, -0.202598f, 0.119452f, -0.062377f, -0.156768f, 0.029927f, 0.100615f, -0.180490f, -0.040941f, 0.068398f, 0.097613f, 0.024334f, -0.043261f, 0.128712f, 0.043776f, 0.087224f, -0.173498f, 0.064477f, -0.115887f, 0.145550f, 0.139905f, -0.067476f, 0.046069f, -0.110027f, -0.152498f, 0.156211f, -0.017699f, 0.067311f, 0.013517f, -0.127456f, -0.025123f, 0.002237f, 0.053479f, 0.090108f, -0.192575f, 0.143632f, -0.101032f, -0.127706f, -0.062839f, 0.045104f, -0.139237f, -0.164793f, -0.126168f, -0.051495f, -0.173808f, -0.114148f, 0.086471f, -0.115052f, 0.209242f, 0.177458f, 0.044154f, 0.145244f, -0.128018f, -0.111662f, 0.029090f, 0.159999f, 0.148807f, -0.162974f, 0.060630f, -0.123195f, 0.260254f, 0.107759f, 0.161080f, 0.165253f, 0.064662f, 0.246794f, -0.005835f, 0.126623f, -0.159023f, -0.048547f, 0.192766f, -0.064083f, 0.133161f, -0.029760f, 0.011799f, 0.111294f, -0.128904f, -0.118947f, -0.110108f, -0.021882f, -0.138838f, 0.118032f, -0.128289f, -0.040366f, 0.139430f, -0.051736f, -0.076689f, 0.091357f, 0.011238f, -0.024885f, -0.156857f, 0.053069f, 0.108905f, 0.030019f, -0.156846f, 0.152313f, 0.013139f, -0.082187f, 0.221652f, -0.035060f, 0.188217f, 0.006926f, -0.122463f, 0.175663f, 0.077425f, -0.005793f, 0.107531f, 0.056745f, 0.001996f, 0.019083f, 0.052617f, 0.114560f, 0.046778f, 0.018964f, -0.144018f, -0.142634f, 0.055684f, -0.178681f, 0.166152f, -0.171406f, -0.011621f, -0.065422f, 0.079502f, 0.063060f, -0.111811f, 0.053329f, 0.046825f, -0.023066f, -0.221232f, -0.043091f, -0.034482f, -0.041101f, 0.033755f, 0.109208f, 0.084210f, 0.060322f, 0.035556f, -0.070624f, 0.137590f, -0.236669f, -0.027478f, 0.054715f, -0.184130f, -0.096789f, 0.062501f, 0.115096f, 0.022357f, -0.235512f, -0.026345f, 0.074609f, -0.117285f, 0.190220f, -0.059774f, -0.118378f, 0.069494f, -0.152665f, 0.179467f, 0.072067f, 0.235414f, 0.016181f, -0.026809f, -0.227634f, 0.119108f, 0.055806f, 0.075926f, -0.091924f, -0.079341f, -0.124181f, 0.046151f, -0.006834f, 0.106633f, 0.091868f, -0.068864f, -0.131184f, 0.013462f, 0.045396f, -0.086695f, -0.039793f, 0.157855f, -0.047947f, 0.082292f, 0.208098f, 0.138239f, -0.181577f, -0.149521f, 0.113967f, 0.184318f, -0.112633f, 0.028656f, 0.133956f, 0.029390f, -0.038830f, -0.263267f, -0.251035f, -0.080351f, 0.214498f, 0.079205f, 0.094419f, -0.059591f, 0.151969f, 0.050638f, 0.005631f, 0.050151f, 0.074889f, -0.008545f, 0.141033f, 0.037878f, 0.019790f, 0.019876f, -0.043315f, 0.132319f, -0.061412f, 0.007868f, 0.116775f, -0.148845f, -0.105326f, -0.059251f, -0.204020f, -0.118053f, 0.115638f, 0.177281f, 0.059584f, 0.131931f, -0.006964f, 0.022246f, -0.034449f, 0.052000f, -0.155511f, 0.140580f, -0.003927f, -0.285499f, -0.009283f, -0.077260f, 0.232835f, 0.092267f, 0.059776f, 0.008412f, -0.145142f, 0.121169f, -0.163700f, -0.289705f, -0.363635f, 0.105899f, -0.085964f, -0.006207f, 0.117080f, -0.061574f, 0.068907f, -0.016660f, -0.141316f, 0.168748f, 0.004120f, -0.160347f, 0.077954f, -0.014210f, -0.180240f, -0.015529f, -0.419088f, 0.148305f, 0.108236f, 0.088448f, 0.002676f, 0.202108f, -0.072533f, -0.156316f, -0.156501f, -0.154238f, 0.165393f, 0.081875f, 0.011193f, -0.091628f, -0.027864f, 0.042565f, -0.168043f, -0.102991f, -0.006575f, 0.138375f, -0.173302f, 0.094764f, -0.035967f, 0.207363f, 0.063718f, -0.179900f, 0.110531f, -0.021158f, 0.067472f, -0.083608f, -0.017986f, -0.018630f, -0.016542f, -0.067904f, -0.078574f, 0.122847f, 0.107302f, 0.135285f, -0.097731f, 0.061184f, -0.080835f, -0.010904f, -0.162531f, -0.115992f, 0.045342f, 0.026656f, -0.075576f, 0.147595f, 0.057094f, -0.153543f, -0.000178f, -0.145165f, -0.161334f, -0.051976f, 0.011616f, -0.067015f, 0.024618f, 0.027232f, -0.003119f, 0.026090f, 0.130974f, -0.067860f, 0.139594f, -0.212032f, -0.046199f, 0.056906f, 0.153198f, 0.119692f, 0.123946f, -0.108303f, -0.160594f, -0.142134f, 0.009601f, 0.085830f, -0.028789f, 0.066916f, 0.056145f, 0.087972f, 0.095332f, -0.068926f, 0.085616f, 0.144439f, -0.010524f, -0.079128f, 0.090541f, -0.096116f, -0.177132f, 0.177468f, -0.087806f, -0.038417f, 0.085391f, -0.067537f, 0.019556f, 0.009500f, -0.027527f, -0.142959f, -0.057751f, -0.014903f, -0.228492f, 0.052774f, 0.054087f, 0.017872f, 0.123273f, -0.020748f, 0.114168f, -0.069324f, 0.157101f, 0.007758f, 0.089878f, -0.056839f, -0.083398f, -0.182907f, -0.033706f, -0.310499f, -0.057025f, -0.021101f, -0.142554f, -0.035307f, -0.076785f, -0.034474f, 0.010005f, -0.072419f, -0.155062f, 0.160947f, 0.087907f, -0.040912f, 0.078677f, 0.091602f, -0.177533f, 0.117795f, 0.160099f, -0.076146f, -0.113735f, -0.129653f, 0.120249f, -0.003876f, -0.123047f, 0.092795f, 0.121711f, -0.091014f, 0.154366f, 0.031674f, 0.157813f, -0.088129f, 0.186469f, 0.008793f, -0.017469f, -0.158758f, 0.057700f, 0.104775f, 0.104637f, -0.023424f, 0.085430f, 0.074970f, 0.144077f, 0.157808f, 0.123614f, 0.093391f, 0.044394f, 0.163393f, 0.182415f, -0.048824f, -0.004869f, 0.026458f, 0.033793f, 0.242666f, 0.108896f, 0.126635f, 0.012967f, -0.053169f, 0.147024f, 0.115255f, -0.221716f, -0.015860f, -0.171612f, 0.190164f, 0.038261f, -0.166904f, -0.133028f, 0.054810f, 0.016163f, 0.077498f, -0.145176f, -0.049189f, 0.121729f, -0.118278f, -0.040262f, 0.184898f, 0.203331f, -0.120791f, -0.102844f, -0.240941f, 0.206397f, -0.045064f, 0.017218f, 0.063130f, -0.092575f, -0.073418f, 0.048631f, -0.170677f, -0.101205f, 0.207890f, -0.082103f, -0.136600f, -0.053760f, -0.131826f, -0.054498f, -0.074784f, 0.120265f, 0.066513f, -0.189903f, -0.106114f, 0.088102f, -0.024851f, -0.187415f, -0.084828f, -0.067679f, -0.158503f, -0.016696f, 0.029257f, 0.088119f, 0.035191f, -0.134338f, -0.111024f, -0.109988f, -0.029395f, 0.053255f, -0.026683f, 0.149480f, -0.129780f, 0.078787f, -0.069170f, -0.125645f, 0.008522f, -0.055790f, -0.136790f, 0.030327f, 0.019791f, -0.156996f, -0.084025f, -0.289901f, 0.153368f, 0.003992f, 0.034659f, -0.032790f, -0.159399f, -0.134312f, -0.117687f, -0.013058f, 0.103746f, -0.122517f, -0.099704f, 0.135770f, 0.058365f, 0.141852f, 0.150636f, -0.229342f, 0.167981f, -0.050148f, -0.144926f, 0.117596f, -0.070181f, 0.023061f, -0.137728f, -0.060894f, -0.044656f, -0.110706f, -0.140739f, -0.028000f, -0.195600f, 0.100498f, 0.044433f, -0.319019f, -0.146810f, -0.170001f, 0.143888f, 0.175941f, 0.109579f, -0.151578f, 0.075824f, -0.027269f, -0.080886f, -0.067587f, -0.021452f, -0.095240f, 0.144574f, -0.098359f, -0.082330f, -0.001860f, 0.182554f, 0.138871f, 0.150425f, -0.077683f, -0.143575f, -0.169512f, 0.141378f, 0.142014f, 0.102771f, -0.021264f, -0.039972f, -0.022121f, -0.070793f, 0.106521f, -0.138433f, 0.019490f, -0.045196f, 0.024019f, 0.082398f, -0.092907f, 0.147358f, -0.021430f, -0.041363f, 0.146103f, 0.060477f, 0.120153f, 0.046840f, -0.072451f, -0.154064f, 0.037654f, 0.038129f, 0.110275f, -0.154706f, -0.115536f, 0.143194f, -0.077075f, 0.083439f, 0.061704f, -0.180411f, -0.043833f, 0.005305f, -0.032413f, -0.031901f, -0.071534f, -0.218385f, 0.161356f, -0.140025f, -0.045044f, -0.013233f, -0.201816f, -0.010690f, -0.080673f, -0.228983f, -0.350133f, 0.159822f, -0.347195f, -0.328211f, -0.111035f, 0.066214f, -0.060040f, 0.083863f, -0.042339f, -0.016763f, -0.073548f, 0.124467f, -0.121927f, -0.011158f, 0.074002f, -0.139523f, 0.019352f, -0.099489f, 0.067024f, 0.119711f, -0.006307f, -0.052580f, 0.187571f, -0.089542f, -0.046641f, -0.198545f, -0.093120f, -0.392349f, -0.140007f, 0.002646f, 0.146011f, -0.053901f, 0.083881f, -0.063272f, 0.027705f, -0.003881f, 0.062110f, -0.037035f, 0.120123f, -0.077057f, 0.082117f, 0.009424f, -0.086363f, -0.070789f, 0.186450f, -0.225785f, -0.015520f, -0.114756f, 0.109817f, 0.110293f, -0.156649f, 0.095623f, -0.081380f, -0.105516f, 0.020835f, -0.054495f, -0.172072f, 0.094947f, 0.035322f, 0.132943f, -0.039043f, 0.128463f, -0.167629f, 0.163828f, -0.156419f, -0.137726f, 0.044347f, -0.137606f, 0.107547f, 0.146332f, 0.077286f, -0.135687f, -0.075428f, -0.050195f, 0.081092f, -0.104260f, -0.171982f, -0.165141f, 0.189654f, -0.171238f, 0.117327f, 0.087389f, 0.190501f, 0.131336f, 0.150142f, -0.117573f, 0.044504f, 0.062917f, -0.163980f, 0.083688f, 0.073599f, -0.121968f, -0.111923f, 0.031679f, 0.073880f, 0.016553f, 0.120824f, 0.174748f, -0.077439f, -0.053169f, -0.039837f, -0.048700f, 0.149754f, 0.084316f, 0.093191f, 0.086380f, 0.067457f, -0.018545f, 0.066537f, -0.042298f, -0.179848f, 0.076005f, -0.126810f, -0.094734f, 0.149677f, 0.163630f, -0.099474f, -0.122506f, 0.152798f, -0.066769f, 0.164492f, -0.042149f, 0.089284f, -0.081142f, -0.095057f, 0.023870f, 0.136465f, 0.087390f, -0.259341f, -0.200624f, 0.099050f, -0.098544f, 0.060420f, 0.085872f, -0.003320f, 0.202211f, 0.004450f, -0.160332f, -0.107596f, -0.023664f, -0.158534f, -0.069047f, 0.007383f, -0.222089f, -0.173807f, -0.177993f, 0.015466f, 0.133141f, -0.115050f, -0.148497f, 0.196542f, -0.031515f, 0.000789f, -0.066771f, -0.213071f, -0.081763f, -0.047733f, -0.043618f, 0.056257f, -0.040390f, 0.046358f, 0.130262f, -0.101596f, 0.063134f, 0.156407f, 0.068803f, 0.001913f, 0.137319f, 0.125417f, 0.019976f, -0.228743f, 0.117307f, -0.018526f, 0.041243f, 0.060022f, -0.060019f, 0.003879f, 0.106617f, -0.093572f, -0.039559f, 0.160726f, -0.089533f, 0.156116f, -0.001076f, -0.069813f, 0.161240f, 0.023796f, -0.033581f, 0.117884f, 0.151739f, 0.020391f, 0.027008f, 0.025602f, 0.104438f, 0.101022f, -0.037126f, 0.129667f, 0.003848f, -0.002111f, -0.078236f, -0.011831f, -0.120065f, 0.110449f, -0.030823f, -0.013609f, 0.148652f, -0.053452f, -0.010020f, -0.155579f, -0.137585f, -0.004530f, -0.098563f, -0.025599f, -0.175774f, -0.231755f, 0.059659f, -0.084550f, 0.053258f, 0.176860f, -0.128768f, 0.079310f, -0.019538f, -0.055052f, 0.051362f, 0.097121f, 0.090733f, -0.000985f, -0.155335f, 0.107714f, -0.102539f, -0.086607f, 0.075454f, 0.000731f, -0.196217f, 0.240894f, -0.190955f, -0.176821f, -0.209230f, -0.020383f, 0.002765f, -0.109233f, 0.125873f, -0.103823f, -0.007551f, 0.077939f, 0.051035f, -0.081186f, -0.033674f, 0.127392f, 0.157838f, 0.179321f, -0.042496f, 0.018181f, -0.136639f, 0.174761f, 0.045958f, -0.119046f, 0.015100f, -0.036712f, -0.189055f, 0.117743f, 0.058185f, -0.105314f, -0.007312f, 0.018244f, 0.160501f, 0.217322f, -0.091865f, 0.071617f, 0.138323f, -0.151006f, 0.121811f, -0.194623f, -0.132144f, 0.136211f, 0.109215f, -0.094259f, -0.101440f, -0.055464f, 0.103044f, -0.235161f, 0.201415f, -0.010131f, -0.285136f, -0.176048f, -0.067485f, 0.105785f, -0.041325f, -0.100632f, -0.062609f, 0.112864f, 0.194892f, -0.045006f, 0.005912f, -0.030832f, -0.100628f, -0.186716f, 0.043099f, 0.109867f, -0.128799f, 0.089879f, 0.102203f, -0.155335f, -0.164258f, 0.090552f, 0.064220f, -0.217859f, -0.128442f, 0.022380f, -0.143172f, -0.051068f, -0.160854f, 0.063269f, -0.082275f, -0.226938f, 0.122416f, -0.021961f, -0.155457f, 0.165257f, 0.040932f, -0.101662f, 0.116986f, 0.073778f, 0.170895f, -0.112995f, 0.160311f, 0.044224f, 0.044808f, -0.073376f, -0.024161f, 0.003257f, -0.020062f, -0.003938f, -0.106957f, 0.036714f, -0.112751f, 0.013023f, 0.131586f, 0.064345f, 0.153624f, -0.027901f, 0.046228f, -0.034548f, 0.146391f, 0.219994f, -0.055094f, -0.003763f, 0.062041f, 0.038957f, 0.097996f, -0.100903f, -0.097283f, -0.126994f, 0.074449f, 0.181352f, 0.006900f, 0.091354f, 0.237338f, -0.018470f, 0.087959f, 0.086681f, 0.065329f, -0.222921f, -0.045526f, -0.092084f, 0.021056f, 0.154697f, 0.021925f, 0.042775f, 0.052549f, -0.024477f, 0.136813f, -0.021057f, 0.126404f, 0.107203f, -0.331429f, 0.090084f, -0.061852f, 0.153704f, 0.067552f, 0.207157f, -0.135549f, -0.165454f, 0.200466f, -0.613823f, 0.106187f, 0.348216f, -0.125433f, 0.170977f, -0.027223f, -0.140201f, 0.136881f, -0.205485f, -0.139902f, -0.034503f, 0.126402f, -0.249799f, -0.085540f, 0.102849f, -0.087309f, -0.119078f, 0.104061f, -0.061393f, 0.124549f, -0.315615f, -0.108147f, 0.080178f, -0.011049f, -0.281389f, 0.072759f, 0.174393f, -0.433305f, -0.479853f, 0.063514f, 0.198881f, -0.151433f, -0.267211f, 0.061863f, -0.148827f, 0.068220f, -0.094342f, -0.049280f, -0.159531f, -0.148391f, 0.068816f, 0.062790f, 0.293272f, -0.006368f, -0.144162f, 0.117588f, -0.070241f, -0.236862f, 0.142233f, 0.109668f, 0.097324f, 0.149005f, 0.181680f, -0.156084f, -0.084055f, -0.014819f, 0.077529f, 0.169212f, -0.158132f, -0.002451f, 0.084699f, -0.129306f, -0.026012f, 0.014685f, 0.144016f, 0.002068f, 0.187763f, -0.144388f, -0.005939f, 0.058352f, -0.076267f, 0.111757f, -0.025379f, -0.029260f, -0.047242f, -0.058495f, -0.062138f, 0.068231f, -0.103616f, 0.167865f, 0.015464f, -0.033621f, 0.034052f, 0.086664f, -0.185256f, 0.108575f, 0.121004f, 0.062312f, 0.095496f, 0.188158f, 0.121370f, 0.088359f, -0.078928f, -0.117542f, -0.021447f, 0.081935f, -0.082389f, -0.068555f, 0.074717f, -0.162045f, 0.160760f, -0.112496f, -0.097683f, -0.062582f, -0.030376f, -0.164306f, -0.068389f, 0.096672f, 0.169396f, -0.122607f, 0.035146f, -0.009064f, 0.136798f, 0.136700f, -0.051399f, 0.175248f, -0.122685f, -0.073543f, 0.117307f, 0.098379f, -0.099359f, 0.007673f, 0.103139f, -0.008011f, 0.165901f, 0.081914f, -0.074982f, -0.045948f, -0.234151f, 0.111590f, -0.042237f, -0.202397f, -0.173926f, 0.154859f, -0.064881f, 0.021904f, 0.005761f, -0.173882f, -0.175356f, 0.134377f, -0.160010f, -0.029188f, 0.194411f, -0.062462f, -0.007896f, -0.172087f, 0.030772f, 0.060850f, -0.027509f, -0.003338f, -0.014169f, -0.101816f, -0.124342f, -0.082212f, -0.154759f, -0.042786f, -0.206496f, -0.062350f, -0.147291f, -0.154348f, -0.226918f, -0.100940f, -0.026315f, -0.008405f, -0.055373f, -0.047194f, 0.059420f, -0.027352f, -0.023671f, 0.085947f, -0.013825f, 0.127185f, -0.116741f, 0.043287f, 0.174968f, -0.165966f, -0.174519f, -0.086103f, -0.180796f, 0.098544f, 0.156766f, 0.037801f, -0.141509f, 0.174356f, -0.015910f, 0.103927f, 0.198376f, -0.164970f, 0.164135f, 0.142488f, -0.091242f, 0.247885f, -0.051091f, -0.182569f, -0.048216f, -0.119056f, 0.117909f, 0.138938f, 0.167990f, -0.068991f, 0.041659f, 0.210990f, 0.036958f, -0.036556f, 0.062610f, 0.170436f, 0.175900f, 0.086658f, -0.175936f, -0.187665f, -0.128397f, -0.017192f, 0.145506f, 0.131522f, 0.105222f, -0.107874f, -0.049004f, -0.040392f, 0.011727f, 0.154973f, 0.136632f, 0.100600f, -0.152837f, -0.000784f, 0.143141f, -0.078158f, 0.016688f, 0.054348f, -0.059648f, -0.088551f, 0.128330f, -0.191753f, 0.035593f, -0.105011f, 0.159399f, -0.191451f, -0.068949f, -0.081637f, -0.057775f, 0.092646f, 0.186417f, -0.064851f, -0.137706f, 0.187720f, 0.256354f, 0.170393f, 0.195834f, -0.094000f, 0.021020f, -0.041141f, -0.146924f, 0.127048f, 0.031853f, 0.056090f, 0.055655f, -0.130357f, -0.386406f, 0.191864f, 0.237362f, -0.242015f, -0.022776f, -0.222817f, 0.017334f, 0.000101f, -0.108668f, -0.043200f, -0.140472f, -0.145888f, -0.063033f, -0.239413f, -0.025948f, 0.112792f, -0.309006f, 0.068124f, 0.087180f, -0.036726f, -0.047554f, -0.114244f, -0.006652f, -0.023127f, -0.174855f, 0.068115f, 0.195529f, -0.389539f, -0.307934f, 0.106751f, 0.086412f, 0.045059f, -0.128386f, 0.028568f, -0.001844f, 0.128575f, 0.012192f, -0.130906f, -0.083164f, 0.088913f, -0.083683f, 0.072734f, -0.134719f, -0.117935f, 0.123058f, 0.100084f, 0.025706f, -0.338379f, -0.003042f, -0.032250f, 0.019988f, -0.097996f, -0.105368f, 0.166528f, -0.132087f, 0.046652f, -0.180581f, -0.114523f, -0.182058f, -0.081893f, -0.039364f, 0.134476f, 0.098854f, 0.159058f, -0.111072f, -0.252066f, -0.145343f, -0.330556f, -0.044558f, 0.136675f, -0.189225f, -0.101378f, -0.118376f, -0.080124f, 0.025730f, 0.025039f, -0.146272f, 0.014146f, 0.134799f, -0.110640f, 0.101787f, 0.160434f, -0.112391f, 0.149802f, -0.159246f, -0.100509f, 0.142020f, 0.072936f, -0.050088f, 0.152193f, -0.024765f, 0.084371f, -0.211372f, 0.082726f, -0.172049f, -0.053705f, 0.131006f, -0.095735f, -0.104110f, 0.156774f, 0.038594f, 0.091448f, -0.107321f, 0.078555f, -0.095145f, 0.108909f, -0.151773f, -0.133181f, 0.196722f, 0.013886f, 0.079848f, -0.181299f, -0.110511f, 0.139673f, -0.131518f, -0.014909f, 0.312338f, -0.027206f, -0.105444f, -0.377188f, -0.130568f, 0.384708f, -0.138100f, 0.049025f, 0.191969f, -0.036157f, 0.106852f, 0.234269f, -0.666239f, -0.041408f, 0.322183f, -0.493382f, 0.124659f, 0.059260f, 0.069594f, -0.160771f, 0.016789f, -0.040928f, -0.111773f, -0.003666f, -0.129872f, -0.152811f, -0.018377f, -0.127526f, -0.154767f, 0.073586f, 0.108225f, 0.115914f, -0.318730f, 0.101506f, 0.103953f, 0.045349f, -0.135286f, 0.323098f, 0.313422f, -0.491692f, -0.437404f, -0.180091f, 0.127585f, 0.122144f, -0.235707f, 0.034755f, 0.110034f, -0.007820f, 0.105848f, -0.227448f, -0.045063f, 0.065346f, 0.126101f, 0.128472f, 0.086892f, 0.152472f, -0.086457f, -0.027741f, 0.003083f, -0.563660f, 0.150633f, -0.105406f, 0.160357f, 0.237601f, 0.127468f, 0.021763f, 0.103924f, -0.051914f, -0.165482f, 0.037246f, 0.055494f, -0.082708f, 0.124991f, -0.068776f, -0.131131f, -0.064728f, -0.121145f, 0.084562f, 0.068705f, -0.084840f, -0.133290f, -0.012186f, 0.048391f, -0.066026f, 0.099207f, 0.014295f, -0.086890f, 0.038940f, -0.103398f, 0.020147f, 0.119974f, -0.151006f, -0.025264f, -0.168537f, 0.003397f, -0.047164f, 0.070562f, 0.018863f, 0.149419f, 0.008397f, -0.128383f, -0.055321f, -0.142029f, -0.028711f, -0.175947f, 0.025213f, -0.077380f, -0.029449f, -0.024884f, 0.028267f, -0.067453f, 0.072517f, -0.066870f, -0.025949f, -0.020735f, 0.028518f, -0.119579f, -0.002669f, 0.104612f, 0.004416f, -0.003848f, -0.063043f, -0.155659f, -0.027607f, -0.015295f, 0.037881f, -0.174716f, -0.031650f, -0.133371f, -0.034258f, 0.076684f, -0.119745f, 0.069836f, -0.034446f, -0.151304f, -0.047764f, 0.080718f, 0.101683f, 0.020156f, 0.072190f, -0.174494f, 0.145673f, -0.041769f, 0.079189f, 0.088723f, 0.159811f, 0.062597f, -0.196112f, -0.021418f, 0.153934f, 0.108559f, 0.050359f, -0.000476f, 0.097303f, -0.008214f, -0.167504f, 0.011611f, 0.108669f, 0.184487f, -0.126312f, -0.120921f, 0.129091f, 0.205724f, 0.072014f, -0.106151f, -0.178287f, 0.100110f, 0.041269f, -0.166791f, -0.102786f, 0.132693f, -0.136930f, -0.064775f, 0.130460f, -0.144726f, 0.156978f, 0.073206f, 0.091648f, 0.076672f, 0.005773f, -0.227349f, -0.081198f, -0.197009f, -0.044439f, 0.102574f, -0.160565f, -0.128989f, -0.164412f, 0.139229f, -0.147772f, -0.078576f, -0.007290f, 0.055260f, 0.053809f, -0.070091f, 0.096889f, -0.047686f, -0.077307f, -0.136921f, -0.117425f, 0.075342f, -0.029844f, -0.163550f, 0.259598f, 0.090847f, -0.190227f, -0.015611f, -0.000643f, -0.114839f, -0.082262f, -0.103689f, -0.043088f, 0.163565f, -0.115680f, 0.160040f, -0.150798f, -0.176061f, -0.140780f, -0.144824f, -0.006816f, 0.145020f, -0.069193f, -0.003638f, 0.061385f, -0.121851f, -0.100681f, -0.181191f, -0.014883f, 0.009655f, 0.090484f, 0.221368f, 0.179009f, -0.083208f, 0.024135f, 0.043618f, -0.005728f, 0.109343f, -0.131104f, 0.017072f, -0.140537f, 0.031088f, -0.109148f, 0.005919f, -0.043032f, 0.073929f, -0.014348f, -0.003321f, 0.111926f, -0.120595f, 0.107850f, -0.042219f, 0.069543f, 0.050546f, -0.057012f, 0.111501f, 0.081308f, -0.056668f, 0.118345f, -0.061740f, -0.362101f, 0.098272f, 0.220025f, 0.201292f, -0.121869f, 0.224366f, -0.122015f, 0.081558f, 0.230276f, -0.361222f, 0.068961f, 0.451889f, -0.396173f, 0.255738f, 0.008727f, -0.069750f, -0.126105f, -0.105632f, 0.055442f, -0.155229f, 0.006356f, -0.269314f, -0.239915f, 0.015980f, 0.033886f, -0.156998f, -0.020367f, 0.055692f, -0.051032f, -0.217854f, 0.169901f, 0.201443f, -0.198060f, -0.277870f, -0.078299f, 0.194610f, -0.212645f, -0.139048f, 0.064154f, -0.028327f, 0.071848f, -0.179650f, 0.011247f, -0.067958f, 0.067816f, -0.173558f, -0.146878f, -0.058519f, 0.067615f, -0.079930f, 0.141766f, 0.163138f, 0.156073f, -0.198901f, -0.090385f, 0.026790f, -0.663264f, -0.106602f, 0.102440f, 0.136679f, 0.165908f, -0.103150f, 0.139333f, -0.117915f, -0.099637f, 0.091036f, -0.138138f, -0.027151f, -0.068213f, 0.044699f, 0.029260f, -0.036726f, 0.059532f, 0.183427f, -0.123023f, -0.022432f, -0.246052f, -0.118571f, -0.166354f, 0.120956f, 0.071815f, 0.045657f, 0.026861f, -0.118454f, 0.090196f, -0.072047f, -0.012845f, 0.132045f, -0.055336f, 0.073380f, 0.137656f, 0.156062f, -0.075593f, -0.147390f, 0.052234f, 0.086052f, 0.081364f, 0.139569f, 0.027781f, -0.152566f, 0.155703f, 0.119966f, -0.004617f, 0.003036f, -0.045517f, -0.058392f, 0.029084f, -0.179776f, -0.051161f, 0.091249f, 0.101999f, 0.146788f, -0.159519f, 0.079869f, 0.087810f, 0.044274f, 0.026602f, 0.101249f, 0.047392f, -0.128508f, -0.025078f, 0.051645f, -0.054802f, -0.130401f, 0.148712f, -0.125955f, -0.019800f, -0.101104f, -0.172028f, -0.151444f, 0.197900f, 0.026115f, -0.071754f, 0.135837f, 0.021321f, 0.154485f, 0.051407f, -0.380616f, -0.076518f, 0.270062f, -0.449842f, -0.078534f, -0.007085f, -0.096210f, -0.015314f, -0.060628f, 0.056400f, -0.076229f, -0.140151f, 0.032778f, -0.095970f, -0.077298f, 0.036293f, -0.125004f, 0.162380f, 0.044501f, -0.113134f, -0.182833f, 0.048763f, 0.190690f, -0.194455f, 0.052082f, 0.000383f, 0.072160f, -0.238254f, -0.242846f, -0.043682f, 0.040098f, -0.052051f, -0.078966f, 0.102166f, 0.099298f, -0.129362f, -0.121196f, -0.075167f, 0.024753f, -0.005517f, -0.022563f, 0.107841f, 0.056131f, -0.051954f, -0.319517f, -0.017929f, 0.128478f, -0.471811f, 0.000654f, 0.096109f, 0.015533f, -0.088182f, 0.045318f, -0.014712f, -0.062241f, -0.150756f, -0.102448f, 0.036327f, -0.123958f, 0.019787f, -0.050828f, 0.116860f, 0.103189f, 0.154953f, -0.106549f, 0.049664f, 0.144866f, -0.135325f, 0.103188f, -0.120643f, 0.169948f, -0.050923f, 0.131150f, -0.071394f, 0.155812f, 0.117164f, -0.147690f, -0.024981f, 0.044021f, -0.027724f, 0.134843f, -0.118512f, 0.070817f, 0.094295f, -0.086008f, 0.150237f, -0.052859f, 0.032420f, -0.190632f, -0.166431f, -0.006191f, -0.225169f, -0.171655f, -0.141568f, 0.056001f, -0.053995f, 0.088673f, -0.179603f, -0.106260f, 0.118745f, -0.043663f, 0.100666f, -0.131678f, -0.200039f, -0.073464f, -0.069628f, -0.019974f, -0.172682f, -0.118688f, 0.115348f, -0.166685f, 0.078022f, -0.094102f, -0.147968f, 0.153590f, 0.014392f, 0.102936f, 0.109682f, -0.134935f, -0.185787f, 0.024638f, -0.035428f, 0.165122f, 0.058714f, -0.099508f, 0.010403f, -0.167999f, 0.046899f, -0.202288f, -0.016853f, 0.111406f, -0.070235f, 0.149295f, 0.094759f, -0.121662f, -0.053876f, 0.102452f, -0.059781f, -0.167891f, 0.025098f, 0.021197f, -0.095811f, -0.034596f, -0.038589f, -0.141621f, 0.090474f, 0.178660f, 0.049857f, 0.079215f, 0.015872f, 0.255019f, 0.129399f, -0.006521f, -0.091464f, -0.201364f, -0.091564f, -0.036235f, 0.011903f, -0.030066f, 0.019109f, -0.005319f, -0.069751f, -0.084085f, 0.121620f, -0.164757f, 0.033475f, 0.157990f, -0.157393f, -0.012156f, -0.153560f, 0.063891f, -0.071859f, 0.101771f, 0.113524f, -0.117717f, 0.049248f, 0.068189f, 0.108891f, 0.050813f, 0.003297f, -0.117410f, -0.001008f, 0.144926f, 0.006488f, 0.087289f, -0.041137f, 0.063223f, 0.137047f, 0.124010f, 0.070982f, -0.019024f, 0.146846f, 0.108878f, -0.185747f, 0.057486f, 0.098525f, 0.023528f, -0.131713f, 0.021629f, 0.049292f, 0.036748f, 0.188191f, 0.065843f, -0.194911f, -0.175829f, 0.004719f, 0.056573f, 0.191394f, 0.167720f, -0.048948f, -0.134500f, -0.138519f, 0.022888f, -0.040441f, 0.118813f, -0.109630f, -0.103792f, 0.130168f, 0.090161f, 0.062557f, -0.009396f, -0.098794f, 0.137282f, 0.036788f, -0.158035f, -0.182056f, -0.139836f, -0.117802f, -0.172097f, -0.224645f, 0.207645f, -0.071977f, -0.150333f, -0.080250f, 0.076452f, 0.134786f, -0.082502f, 0.005573f, -0.106592f, 0.184742f, 0.032925f, 0.059692f, 0.146865f, 0.188380f, 0.053050f, 0.083629f, 0.221684f, 0.068983f, 0.106163f, -0.041016f, 0.187641f, -0.052714f, -0.031209f, 0.117597f, 0.047945f, 0.012779f, -0.033877f, -0.056556f, 0.099388f, 0.004765f, -0.050606f, -0.168473f, -0.057938f, -0.152055f, 0.100757f, -0.134754f, -0.034810f, 0.192369f, -0.131873f, -0.003829f, 0.116288f, -0.115671f, -0.192845f, -0.013843f, -0.096939f, -0.103634f, -0.156267f, -0.167948f, 0.354442f, 0.003331f, -0.230506f, -0.201939f, -0.067506f, -0.062589f, -0.032387f, 0.050878f, 0.209366f, -0.116002f, -0.058015f, 0.196433f, -0.129768f, -0.149885f, 0.169381f, -0.043225f, -0.094272f, 0.158587f, -0.111002f, 0.071732f, -0.030644f, -0.039237f, -0.015755f, 0.108831f, 0.000847f, -0.243777f, 0.159628f, 0.082607f, 0.099505f, -0.041915f, 0.023690f, 0.092591f, -0.069501f, 0.063111f, -0.042463f, -0.217098f, -0.247567f, -0.006798f, -0.186871f, 0.078419f, -0.145901f, -0.010682f, -0.005358f, 0.035798f, -0.094734f, -0.032841f, -0.151560f, 0.005327f, 0.115672f, -0.007095f, -0.024761f, 0.108387f, 0.173631f, -0.027862f, 0.015522f, -0.049906f, 0.142788f, -0.044655f, 0.004332f, -0.078823f, 0.018136f, -0.139808f, -0.162505f, 0.044321f, -0.069246f, 0.025210f, -0.063818f, 0.212142f, -0.115978f, -0.008607f, 0.060729f, -0.137708f, -0.084336f, -0.140648f, 0.134620f, -0.042148f, 0.151047f, 0.006170f, 0.169064f, 0.232720f, 0.157171f, 0.088452f, -0.042501f, 0.047583f, 0.073570f, 0.074828f, 0.121668f, 0.118834f, 0.116628f, -0.073149f, -0.124333f, 0.142449f, 0.130117f, -0.126596f, 0.097973f, -0.042054f, -0.114638f, -0.083458f, 0.000818f, 0.280867f, 0.164689f, 0.010386f, -0.026573f, -0.114439f, 0.097100f, 0.112375f, -0.242646f, -0.064846f, 0.167259f, -0.090421f, 0.157830f, -0.082919f, -0.082354f, 0.001696f, -0.118273f, -0.138716f, 0.063795f, 0.014812f, -0.050441f, -0.098219f, 0.141049f, 0.029828f, 0.075750f, 0.041006f, 0.120210f, 0.167921f, -0.155805f, 0.042865f, 0.209527f, 0.062044f, -0.206227f, -0.035875f, -0.047960f, -0.351241f, -0.128451f, 0.118119f, 0.151891f, -0.150718f, -0.010441f, 0.004050f, 0.085372f, -0.148093f, 0.035877f, -0.164459f, 0.117094f, 0.076012f, -0.069791f, 0.119488f, 0.098430f, 0.109771f, -0.030443f, 0.139816f, -0.003921f, -0.194565f, 0.027755f, -0.004956f, 0.136501f, 0.094788f, -0.173783f, -0.087324f, -0.093116f, -0.080238f, -0.066326f, -0.023729f, 0.040269f, -0.017248f, 0.127696f, -0.105336f, -0.066777f, -0.122368f, 0.068641f, -0.063450f, 0.176052f, -0.156559f, 0.132194f, -0.118316f, -0.074543f, 0.077783f, -0.061020f, 0.162165f, 0.147054f, -0.144342f, 0.054038f, 0.140980f, -0.032847f, -0.054150f, 0.030068f, 0.102620f, -0.159358f, -0.155809f, 0.100845f, -0.155190f, 0.189319f, -0.161657f, -0.133870f, -0.044221f, -0.213932f, 0.063945f, 0.148932f, 0.156488f, 0.062454f, -0.020444f, 0.061114f, -0.080421f, 0.057590f, 0.000143f, -0.063928f, -0.093830f, 0.066652f, -0.045129f, 0.080091f, -0.163029f, -0.004489f, -0.122428f, -0.010693f, 0.020692f, 0.070949f, 0.025737f, 0.181010f, 0.162016f, -0.038647f, 0.147587f, -0.002884f, -0.138134f, 0.146105f, -0.042350f, 0.010900f, 0.046123f, -0.190783f, -0.018096f, 0.166548f, 0.118408f, 0.012837f, -0.195903f, 0.012629f, 0.043387f, 0.083992f, -0.113153f, -0.177968f, -0.086437f, 0.073172f, -0.151092f, 0.061948f, 0.063983f, -0.126613f, 0.177482f, 0.031160f, -0.007880f, -0.125352f, -0.246029f, 0.026511f, -0.178251f, 0.038474f, 0.120686f, 0.084480f, 0.105800f, 0.046593f, 0.007074f, -0.016366f, 0.015148f, -0.195505f, -0.173031f, -0.018710f, 0.169368f, -0.078386f, -0.205321f, -0.034461f, -0.142353f, -0.123050f, 0.008835f, -0.084398f, -0.127915f, -0.081948f, 0.136203f, -0.198011f, 0.170395f, 0.075688f, 0.000956f, 0.097296f, -0.034530f, -0.003423f, -0.165272f, -0.038833f, 0.009410f, 0.158243f, -0.088328f, 0.116685f, 0.000698f, 0.084934f, 0.075025f, -0.001098f, 0.019342f, -0.279142f, 0.024022f, -0.105934f, -0.108878f, -0.002876f, 0.075562f, -0.115544f, -0.011460f, -0.090544f, 0.035843f, 0.044722f, 0.123906f, 0.007963f, -0.149033f, 0.095603f, -0.076978f, 0.199849f, -0.055966f, -0.148025f, -0.037861f, -0.006221f, 0.055954f, 0.148961f, 0.064562f, 0.048668f, -0.069115f, -0.074660f, 0.149906f, -0.142835f, 0.017650f, -0.083813f, 0.160144f, -0.061634f, 0.116857f, -0.020964f, -0.100370f, -0.118568f, -0.197651f, -0.146442f, 0.143471f, 0.019738f, 0.070193f, 0.176947f, 0.053512f, -0.131416f, -0.153428f, -0.114818f, -0.215045f, -0.035542f, -0.000257f, -0.159576f, 0.104941f, -0.014576f, 0.100006f, 0.066350f, -0.066355f, -0.193320f, 0.033967f, 0.144550f, -0.159058f, 0.156098f, 0.074894f, -0.075453f, 0.117271f, -0.002617f, -0.065478f, 0.250197f, -0.033829f, 0.077696f, -0.041946f, -0.220509f, -0.190605f, 0.176315f, 0.082892f, -0.022450f, -0.122055f, -0.118823f, 0.064552f, 0.008075f, -0.029195f, 0.064076f, 0.049177f, -0.055918f, 0.092754f, 0.120032f, 0.124104f, 0.036835f, -0.172452f, 0.046856f, 0.237733f, -0.199021f, -0.021724f, 0.106391f, -0.176116f, -0.167442f, 0.053990f, 0.122191f, -0.279214f, -0.275870f, -0.207044f, 0.037687f, -0.142229f, -0.259017f, -0.040245f, -0.121414f, -0.093704f, 0.118127f, -0.003781f, 0.093835f, -0.226658f, 0.049698f, 0.091165f, 0.090081f, -0.013953f, 0.031968f, 0.140058f, -0.175064f, -0.318778f, -0.105244f, 0.062441f, 0.013895f, 0.061977f, 0.219397f, 0.018469f, 0.002074f, -0.067076f, -0.133900f, 0.141039f, -0.157930f, -0.146091f, 0.081037f, 0.082797f, -0.142059f, 0.289056f, 0.147794f, -0.194379f, 0.132426f, 0.056614f, 0.103635f, 0.091636f, -0.145112f, -0.019248f, -0.119499f, 0.009228f, 0.279508f, 0.128912f, 0.053336f, -0.079053f, 0.078517f, 0.086356f, -0.050508f, -0.188914f, -0.116914f, -0.067336f, -0.036582f, 0.134876f, -0.154310f, 0.012486f, -0.006419f, 0.121731f, 0.121580f, 0.055552f, -0.259968f, 0.103489f, 0.034728f, -0.130134f, 0.126106f, 0.000431f, 0.163106f, 0.119875f, 0.057777f, 0.207317f, -0.057901f, -0.120473f, 0.073177f, -0.096134f, 0.336895f, -0.157084f, -0.070807f, 0.031750f, -0.109667f, 0.033634f, -0.049861f, 0.088133f, -0.143658f, 0.099570f, -0.015442f, -0.125484f, -0.073763f, 0.027632f, -0.124148f, -0.026225f, 0.054655f, -0.166378f, 0.087711f, 0.048768f, 0.126742f, 0.183224f, -0.000068f, -0.070268f, 0.235844f, -0.151847f, -0.089966f, 0.037734f, 0.076521f, 0.055266f, 0.036932f, 0.112137f, -0.113369f, 0.204513f, -0.221233f, 0.024500f, 0.045640f, -0.043655f, 0.015550f, -0.135112f, 0.191004f, -0.015247f, 0.071994f, -0.137600f, 0.199262f, 0.032188f, -0.105111f, -0.036054f, 0.047160f, 0.013597f, -0.150196f, 0.121673f, 0.121191f, 0.091427f, -0.193761f, -0.142956f, 0.134665f, 0.047523f, 0.029241f, -0.102192f, -0.010355f, 0.020531f, -0.170628f, 0.193790f, 0.196814f, -0.020551f, -0.262655f, 0.003674f, -0.076254f, -0.226081f, 0.051073f, 0.074552f, -0.002163f, 0.137374f, -0.052225f, 0.030314f, -0.000777f, 0.128650f, -0.104630f, 0.008294f, -0.190022f, -0.169313f, 0.006888f, -0.042453f, 0.051896f, 0.151145f, 0.116520f, -0.029644f, 0.041494f, 0.032028f, -0.039340f, 0.029438f, 0.170419f, -0.104569f, 0.098755f, 0.098859f, -0.127523f, 0.132037f, -0.199111f, 0.019476f, 0.096767f, 0.074724f, -0.138592f, -0.172273f, -0.182687f, 0.012882f, 0.150366f, 0.011573f, 0.199903f, -0.128470f, 0.110454f, 0.081310f, 0.037656f, -0.048679f, -0.162472f, -0.157491f, -0.092267f, -0.077433f, 0.137522f, -0.008400f, -0.058637f, 0.057224f, -0.006783f, 0.109918f, 0.165969f, -0.178484f, -0.093266f, 0.031717f, 0.110142f, -0.072127f, -0.184269f, -0.079622f, -0.154679f, 0.025653f, 0.052563f, -0.091059f, -0.081225f, -0.192354f, 0.075622f, 0.070375f, -0.129252f, 0.070752f, -0.047466f, 0.103344f, -0.114311f, -0.124790f, -0.029308f, 0.106092f, 0.022499f, -0.181896f, -0.122190f, 0.088438f, -0.183025f, 0.041350f, 0.076225f, 0.106739f, -0.004722f, -0.006456f, 0.102334f, 0.103862f, -0.013574f, 0.055818f, 0.114493f, 0.126869f, -0.162762f, -0.206432f, -0.148876f, -0.150231f, -0.061101f, -0.148760f, -0.056970f, 0.025618f, 0.032708f, 0.146090f, 0.116886f, -0.259196f, -0.149297f, -0.017617f, 0.140865f, 0.102024f, 0.016651f, -0.065658f, -0.157436f, -0.122170f, -0.205932f, 0.027073f, -0.175170f, 0.005718f, -0.021560f, 0.201485f, -0.128505f, -0.161538f, -0.219724f, -0.196847f, 0.066666f, 0.036110f, -0.128975f, -0.076285f, 0.114980f, -0.165771f, -0.075846f, 0.030573f, 0.077855f, -0.009368f, 0.016896f, 0.001757f, 0.090895f, 0.012096f, -0.140366f, 0.049673f, 0.010272f, -0.143124f, -0.149369f, -0.075876f, 0.052142f, -0.039721f, -0.134478f, -0.130438f, -0.000853f, 0.130084f, 0.059672f, 0.106350f, -0.112838f, 0.191207f, -0.008711f, -0.174508f, 0.093938f, 0.035880f, 0.097514f, 0.179423f, 0.120568f, 0.094254f, -0.056016f, -0.017403f, -0.043397f, -0.082553f, -0.167750f, -0.041843f, 0.009852f, 0.079834f, 0.192089f, -0.137566f, -0.012222f, -0.051614f, -0.172401f, -0.064945f, 0.022992f, -0.115559f, 0.029072f, 0.019119f, -0.130340f, -0.031583f, 0.118259f, -0.076354f, -0.067162f, -0.216415f, 0.117128f, 0.109322f, -0.023322f, -0.023884f, -0.047454f, -0.146462f, 0.141570f, 0.030120f, -0.090950f, 0.040781f, -0.155865f, 0.150861f, 0.140953f, 0.164949f, 0.022276f, 0.106177f, -0.161512f, 0.046682f, -0.026801f, 0.077839f, 0.050497f, -0.153799f, 0.133969f, 0.159970f, 0.196043f, 0.072740f, -0.192928f, 0.131878f, 0.046123f, -0.148225f, -0.212585f, 0.119604f, -0.217295f, 0.101979f, -0.132934f, -0.130062f, 0.036866f, 0.038370f, 0.088897f, -0.135831f, -0.002241f, -0.049977f, -0.074754f, 0.100335f, 0.161388f, 0.088287f, 0.080102f, -0.095509f, -0.060570f, 0.039850f, 0.103771f, 0.042542f, -0.071391f, -0.033086f, 0.136162f, -0.140255f, 0.155034f, -0.010763f, -0.146557f, 0.152298f, -0.196503f, -0.118524f, -0.084810f, -0.062458f, -0.150240f, -0.158308f, 0.181835f, 0.079580f, 0.119082f, -0.116412f, -0.094510f, 0.097721f, 0.152507f, -0.202528f, 0.036688f, -0.003396f, 0.101255f, 0.022530f, 0.052589f, 0.056388f, -0.172657f, -0.128142f, -0.078851f, -0.108344f, -0.071443f, -0.129681f, -0.081443f, 0.127606f, -0.071368f, 0.101872f, 0.107477f, -0.115625f, -0.097237f, 0.035145f, -0.061429f, 0.190874f, -0.104549f, -0.026673f, -0.154523f, -0.000022f, 0.217844f, -0.014892f, -0.137228f, 0.112118f, -0.005738f, -0.101001f, 0.120114f, 0.101476f, 0.003123f, -0.034648f, 0.158928f, -0.112018f, -0.167665f, -0.077677f, 0.171253f, -0.084415f, -0.139729f, 0.028255f, 0.006284f, 0.046449f, -0.089330f, -0.115894f, -0.086293f, 0.009972f, -0.081270f, 0.077852f, -0.055958f, -0.097403f, -0.089729f, -0.187634f, 0.000115f, -0.081629f, -0.071603f, 0.233773f, -0.085121f, -0.121223f, -0.110227f, 0.100189f, 0.175511f, 0.041508f, 0.131635f, -0.163634f, -0.030968f, 0.186466f, -0.152581f, -0.156154f, 0.030182f, 0.005810f, 0.040282f, 0.184679f, 0.057474f, -0.037181f, 0.241227f, 0.109146f, 0.034793f, -0.017772f, 0.076626f, -0.200823f, -0.056290f, -0.104618f, 0.005086f, 0.070757f, 0.074345f, 0.082822f, 0.078579f, -0.138400f, -0.058166f, 0.106272f, -0.024050f, 0.038479f, -0.214057f, 0.076934f, 0.197265f, 0.029582f, -0.037142f, 0.052186f, -0.103905f, -0.156917f, 0.093451f, 0.020119f, 0.028831f, 0.119702f, 0.066812f, -0.212055f, -0.123022f, -0.087094f, -0.016553f, 0.068466f, -0.106450f, 0.068464f, -0.118872f, -0.042807f, -0.023107f, 0.143590f, -0.179658f, 0.162106f, 0.164028f, -0.166616f, -0.090100f, 0.002161f, 0.181606f, 0.039519f, -0.089284f, -0.093584f, -0.126660f, 0.113263f, -0.123634f, -0.014375f, -0.081006f, -0.014047f, 0.169702f, 0.005791f, -0.122951f, -0.085749f, -0.064553f, 0.125937f, 0.073727f, -0.190340f, 0.098630f, 0.050936f, -0.075262f, -0.188731f, -0.017662f, 0.084277f, -0.074244f, 0.178262f, 0.103203f, -0.188757f, 0.031876f, -0.124200f, 0.080082f, -0.095375f, -0.055590f, -0.110061f, -0.158122f, -0.132774f, -0.069117f, -0.050851f, -0.111293f, 0.144735f, -0.006671f, -0.151065f, 0.031651f, 0.005261f, -0.045688f, 0.134773f, 0.129481f, 0.148602f, 0.013773f, 0.034024f, 0.076667f, -0.043088f, -0.074448f, 0.082543f, 0.035336f, -0.107498f, 0.100847f, 0.123901f, -0.161973f, -0.087609f, -0.170379f, -0.016451f, 0.095561f, 0.072273f, 0.049134f, -0.129194f, 0.144056f, -0.156942f, 0.162312f, -0.204384f, -0.013174f, -0.064383f, -0.007887f, -0.009870f, 0.166334f, 0.137238f, 0.095579f, -0.201578f, 0.123286f, 0.023592f, 0.021826f, 0.062153f, -0.074715f, -0.108417f, 0.039914f, 0.123031f, -0.117725f, 0.036449f, 0.126110f, 0.148441f, -0.017661f, 0.090134f, -0.045486f, 0.067342f, -0.110015f, 0.016060f, -0.121026f, 0.089299f, 0.010817f, -0.186322f, 0.223403f, 0.026010f, 0.165381f, -0.044311f, -0.002034f, 0.034976f, 0.023715f, 0.136618f, 0.166422f, 0.000250f, -0.112814f, -0.075484f, 0.082462f, -0.116071f, -0.173292f, 0.028961f, -0.073834f, -0.059847f, -0.013575f, 0.072364f, 0.090761f, -0.115850f, 0.018094f, -0.133663f, -0.172047f, 0.062707f, 0.168286f, 0.045577f, -0.170634f, 0.142959f, -0.014050f, -0.011536f, 0.071309f, 0.028248f, -0.003032f, 0.062356f, -0.071804f, -0.034515f, -0.125415f, -0.051120f, -0.126731f, -0.043112f, -0.131913f, -0.095339f, -0.175098f, 0.062538f, 0.105105f, 0.140652f, 0.153030f, -0.116345f, 0.163234f, 0.146652f, 0.017439f, -0.040013f, -0.069217f, 0.085949f, -0.065369f, 0.154567f, -0.125319f, -0.063590f, -0.163050f, 0.049432f, -0.171527f, -0.112853f, -0.195397f, 0.129635f, -0.031742f, 0.078970f, 0.179911f, -0.108238f, -0.125954f, -0.063336f, 0.073198f, 0.115267f, 0.176634f, -0.147879f, 0.121638f, -0.063374f, 0.104159f, -0.270234f, 0.171180f, 0.006951f, -0.005010f, 0.072433f, -0.030892f, 0.032078f, 0.166420f, -0.053026f, 0.094484f, 0.111202f, 0.185927f, -0.095994f, 0.022346f, -0.074395f, 0.012269f, 0.173443f, 0.008417f, -0.072805f, -0.150033f, 0.048882f, -0.002411f, 0.022005f, -0.246862f, 0.189111f, -0.177364f, -0.059395f, -0.044833f, 0.096737f, -0.074599f, 0.321593f, -0.224144f, -0.006061f, 0.154807f, 0.062531f, 0.083539f, 0.179815f, 0.120085f, -0.002805f, 0.143724f, 0.063141f, -0.018583f, 0.126931f, 0.013815f, -0.154618f, -0.053061f, 0.078644f, 0.003357f, 0.099194f, 0.017355f, 0.041160f, -0.003233f, -0.048661f, -0.044077f, 0.088632f, 0.179207f, -0.166730f, 0.076129f, -0.097261f, -0.124331f, 0.112544f, 0.060375f, -0.087041f, 0.142114f, -0.033841f, 0.103094f, -0.179507f, 0.113613f, 0.018877f, -0.082715f, 0.125517f, 0.090637f, -0.186963f, -0.080247f, 0.109938f, -0.156507f, 0.056925f, 0.173527f, -0.077447f, -0.273124f, 0.143791f, 0.116583f, -0.034645f, 0.036846f, 0.126480f, -0.028532f, 0.033001f, -0.109208f, 0.138582f, -0.161589f, -0.195009f, -0.043149f, 0.120635f, -0.192970f, 0.150618f, -0.085276f, 0.071400f, -0.188631f, 0.038761f, 0.068059f, 0.007284f, 0.011686f, 0.168624f, -0.045941f, 0.018450f, 0.080501f, -0.038522f, -0.039120f, -0.160340f, 0.162955f, -0.096224f, 0.043318f, -0.138278f, 0.124331f, -0.038190f, 0.056839f, -0.168993f, -0.217614f, 0.031523f, 0.185269f, 0.165508f, -0.119225f, 0.026614f, 0.008033f, 0.056900f, -0.009221f, 0.104896f, 0.128668f, 0.092777f, -0.011634f, -0.052740f, 0.059780f, 0.183439f, -0.048017f, 0.114253f, 0.147579f, 0.187559f, -0.078299f, 0.155257f, -0.140294f, -0.044124f, 0.191540f, -0.086227f, -0.069126f, 0.033294f, 0.018881f, 0.105084f, -0.045209f, 0.002816f, 0.062914f, 0.016649f, -0.120878f, 0.186861f, -0.095312f, -0.157601f, -0.046035f, 0.073220f, -0.070996f, -0.071613f, 0.059535f, 0.074248f, -0.082147f, -0.022815f, -0.052529f, 0.165312f, -0.069142f, 0.073916f, -0.017967f, 0.046116f, -0.123346f, -0.040996f, -0.117416f, -0.149131f, 0.080017f, 0.139022f, -0.056701f, -0.004459f, 0.099694f, -0.135213f, -0.022670f, 0.064343f, -0.060214f, 0.129003f, 0.071671f, 0.123464f, -0.154726f, 0.037624f, -0.182142f, -0.121333f, -0.003205f, -0.102214f, -0.165111f, -0.064588f, 0.147249f, 0.008862f, -0.038832f, 0.121380f, -0.025042f, -0.043787f, -0.051651f, 0.102741f, -0.097718f, 0.012709f, 0.068396f, -0.159750f, 0.164984f, 0.109838f, -0.104931f, -0.070558f, -0.110098f, -0.110561f, 0.065247f, 0.003449f, 0.064161f, 0.018925f, -0.007743f, 0.182927f, -0.025108f, -0.014954f, 0.061411f, -0.058051f, -0.031227f, -0.198999f, 0.007971f, 0.061086f, 0.023761f, 0.018759f, -0.149498f, 0.160904f, -0.089304f, -0.087678f, -0.009023f, 0.096782f, -0.022158f, -0.058130f, -0.153590f, 0.024866f, 0.149062f, 0.157811f, 0.022971f, 0.128445f, -0.055541f, 0.033425f, 0.193467f, -0.180519f, 0.031151f, 0.081160f, 0.189988f, 0.129720f, -0.018064f, -0.138651f, 0.110963f, -0.173022f, -0.010377f, 0.043238f, -0.126265f, -0.012953f, -0.101071f, 0.050442f, -0.119760f, 0.049048f, 0.004922f, 0.017344f, 0.002603f, -0.164001f, -0.148669f, -0.053073f, 0.186428f, -0.120683f, 0.115493f, -0.110800f, 0.089831f, 0.170814f, 0.026594f, 0.016438f, 0.036951f, 0.188307f, -0.177708f, -0.075754f, 0.143970f, 0.119561f, -0.155959f, -0.074579f, -0.073281f, -0.059143f, 0.051269f, -0.069138f, -0.111823f, 0.118859f, -0.115461f, -0.022868f, -0.166393f, 0.085872f, -0.139246f, 0.180453f, 0.151372f, 0.031896f, 0.110867f, -0.128201f, -0.215171f, -0.022261f, 0.176817f, -0.112624f, 0.104709f, -0.122752f, 0.135930f, 0.013396f, 0.106727f, -0.209713f, -0.138674f, -0.128557f, -0.161316f, -0.054396f, 0.086193f, -0.059460f, -0.101217f, 0.167637f, 0.117115f, 0.209422f, 0.159742f, 0.022874f, -0.082977f, 0.136228f, 0.052238f, -0.008116f, -0.086597f, 0.014744f, -0.159688f, -0.031065f, -0.156550f, 0.049652f, 0.010902f, -0.128179f, 0.068361f, 0.055297f, 0.080426f, -0.141540f, -0.038963f, 0.129620f, -0.037916f, -0.029345f, -0.170728f, -0.123563f, -0.036828f, 0.158560f, 0.100509f, -0.103718f, -0.115813f, 0.073158f, 0.008771f, -0.133464f, -0.131987f, -0.115490f, 0.163524f, 0.144167f, 0.163419f, 0.038213f, 0.150025f, -0.064691f, 0.072231f, 0.034778f, -0.078371f, -0.009593f, -0.110999f, 0.022531f, -0.138008f, -0.063435f, 0.007284f, -0.101780f, 0.115891f, -0.017223f, 0.010683f, 0.063202f, 0.190194f, -0.162931f, -0.124356f, -0.108389f, -0.047694f, 0.150795f, -0.154552f, 0.114377f, -0.067205f, -0.133809f, -0.129807f, 0.025448f, 0.002856f, 0.032941f, 0.113565f, -0.001472f, 0.247435f, -0.163265f, 0.133042f, -0.215561f, 0.028611f, 0.063292f, -0.060483f, 0.019386f, -0.015385f, -0.114837f, -0.062891f, 0.067759f, -0.048762f, 0.065076f, 0.008298f, -0.021102f, -0.194185f, 0.108399f, 0.085389f, -0.173330f, 0.173992f, 0.189119f, -0.016163f, -0.037943f, -0.068127f, 0.062833f, 0.203452f, -0.010880f, 0.078095f, -0.039877f, 0.139644f, 0.142809f, -0.067917f, -0.052397f, -0.056900f, 0.058406f, -0.022390f, -0.027816f, 0.092881f, -0.082796f, 0.121052f, 0.130791f, -0.171238f, 0.119813f, -0.066601f, -0.158905f, 0.019188f, -0.001202f, 0.022593f, 0.048319f, 0.126833f, -0.053651f, 0.059181f, -0.091613f, -0.081227f, -0.061883f, -0.158434f, -0.046568f, -0.076242f, -0.147162f, 0.119987f, 0.104614f, -0.026194f, 0.086003f, 0.201819f, -0.062201f, -0.118642f, -0.064193f, -0.125491f, -0.075706f, 0.021169f, 0.062795f, -0.112258f, 0.170739f, -0.006053f, -0.028248f, -0.190126f, -0.317101f, 0.091007f, 0.214854f, -0.166277f, 0.021412f, 0.101450f, -0.213309f, -0.087742f, 0.349150f, -0.111233f, -0.034225f, 0.207999f, -0.143418f, 0.050316f, -0.103287f, 0.129754f, -0.162240f, -0.065507f, -0.065136f, 0.004049f, -0.138433f, 0.041735f, -0.131038f, -0.061368f, 0.169696f, 0.075256f, -0.176789f, -0.152450f, -0.021500f, -0.127339f, 0.008721f, -0.242864f, -0.185179f, 0.001363f, 0.186071f, 0.163071f, -0.072507f, -0.222982f, 0.003888f, 0.024881f, -0.197687f, 0.082614f, 0.023628f, 0.080596f, 0.142068f, 0.001185f, -0.123658f, -0.019860f, 0.129587f, -0.048941f, 0.072852f, 0.313194f, -0.049038f, -0.086704f, -0.055018f, 0.007460f, -0.203381f, -0.022539f, -0.051680f, 0.213245f, 0.235104f, 0.119047f, 0.169949f, -0.139977f, 0.036976f, 0.165016f, 0.021020f, -0.216462f, -0.017512f, -0.008203f, -0.129813f, 0.058503f, 0.125060f, 0.223482f, -0.189110f, -0.042301f, 0.049129f, -0.073665f, -0.067418f, -0.016852f, 0.007640f, 0.136839f, -0.072946f, 0.125443f, 0.166660f, -0.032015f, 0.095918f, -0.082525f, 0.059949f, 0.138406f, -0.165717f, 0.068083f, -0.030632f, 0.047813f, -0.041459f, -0.034596f, 0.037502f, 0.138009f, 0.116758f, -0.118314f, 0.002932f, -0.093249f, -0.113182f, 0.165548f, -0.011775f, 0.020069f, -0.129180f, -0.085854f, 0.011192f, 0.094225f, -0.169722f, 0.181377f, -0.133278f, -0.185125f, 0.009685f, 0.060114f, -0.130588f, 0.205726f, -0.138084f, -0.063038f, -0.127310f, 0.012687f, 0.091708f, 0.049323f, 0.033854f, 0.002218f, -0.184167f, -0.066303f, -0.193209f, -0.028142f, -0.136430f, 0.104755f, -0.136571f, -0.022887f, 0.082524f, -0.063305f, -0.219027f, 0.104376f, -0.055131f, -0.088433f, 0.095049f, -0.024521f, -0.119113f, -0.089307f, -0.114845f, -0.005709f, -0.168498f, 0.142610f, 0.058469f, 0.172968f, -0.197830f, 0.111311f, 0.127844f, -0.132265f, 0.096775f, -0.015027f, 0.070230f, -0.146962f, -0.104639f, -0.009544f, -0.150188f, 0.126150f, -0.055092f, 0.043999f, -0.149037f, 0.137969f, -0.009940f, 0.148341f, 0.068883f, -0.196253f, 0.034938f, -0.132108f, 0.082553f, -0.035256f, -0.158884f, 0.071056f, 0.160431f, 0.101458f, 0.018767f, 0.095847f, -0.007032f, 0.019912f, -0.062871f, -0.149272f, 0.067246f, -0.088325f, 0.142064f, -0.164948f, 0.016860f, 0.096071f, -0.064759f, 0.149119f, -0.216963f, 0.160338f, 0.135495f, 0.151597f, 0.097755f, 0.001871f, 0.066748f, 0.013997f, -0.111573f, -0.052870f, 0.179954f, -0.119575f, -0.127734f, 0.122022f, 0.050536f, -0.178312f, -0.051231f, -0.063045f, 0.062983f, 0.065175f, 0.016659f, -0.005725f, 0.055727f, -0.113650f, -0.215368f, 0.009688f, 0.101276f, 0.133149f, 0.008789f, 0.033789f, 0.002905f, 0.250786f, 0.109263f, -0.075507f, -0.098423f, -0.005327f, -0.045351f, 0.066051f, -0.053136f, 0.127400f, -0.014776f, -0.048373f, 0.071723f, -0.165083f, 0.108008f, -0.184612f, -0.004044f, -0.090484f, 0.047840f, 0.114711f, 0.076797f, -0.063530f, 0.017531f, -0.146820f, 0.157765f, -0.034807f, 0.001424f, 0.018900f, 0.086655f, -0.090995f, 0.045242f, -0.114540f, -0.162055f, -0.020617f, -0.046446f, 0.032109f, -0.031990f, -0.076097f, -0.006839f, -0.164536f, -0.078521f, -0.122992f, 0.144688f, 0.048851f, -0.014068f, 0.121888f, -0.170424f, 0.110778f, -0.002795f, 0.096077f, 0.136603f, 0.141840f, 0.081116f, -0.068043f, 0.036090f, 0.125367f, 0.014718f, -0.043619f, 0.210132f, 0.173630f, -0.190733f, -0.103845f, -0.053285f, 0.105546f, -0.145140f, -0.218446f, 0.015456f, 0.119691f, 0.050484f, -0.097272f, -0.060426f, -0.066704f, 0.124617f, 0.055884f, 0.139612f, -0.092609f, -0.167634f, -0.108843f, -0.072698f, 0.093917f, 0.066426f, 0.068493f, 0.035617f, -0.090708f, -0.103791f, 0.154517f, 0.058554f, 0.185616f, -0.137291f, 0.167097f, -0.031548f, 0.001917f, 0.051471f, 0.040903f, -0.085426f, 0.173658f, -0.002999f, -0.073460f, -0.032402f, -0.181369f, 0.019394f, -0.116250f, 0.027812f, -0.099399f, 0.102590f, -0.160754f, -0.018115f, 0.226377f, 0.196507f, -0.007944f, 0.220977f, 0.138377f, -0.168531f, 0.194405f, 0.114476f, 0.130941f, 0.061018f, 0.127532f, -0.016158f, 0.103226f, -0.061029f, -0.115904f, -0.099381f, 0.094197f, -0.062893f, -0.003722f, -0.033175f, -0.056523f, 0.035240f, -0.253937f, 0.039477f, 0.173326f, 0.234463f, -0.020534f, 0.110956f, 0.042930f, -0.044901f, 0.056096f, -0.128410f, 0.236015f, -0.174694f, 0.131676f, -0.144642f, -0.127274f, -0.096923f, 0.137272f, -0.173294f, -0.120872f, -0.196738f, -0.032890f, 0.074804f, 0.160124f, -0.085971f, 0.022221f, 0.123633f, -0.016665f, -0.091083f, 0.022368f, 0.040297f, -0.066451f, -0.178880f, -0.055960f, -0.167345f, -0.035740f, -0.183485f, -0.080365f, 0.103099f, 0.039086f, -0.084348f, -0.126532f, 0.197063f, -0.093727f, -0.185524f, -0.012033f, 0.062089f, 0.171544f, -0.171879f, -0.076740f, 0.036778f, 0.264599f, -0.120856f, 0.260398f, 0.026285f, 0.083120f, 0.001184f, 0.070957f, 0.218514f, 0.145261f, -0.079934f, 0.061474f, 0.073364f, -0.183413f, 0.128548f, -0.169722f, -0.029703f, -0.128253f, 0.199463f, 0.187600f, 0.100564f, -0.044143f, -0.101359f, 0.027262f, -0.000550f, 0.044201f, -0.086548f, 0.153019f, -0.087985f, -0.039971f, -0.011380f, 0.069967f, 0.064192f, -0.157020f, 0.187543f, 0.273452f, -0.176335f, -0.088818f, 0.041820f, 0.037839f, 0.173674f, 0.128257f, 0.083667f, 0.088781f, 0.179656f, -0.064503f, 0.013594f, -0.027190f, 0.021937f, 0.024614f, -0.063511f, -0.003266f, -0.157218f, -0.195948f, 0.144659f, -0.099185f, -0.034796f, 0.008531f, -0.033022f, 0.027210f, 0.172126f, 0.006675f, -0.082849f, 0.164354f, -0.063120f, 0.133041f, -0.137025f, 0.017367f, 0.145717f, 0.164050f, 0.034845f, 0.140345f, 0.028944f, -0.018460f, -0.135759f, 0.051861f, 0.176187f, -0.153445f, -0.177257f, -0.082702f, 0.088537f, 0.234527f, -0.148666f, -0.169216f, 0.179395f, 0.037556f, -0.076258f, 0.095704f, -0.012049f, 0.046577f, 0.056361f, 0.054081f, 0.013437f, -0.029515f, -0.157533f, -0.173757f, 0.099767f, -0.071793f, -0.084939f, -0.167675f, -0.035449f, 0.063770f, -0.185914f, 0.087300f, 0.228175f, 0.104201f, -0.183447f, -0.074425f, -0.046850f, 0.068655f, -0.035577f, -0.058380f, -0.006994f, -0.132440f, -0.039201f, -0.019800f, 0.076567f, 0.151218f, 0.066437f, -0.043632f, 0.055306f, -0.145123f, -0.041700f, 0.064625f, 0.057448f, -0.132111f, -0.093064f, 0.086922f, -0.193265f, 0.032413f, 0.030830f, 0.087277f, -0.109205f, -0.025918f, 0.057759f, 0.049755f, -0.082230f, 0.143477f, -0.185268f, -0.037287f, 0.112984f, -0.174597f, -0.072937f, 0.070772f, -0.009838f, -0.071174f, -0.151052f, 0.074496f, 0.110791f, 0.133803f, 0.113857f, -0.012669f, 0.011281f, -0.177174f, -0.193352f, -0.024528f, -0.041113f, -0.111303f, -0.092113f, -0.034359f, 0.089281f, 0.038361f, 0.117550f, -0.152349f, -0.151548f, 0.188573f, -0.055970f, 0.158046f, 0.130509f, -0.005996f, -0.141494f, 0.150531f, -0.054585f, -0.015580f, 0.142270f, -0.057211f, -0.097903f, 0.148596f, -0.050500f, -0.066636f, 0.029154f, 0.142353f, 0.116928f, 0.099544f, -0.113436f, 0.024882f, 0.040488f, 0.112217f, -0.079721f, -0.074138f, -0.117034f, 0.112747f, 0.051964f, 0.080889f, -0.101084f, 0.120091f, 0.173183f, 0.023142f, -0.123028f, -0.045056f, 0.019954f, -0.051619f, -0.117157f, 0.075499f, -0.012024f, 0.111646f, 0.063513f, -0.028328f, -0.168298f, 0.102475f, -0.241245f, -0.173470f, 0.023516f, 0.069364f, 0.131018f, 0.158433f, 0.033579f, -0.044983f, -0.021836f, 0.053811f, 0.091407f, 0.097074f, -0.109846f, 0.004766f, -0.031042f, -0.172866f, 0.067184f, -0.067135f, -0.037087f, -0.066106f, 0.016699f, 0.054489f, -0.034379f, -0.005884f, -0.099946f, -0.102584f, -0.064142f, -0.016973f, 0.025579f, 0.108018f, 0.022287f, -0.065391f, -0.177145f, -0.136159f, -0.153360f, -0.049416f, 0.003123f, 0.137316f, 0.078113f, 0.028254f, -0.076098f, 0.152616f, -0.057226f, -0.132337f, 0.023858f, 0.195048f, 0.017133f, 0.181910f, 0.076335f, -0.146985f, -0.090750f, 0.057109f, 0.081600f, 0.176325f, 0.024849f, 0.069654f, 0.004083f, 0.102129f, -0.035723f, 0.064345f, 0.085174f, -0.097571f, -0.192779f, 0.133446f, 0.252424f, 0.023117f, 0.176833f, 0.092242f, 0.133636f, -0.043890f, -0.106382f, 0.006857f, -0.201333f, -0.073920f, -0.180340f, -0.034056f, 0.003555f, -0.025348f, -0.162787f, 0.153739f, -0.062476f, 0.016621f, -0.181991f, -0.107132f, -0.053189f, -0.015367f, 0.209059f, 0.019292f, 0.060446f, -0.068935f, 0.196026f, -0.167270f, -0.083659f, -0.130732f, -0.094602f, -0.049287f, 0.083792f, 0.052123f, 0.042464f, -0.365196f, -0.030356f, 0.110443f, -0.202803f, 0.030301f, 0.004402f, -0.226847f, -0.083239f, -0.248685f, 0.000972f, 0.069172f, 0.221741f, -0.015269f, 0.003459f, 0.052255f, -0.187697f, 0.042000f, 0.143095f, -0.054647f, 0.087321f, 0.040719f, -0.102960f, 0.115413f, -0.049934f, 0.003743f, 0.177472f, -0.111171f, -0.028720f, 0.307736f, 0.066734f, -0.071408f, -0.062815f, 0.136479f, -0.074868f, 0.004344f, 0.061333f, 0.024660f, 0.138140f, 0.194489f, 0.112284f, 0.154287f, 0.149377f, -0.082856f, -0.030748f, -0.111235f, -0.013934f, -0.319914f, 0.063950f, -0.052991f, -0.106069f, 0.103636f, 0.378503f, 0.059175f, 0.034171f, 0.202828f, 0.045014f, -0.254236f, -0.125825f, 0.024760f, 0.212457f, -0.054886f, -0.105186f, -0.082266f, -0.110944f, -0.243164f, -0.024903f, 0.005142f, -0.234542f, 0.177095f, -0.107530f, -0.407985f, -0.099170f, -0.184360f, 0.209957f, 0.086378f, 0.059971f, -0.228158f, -0.043453f, -0.134840f, -0.052955f, 0.100262f, 0.139018f, 0.195027f, -0.028830f, 0.187819f, -0.160363f, 0.099758f, 0.035317f, 0.314155f, 0.041913f, 0.250740f, 0.115911f, 0.243667f, -0.416689f, -0.455865f, 0.122967f, 0.217016f, 0.169961f, -0.191533f, 0.131476f, 0.092268f, -0.012740f, -0.014768f, 0.004074f, 0.142791f, 0.151010f, 0.005823f, -0.016227f, 0.018742f, 0.121647f, -0.352607f, -0.084590f, 0.046294f, -0.126227f, 0.127669f, 0.450418f, -0.068238f, 0.194849f, 0.276265f, -0.069248f, 0.044876f, -0.081076f, -0.019509f, 0.084564f, 0.161772f, 0.034650f, 0.109224f, 0.035224f, -0.135445f, -0.005221f, -0.112935f, 0.003243f, 0.043316f, 0.110412f, -0.293027f, -0.116939f, 0.028857f, 0.007065f, -0.134720f, -0.006921f, -0.119525f, 0.166120f, 0.057277f, -0.024899f, 0.117541f, -0.004161f, 0.003287f, -0.035956f, -0.133215f, -0.113045f, -0.169665f, 0.013049f, 0.089136f, 0.003657f, -0.006834f, 0.083993f, -0.016672f, -0.037895f, 0.164211f, 0.153965f, 0.083412f, 0.075506f, 0.046431f, 0.076922f, 0.211197f, 0.037543f, 0.066589f, -0.106717f, 0.020141f, 0.184738f, -0.120866f, 0.108091f, 0.094863f, -0.193768f, -0.014613f, -0.188011f, 0.095809f, -0.166139f, -0.019496f, 0.209603f, 0.012578f, -0.012150f, -0.044098f, -0.029241f, 0.161165f, 0.164080f, -0.071630f, -0.108362f, 0.095248f, -0.110934f, 0.105223f, -0.024983f, -0.111403f, -0.106447f, -0.145386f, -0.114689f, -0.068062f, -0.082771f, 0.085995f, -0.110992f, 0.097548f, 0.147124f, -0.158125f, -0.055275f, -0.027385f, -0.152776f, 0.014513f, -0.144144f, 0.006432f, 0.092383f, -0.173461f, 0.059638f, 0.125678f, 0.028017f, 0.048669f, 0.080019f, 0.128831f, -0.170733f, -0.058158f, 0.119952f, -0.038362f, -0.068124f, 0.058973f, -0.073860f, 0.121870f, 0.000777f, -0.073919f, -0.029613f, 0.034379f, 0.059354f, 0.092416f, 0.157802f, -0.040848f, -0.142464f, 0.090920f, 0.134597f, 0.100404f, -0.100941f, -0.135705f, 0.123813f, -0.109281f, -0.067400f, -0.129817f, -0.172329f, -0.162361f, 0.114840f, 0.014534f, 0.168923f, 0.022870f, -0.188854f, 0.153900f, -0.153920f, 0.175435f, -0.140378f, -0.114485f, -0.052610f, 0.191474f, -0.043453f, -0.158177f, -0.142848f, 0.154252f, -0.047939f, -0.203258f, 0.027710f, 0.125132f, 0.049029f, 0.024518f, 0.046298f, -0.088896f, 0.053938f, -0.104543f, 0.222962f, 0.167295f, 0.090512f, -0.074693f, 0.102067f, -0.009742f, -0.134476f, -0.132692f, -0.049549f, -0.037543f, -0.117883f, 0.183563f, -0.007497f, 0.027202f, -0.133022f, -0.010028f, -0.039696f, 0.158855f, 0.141134f, 0.064420f, -0.143453f, 0.102840f, -0.053453f, -0.138773f, -0.113306f, 0.149337f, -0.131087f, 0.088847f, -0.031808f, 0.024774f, -0.002407f, -0.188986f, -0.095536f, -0.116574f, 0.133203f, -0.128844f, -0.051235f, 0.164192f, 0.189086f, -0.173493f, 0.086898f, 0.041498f, -0.174497f, -0.171092f, 0.102836f, 0.028679f, -0.091368f, 0.094475f, 0.006360f, -0.146888f, 0.052215f, 0.152741f, 0.202644f, 0.065390f, -0.038380f, -0.033676f, -0.007166f, -0.192735f, 0.189509f, 0.118871f, 0.038189f, 0.018337f, 0.006125f, -0.044297f, -0.178942f, -0.124875f, 0.117500f, 0.068957f, 0.024153f, 0.074953f, -0.125259f, 0.139153f, 0.111520f, 0.038469f, 0.090271f, -0.070653f, 0.134485f, -0.056659f, 0.061071f, 0.018940f, -0.078803f, -0.136425f, -0.010587f, 0.153003f, -0.176050f, 0.078461f, -0.139777f, 0.055468f, 0.078753f, 0.023251f, -0.241285f, 0.041615f, -0.095788f, 0.109906f, -0.161968f, -0.084957f, 0.065519f, 0.037578f, 0.118525f, -0.142312f, -0.143325f, -0.003784f, 0.065719f, 0.023513f, -0.088150f, -0.163951f, -0.135952f, 0.183505f, -0.057052f, 0.039085f, 0.023223f, -0.041157f, -0.054279f, -0.211448f, 0.071728f, 0.177468f, -0.292580f, 0.139815f, 0.052980f, -0.185848f, 0.118284f, 0.024928f, -0.084345f, 0.076084f, 0.109979f, -0.034384f, -0.083329f, 0.076549f, -0.020891f, 0.156696f, 0.030260f, 0.067829f, -0.048870f, 0.145812f, -0.024940f, 0.046706f, -0.087216f, 0.161507f, 0.163624f, -0.070560f, 0.069051f, 0.071616f, 0.138978f, 0.012669f, 0.141094f, -0.061410f, -0.117769f, 0.225913f, -0.024127f, -0.108822f, 0.059829f, 0.186623f, -0.066834f, -0.136306f, 0.073841f, -0.126492f, 0.196851f, -0.107988f, 0.027205f, -0.094040f, 0.101612f, -0.049712f, 0.024735f, -0.001624f, 0.207330f, -0.026157f, 0.116763f, 0.224935f, 0.088496f, 0.100388f, 0.122339f, -0.009103f, -0.150535f, 0.171556f, 0.010321f, 0.068297f, 0.125248f, 0.155675f, 0.105779f, 0.161607f, -0.065173f, 0.064876f, 0.160683f, 0.010003f, -0.220711f, -0.138089f, 0.089636f, -0.094009f, -0.086783f, -0.073796f, -0.104142f, -0.123844f, 0.227919f, 0.030463f, 0.093946f, 0.150267f, -0.133402f, 0.093263f, -0.107133f, 0.203442f, 0.104243f, 0.024184f, 0.106196f, 0.071438f, -0.081556f, 0.158798f, -0.019498f, 0.063548f, 0.224400f, 0.018061f, 0.049942f, -0.097827f, -0.126115f, -0.070918f, -0.095818f, 0.091876f, 0.114134f, -0.120435f, 0.295665f, -0.115788f, 0.172195f, 0.010528f, 0.298435f, -0.115006f, 0.124057f, 0.104182f, 0.161577f, 0.147516f, 0.151183f, 0.120180f, -0.088456f, -0.039831f, 0.040205f, -0.023917f, -0.069029f, -0.004189f, 0.090803f, 0.133525f, -0.346719f, -0.031416f, 0.061169f, -0.272174f, -0.119504f, 0.028674f, -0.124526f, 0.154386f, -0.065390f, -0.207188f, 0.065113f, -0.046610f, 0.091017f, 0.070293f, -0.146901f, -0.068546f, -0.045706f, 0.149998f, 0.088179f, 0.049325f, -0.077558f, -0.159347f, 0.036544f, -0.001010f, -0.170231f, 0.082899f, 0.100323f, -0.017365f, -0.154468f, -0.153059f, -0.119961f, -0.073478f, 0.206532f, -0.093676f, 0.153004f, -0.020995f, 0.058881f, -0.070641f, -0.171328f, -0.075087f, -0.177034f, 0.079017f, 0.099413f, 0.082359f, 0.065847f, -0.126473f, 0.164627f, -0.184647f, -0.198480f, -0.103225f, 0.104182f, 0.264800f, 0.034778f, -0.105822f, 0.184420f, -0.047549f, 0.124354f, 0.146217f, -0.001229f, 0.177710f, -0.046895f, 0.073286f, -0.186896f, 0.168021f, -0.090430f, 0.071265f, -0.141781f, -0.069870f, -0.097967f, -0.078199f, 0.077894f, 0.145604f, -0.128892f, 0.042683f, 0.108605f, -0.125180f, 0.056720f, -0.105129f, 0.005935f, 0.119879f, -0.145098f, -0.162473f, -0.057530f, 0.159249f, -0.102162f, 0.037099f, 0.107108f, 0.112309f, 0.162865f, 0.098076f, 0.076344f, -0.050795f, -0.156628f, -0.043348f, 0.160823f, 0.162940f, -0.128717f, 0.041509f, 0.156413f, 0.056073f, 0.069285f, -0.034362f, 0.003403f, 0.151955f, -0.104712f, 0.155301f, 0.029337f, 0.075862f, -0.043419f, 0.154720f, -0.040976f, -0.047879f, 0.119842f, 0.122494f, -0.088912f, 0.020678f, -0.146749f, 0.071590f, -0.002017f, 0.063262f, -0.079176f, -0.090836f, -0.174622f, -0.158886f, 0.087140f, 0.125642f, 0.101247f, 0.002466f, 0.047353f, 0.019438f, -0.012377f, 0.171931f, 0.155981f, 0.101183f, -0.047619f, -0.005747f, 0.068306f, -0.065756f, 0.072468f, 0.089446f, -0.089099f, -0.173214f, 0.099479f, 0.065668f, -0.107999f, 0.101090f, -0.046906f, 0.006213f, -0.012967f, 0.161203f, 0.055522f, -0.041925f, 0.114622f, 0.140101f, 0.149131f, -0.047929f, -0.120068f, 0.234513f, -0.185124f, -0.027920f, -0.158243f, -0.065204f, 0.175899f, 0.073305f, -0.069372f, 0.107377f, -0.038939f, -0.005401f, -0.152905f, 0.145433f, 0.135971f, 0.129601f, 0.158792f, -0.027994f, -0.103800f, 0.134879f, 0.004091f, -0.129621f, 0.121826f, -0.177884f, 0.065109f, -0.111326f, -0.080302f, -0.087024f, -0.060698f, 0.081296f, -0.167204f, -0.157757f, 0.082585f, 0.055875f, 0.029979f, -0.075702f, 0.099012f, -0.068878f, -0.050625f, -0.012869f, 0.083870f, 0.147540f, 0.101515f, -0.052980f, -0.075418f, -0.040706f, -0.187429f, 0.019531f, 0.037461f, -0.130887f, 0.028464f, 0.153008f, -0.122376f, -0.018732f, -0.065469f, 0.002886f, -0.099225f, -0.134235f, 0.124679f, -0.153685f, -0.050391f, -0.144800f, -0.142570f, -0.067664f, 0.049390f, -0.103950f, 0.109432f, -0.174579f, -0.090327f, -0.047002f, 0.037865f, 0.076485f, -0.095655f, -0.153926f, -0.151514f, 0.096326f, 0.072798f, -0.134218f, -0.153545f, -0.018711f, -0.227071f, 0.165843f, -0.144952f, 0.150977f, -0.163982f, 0.052969f, -0.057934f, -0.119283f, 0.105870f, 0.091140f, 0.075391f, -0.139964f, -0.036305f, -0.071914f, -0.044406f, 0.139183f, -0.136625f, 0.213682f, 0.019147f, 0.163934f, -0.074372f, -0.126813f, 0.003546f, -0.059628f, 0.060769f, -0.074457f, -0.081986f, -0.086214f, 0.146000f, -0.100646f, 0.042162f, -0.174910f, -0.130666f, -0.044476f, 0.099714f, -0.073941f, -0.084126f, 0.055096f, -0.256503f, 0.081046f, -0.014652f, -0.114082f, 0.137783f, 0.029826f, 0.092208f, 0.102421f, 0.147827f, 0.096225f, 0.043430f, -0.273208f, -0.078375f, 0.034601f, -0.096971f, 0.258310f, 0.015190f, 0.027800f, -0.081953f, 0.021926f, -0.178239f, 0.139774f, -0.104132f, 0.117730f, -0.062642f, 0.082978f, -0.047228f, 0.020982f, 0.017168f, -0.090993f, -0.048463f, -0.152531f, -0.198729f, -0.190429f, -0.026339f, 0.108820f, 0.109201f, -0.079783f, -0.142774f, -0.037698f, 0.178577f, -0.279854f, 0.132106f, 0.026027f, -0.289160f, -0.098989f, -0.086011f, -0.020750f, 0.062349f, 0.137079f, -0.118138f, 0.084248f, -0.024664f, 0.153019f, 0.087891f, -0.092196f, 0.044067f, 0.011720f, 0.116968f, 0.112881f, -0.014544f, -0.004554f, -0.157874f, -0.188010f, -0.034283f, 0.168990f, -0.009743f, 0.153238f, 0.022336f, -0.183002f, -0.085108f, 0.101546f, -0.128890f, -0.089738f, -0.071175f, 0.198314f, -0.035051f, 0.300961f, -0.116427f, -0.022283f, 0.196963f, 0.135397f, 0.064648f, 0.098796f, 0.034060f, 0.070295f, 0.079135f, -0.085546f, -0.128751f, 0.152395f, 0.090208f, 0.167257f, 0.016393f, -0.016811f, 0.171094f, 0.059611f, 0.124159f, -0.043441f, 0.012719f, 0.099766f, 0.144931f, -0.072980f, 0.179512f, -0.013605f, 0.050780f, -0.031710f, 0.079172f, 0.001595f, 0.065941f, -0.104739f, -0.311723f, -0.015940f, 0.123582f, -0.086753f, -0.179582f, -0.043272f, -0.201670f, 0.246534f, 0.147231f, -0.376587f, -0.006829f, -0.251857f, -0.056695f, -0.040301f, 0.075153f, -0.111825f, 0.092983f, 0.117992f, -0.129038f, 0.168716f, -0.016146f, 0.062395f, -0.040048f, 0.050277f, 0.160818f, 0.074587f, -0.164080f, 0.149611f, -0.037687f, -0.246198f, 0.073205f, 0.119241f, -0.131946f, -0.024420f, 0.239515f, 0.172073f, -0.022988f, -0.133293f, 0.051406f, 0.103534f, 0.111429f, 0.155829f, -0.087343f, 0.105702f, -0.043448f, -0.187826f, -0.034039f, 0.102901f, -0.251782f, -0.199696f, -0.167852f, 0.081974f, 0.013512f, -0.029419f, 0.027870f, 0.055321f, -0.219960f, 0.034904f, -0.124964f, -0.103753f, -0.034432f, -0.046237f, 0.016883f, -0.111615f, -0.053961f, 0.159762f, -0.168253f, -0.175018f, 0.100617f, -0.055403f, -0.082949f, 0.064210f, -0.104948f, -0.129904f, 0.184604f, -0.053603f, 0.097522f, 0.127212f, -0.090354f, 0.089219f, -0.013269f, 0.042066f, 0.012511f, -0.012292f, 0.131277f, -0.046458f, -0.006958f, -0.054075f, 0.127173f, -0.138662f, 0.051407f, 0.069684f, 0.025964f, -0.145195f, 0.075638f, 0.122805f, 0.092023f, -0.144039f, -0.005280f, 0.066855f, -0.091608f, 0.025609f, 0.140158f, 0.147325f, 0.042887f, -0.115564f, -0.007806f, 0.168660f, 0.061592f, 0.013772f, -0.034346f, -0.122415f, -0.057859f, 0.018948f, -0.177823f, -0.034105f, 0.092743f, 0.009312f, -0.005294f, -0.110279f, 0.049221f, 0.113078f, 0.101366f, -0.005741f, 0.105661f, -0.100727f, -0.080017f, 0.180486f, 0.047389f, -0.135050f, -0.042025f, 0.233796f, -0.114987f, -0.081276f, -0.006767f, -0.076882f, 0.046997f, 0.010777f, 0.155080f, 0.072713f, -0.119378f, -0.167331f, -0.013085f, -0.116518f, -0.149547f, -0.099205f, -0.023346f, 0.091495f, 0.021140f, -0.021846f, -0.186471f, 0.012789f, -0.063117f, -0.227320f, 0.025019f, 0.013931f, -0.090291f, 0.286576f, -0.018837f, 0.020765f, 0.104786f, 0.050916f, 0.163801f, -0.072773f, 0.048889f, -0.149972f, 0.107479f, 0.038370f, -0.048605f, -0.037164f, 0.127379f, -0.067557f, -0.099777f, -0.076975f, 0.041979f, -0.155959f, 0.189107f, -0.206225f, -0.161339f, -0.097344f, 0.111812f, 0.115135f, -0.130504f, 0.002155f, 0.056740f, -0.068144f, -0.148283f, 0.037476f, -0.086991f, 0.030059f, 0.043611f, -0.146318f, 0.045359f, -0.175401f, 0.117154f, -0.138229f, 0.091732f, 0.037588f, -0.105819f, 0.104103f, -0.089007f, -0.090684f, -0.073788f, -0.182477f, 0.084237f, 0.139766f, 0.142152f, 0.108867f, -0.267908f, 0.170680f, 0.138099f, -0.042840f, 0.123062f, 0.170580f, 0.128004f, 0.160704f, -0.100175f, 0.136131f, -0.128701f, 0.048909f, -0.145286f, -0.056792f, 0.170773f, 0.142468f, 0.180715f, -0.022957f, -0.068523f, 0.018519f, -0.119611f, 0.161720f, 0.018136f, -0.005844f, 0.039793f, 0.035220f, 0.050107f, -0.142290f, -0.224625f, -0.097325f, -0.187073f, -0.178514f, -0.114031f, 0.140022f, -0.075695f, 0.003541f, -0.032771f, -0.180859f, 0.016524f, -0.121467f, 0.163413f, -0.060874f, -0.147744f, 0.037043f, -0.179526f, -0.039380f, 0.017379f, -0.102393f, -0.085266f, 0.221693f, 0.017823f, 0.014314f, 0.063331f, -0.167762f, -0.011351f, -0.171142f, 0.147806f, -0.072797f, 0.143379f, -0.081967f, 0.005679f, -0.078807f, 0.131692f, 0.118121f, -0.175286f, -0.127861f, -0.047761f, -0.159081f, -0.051337f, -0.051823f, -0.012048f, -0.021160f, -0.110132f, -0.088011f, 0.101837f, -0.000176f, 0.052200f, -0.054778f, 0.158073f, 0.201365f, -0.077655f, -0.084793f, 0.045688f, -0.182444f, -0.081206f, -0.097977f, 0.080566f, -0.152978f, -0.094833f, -0.173810f, -0.010983f, -0.058832f, -0.090262f, -0.056888f, 0.074769f, -0.023092f, -0.211001f, -0.103031f, -0.129129f, 0.042499f, 0.175310f, -0.056949f, -0.136868f, 0.120750f, 0.038315f, 0.035117f, 0.015568f, -0.051350f, -0.132401f, -0.002093f, 0.021463f, -0.079085f, 0.010592f, 0.093827f, -0.037597f, -0.131522f, -0.013041f, -0.102302f, -0.246424f, 0.151118f, 0.189822f, -0.355537f, 0.061037f, 0.065321f, 0.139941f, 0.055488f, -0.013427f, 0.049752f, 0.010592f, -0.108335f, -0.078443f, 0.045989f, -0.006850f, 0.240825f, -0.163081f, -0.063759f, 0.111452f, 0.065778f, -0.009462f, -0.023443f, -0.032825f, 0.062685f, -0.091349f, 0.136371f, -0.114093f, -0.187740f, -0.033986f, 0.107926f, -0.056865f, -0.002302f, 0.084244f, 0.142165f, 0.008118f, 0.201341f, 0.185683f, -0.043422f, 0.117780f, -0.065952f, 0.096120f, -0.169757f, -0.020535f, -0.004666f, 0.147971f, -0.050271f, 0.270945f, 0.171246f, -0.034271f, -0.068425f, 0.052243f, -0.114422f, -0.059352f, -0.055082f, 0.158119f, -0.125883f, -0.119846f, 0.054105f, -0.418737f, -0.109182f, 0.038791f, -0.126893f, -0.005666f, 0.008274f, -0.383548f, 0.325802f, -0.099986f, -0.628299f, -0.257204f, -0.083882f, -0.031729f, -0.004742f, 0.121076f, 0.154482f, -0.215311f, 0.135215f, -0.167092f, 0.166844f, -0.124298f, 0.081300f, -0.083905f, 0.063086f, -0.101479f, -0.037112f, -0.053666f, 0.110882f, -0.113035f, -0.138998f, -0.021075f, 0.116587f, -0.022127f, -0.150133f, -0.100518f, -0.089789f, -0.003512f, -0.132008f, -0.116057f, 0.010271f, -0.097333f, 0.014896f, 0.050011f, -0.032141f, -0.039310f, 0.009184f, 0.213333f, 0.082774f, -0.168333f, -0.344443f, -0.102825f, 0.156143f, 0.025744f, 0.104739f, 0.056595f, -0.030078f, 0.071791f, 0.130960f, -0.015712f, -0.178088f, 0.009686f, -0.089099f, -0.045806f, 0.046245f, -0.025489f, -0.030442f, -0.098999f, -0.070082f, 0.059678f, -0.006327f, -0.207113f, 0.111537f, -0.133640f, -0.051207f, 0.098981f, 0.059397f, -0.003919f, -0.136657f, -0.022636f, -0.184176f, 0.071238f, -0.134776f, -0.024123f, 0.195305f, -0.114281f, 0.017309f, -0.093972f, 0.053825f, -0.009726f, -0.065790f, -0.028082f, -0.087093f, 0.040344f, 0.027893f, -0.027293f, -0.050789f, -0.051685f, -0.056042f, 0.125962f, -0.062333f, 0.126697f, 0.064677f, -0.133447f, -0.041741f, -0.033787f, 0.129804f, 0.108833f, -0.064069f, 0.132249f, 0.122768f, 0.167970f, 0.090879f, 0.012575f, 0.072860f, -0.131871f, 0.143981f, 0.175851f, 0.134966f, -0.003957f, -0.066922f, -0.025137f, 0.053434f, -0.073135f, -0.153577f, -0.135891f, -0.044386f, 0.098351f, 0.048269f, -0.030141f, -0.141794f, 0.129128f, 0.115053f, 0.002575f, -0.073206f, -0.139603f, 0.098320f, 0.175328f, 0.116288f, -0.099143f, -0.157934f, -0.030075f, -0.179153f, 0.043332f, -0.118998f, 0.017635f, -0.116984f, 0.007172f, -0.171122f, -0.097317f, -0.140685f, 0.017566f, -0.183537f, 0.168667f, -0.237113f, -0.120179f, -0.126675f, 0.174523f, 0.186652f, 0.017462f, 0.055831f, -0.057526f, -0.198149f, -0.152608f, 0.165470f, 0.136970f, 0.153697f, 0.040859f, 0.038668f, 0.144073f, 0.119157f, 0.018057f, -0.105291f, -0.003995f, -0.038025f, -0.169432f, -0.026497f, -0.001509f, -0.105865f, -0.151827f, -0.000031f, 0.090359f, 0.024364f, 0.010869f, 0.003656f, -0.033655f, 0.101671f, 0.109162f, -0.010294f, -0.134517f, 0.121950f, 0.121715f, -0.117142f, 0.157078f, -0.132505f, 0.132651f, -0.124324f, 0.008996f, -0.173362f, 0.126239f, -0.141394f, 0.054646f, 0.060867f, -0.009074f, 0.001841f, 0.000985f, -0.019712f, -0.025734f, 0.093545f, -0.199322f, -0.098317f, -0.182554f, 0.024093f, -0.098559f, 0.042966f, -0.032737f, 0.071592f, -0.116707f, -0.118313f, 0.180517f, 0.150528f, -0.011152f, -0.062999f, 0.116397f, -0.032227f, 0.104091f, -0.064772f, 0.051957f, -0.102938f, 0.152438f, -0.009886f, 0.091443f, -0.147401f, -0.112795f, 0.052372f, -0.056127f, -0.145633f, -0.257582f, -0.155523f, 0.128667f, -0.186347f, -0.015966f, -0.030038f, 0.013512f, -0.067678f, -0.056681f, -0.017666f, 0.007840f, -0.148380f, -0.140569f, -0.012023f, -0.173052f, 0.045046f, 0.110062f, -0.001529f, 0.098616f, -0.017745f, 0.015869f, 0.106402f, -0.120725f, 0.085134f, 0.105223f, 0.067176f, -0.140590f, 0.078667f, 0.185654f, 0.015866f, 0.000858f, -0.046323f, 0.043644f, 0.082276f, 0.183875f, -0.001793f, 0.126168f, 0.003506f, 0.043364f, 0.017907f, 0.077000f, -0.017825f, 0.006358f, 0.052536f, 0.095082f, -0.054070f, -0.171556f, -0.059222f, -0.038721f, -0.039262f, -0.075324f, 0.112447f, 0.021950f, 0.040778f, -0.035157f, 0.009663f, -0.053912f, -0.114901f, -0.028702f, 0.037622f, 0.129431f, 0.178831f, 0.088402f, 0.040055f, 0.115615f, -0.113281f, 0.101517f, -0.160622f, -0.194075f, -0.035190f, -0.141439f, 0.046931f, 0.185288f, -0.176878f, 0.094716f, -0.072127f, -0.193615f, 0.083930f, -0.049878f, -0.017237f, 0.113143f, 0.053788f, -0.127629f, -0.102210f, 0.106102f, -0.037793f, -0.118516f, 0.207727f, 0.022630f, 0.082778f, -0.044006f, -0.113573f, 0.015681f, 0.107721f, 0.236221f, 0.015874f, -0.127879f, -0.015662f, -0.023582f, -0.132021f, 0.013110f, -0.045778f, 0.142773f, 0.184030f, -0.066778f, 0.167633f, -0.073947f, 0.161134f, -0.087613f, -0.290716f, -0.224294f, -0.022729f, -0.139324f, 0.086299f, 0.146261f, 0.072490f, -0.081284f, -0.035003f, 0.010877f, -0.107037f, 0.173547f, 0.093975f, -0.079824f, 0.001362f, 0.069491f, -0.111647f, 0.151259f, -0.041659f, 0.129343f, -0.105823f, -0.202947f, -0.139061f, 0.104609f, -0.057581f, -0.149812f, 0.141667f, 0.037368f, 0.079058f, -0.017822f, -0.134532f, -0.098964f, 0.109401f, -0.124546f, 0.180446f, 0.143090f, 0.117034f, 0.026931f, 0.077399f, -0.280033f, 0.100543f, 0.177340f, -0.212966f, 0.038489f, 0.003235f, -0.566361f, 0.036211f, -0.032329f, -0.795000f, 0.033696f, -0.012838f, -0.125097f, -0.121230f, -0.091284f, -0.006669f, -0.157723f, -0.143858f, -0.008146f, 0.059297f, -0.108642f, 0.017974f, -0.159551f, 0.060980f, 0.008788f, -0.105272f, -0.079849f, -0.017813f, 0.144751f, 0.019441f, 0.085078f, -0.147816f, -0.087460f, 0.099381f, -0.152525f, -0.082747f, 0.069507f, 0.000672f, -0.141873f, -0.090650f, -0.047304f, 0.066371f, 0.071894f, -0.136071f, 0.214361f, 0.066642f, 0.071859f, 0.074008f, -0.179296f, -0.360821f, -0.098402f, 0.162746f, 0.060996f, 0.140856f, 0.122277f, 0.057859f, 0.108317f, -0.016126f, -0.001284f, -0.043532f, 0.116896f, -0.021657f, 0.097636f, -0.117632f, 0.044649f, 0.160642f, -0.179763f, -0.115819f, 0.185849f, 0.053642f, -0.056188f, -0.071003f, 0.062225f, -0.056981f, 0.020982f, -0.034060f, -0.043292f, -0.074653f, 0.050029f, 0.043282f, -0.104051f, 0.122124f, 0.090907f, -0.074962f, 0.095915f, 0.100310f, 0.052735f, -0.033317f, 0.133271f, -0.180072f, 0.087747f, -0.060074f, -0.014228f, -0.157577f, -0.088366f, 0.110941f, -0.177027f, 0.124872f, 0.158439f, 0.146261f, -0.092232f, 0.051887f, -0.146967f, -0.022990f, -0.103407f, 0.085794f, 0.134886f, -0.039679f, 0.114864f, 0.017181f, 0.021647f, -0.181524f, -0.188824f, -0.105406f, -0.029594f, 0.103071f, 0.051152f, 0.032528f, 0.092786f, 0.114820f, 0.107521f, 0.027214f, -0.091400f, -0.055029f, -0.070769f, -0.074461f, -0.064500f, 0.190059f, -0.087279f, 0.010068f, 0.125095f, 0.012212f, -0.108355f, 0.084446f, -0.041451f, 0.131237f, 0.064164f, -0.156661f, -0.125169f, -0.072568f, 0.115975f, 0.121858f, 0.163185f, 0.102377f, 0.032158f, 0.027160f, 0.176047f, -0.096425f, -0.083353f, 0.097616f, -0.132939f, 0.120264f, -0.123186f, -0.162890f, -0.072734f, -0.153962f, -0.134303f, 0.164378f, -0.009121f, -0.110497f, -0.053206f, -0.035096f, 0.155098f, -0.094738f, 0.040610f, -0.002231f, 0.137585f, -0.091109f, 0.154710f, 0.092720f, -0.053898f, 0.053350f, -0.077568f, -0.154410f, -0.031869f, -0.014801f, 0.053218f, -0.161474f, -0.140072f, 0.072750f, 0.188630f, 0.059030f, -0.107982f, -0.157966f, -0.058469f, -0.083529f, 0.114770f, -0.010838f, -0.181413f, -0.110266f, 0.168864f, 0.032702f, -0.050957f, -0.005299f, -0.071497f, -0.012041f, -0.067699f, -0.117410f, -0.116589f, -0.156875f, 0.157715f, 0.038269f, -0.115577f, -0.037311f, 0.089128f, 0.208046f, -0.053236f, -0.102676f, -0.092475f, -0.025243f, 0.067937f, -0.088876f, -0.168043f, -0.092027f, 0.076074f, 0.047740f, -0.033707f, 0.144165f, -0.023470f, 0.103261f, -0.033403f, -0.040629f, 0.002547f, -0.018722f, 0.189633f, 0.058648f, -0.078752f, 0.052969f, -0.024767f, 0.011168f, 0.136539f, 0.086079f, -0.109140f, 0.200798f, 0.154895f, -0.166738f, -0.246886f, 0.012466f, -0.174719f, 0.107811f, -0.087356f, -0.079463f, 0.084487f, -0.016571f, -0.186733f, -0.137597f, 0.215588f, -0.016934f, -0.083116f, 0.099867f, 0.106836f, -0.074680f, 0.117041f, 0.027141f, -0.081793f, 0.120173f, 0.200947f, 0.152171f, -0.093981f, -0.064221f, 0.064984f, 0.098639f, 0.023130f, -0.259621f, -0.148264f, -0.232835f, 0.101669f, 0.104703f, 0.062068f, 0.007968f, -0.186711f, -0.186718f, 0.070988f, -0.215253f, 0.089330f, 0.182770f, -0.089827f, 0.071115f, -0.077947f, -0.044913f, -0.068860f, -0.248184f, 0.006724f, -0.010343f, -0.179718f, -0.148955f, -0.030565f, -0.068787f, -0.264326f, -0.081723f, -0.071998f, 0.033974f, -0.236398f, -0.233701f, -0.071912f, 0.133746f, -0.123375f, 0.033774f, 0.089188f, -0.075735f, -0.102010f, -0.075042f, -0.049692f, -0.208607f, 0.045559f, -0.060486f, -0.112588f, -0.197469f, 0.073694f, 0.000152f, -0.153751f, -0.024135f, -0.111748f, -0.040199f, 0.141965f, -0.035922f, -0.096776f, 0.089025f, -0.066333f, -0.146566f, 0.077667f, -0.170234f, -0.013707f, 0.077859f, -0.093168f, -0.105003f, 0.216788f, 0.144987f, 0.120851f, 0.110456f, 0.173224f, 0.182149f, 0.012428f, 0.226566f, -0.179709f, -0.054172f, -0.000195f, 0.236896f, 0.017589f, -0.040156f, 0.153172f, 0.017941f, -0.063011f, -0.002461f, -0.186610f, -0.003983f, -0.048060f, -0.063332f, 0.081170f, -0.005470f, -0.007123f, 0.034893f, 0.243572f, -0.017055f, -0.037847f, -0.025558f, 0.173454f, -0.127761f, -0.007734f, -0.027660f, -0.139209f, -0.040463f, -0.085007f, 0.150466f, -0.009465f, 0.030614f, 0.022962f, 0.171049f, -0.096455f, 0.243951f, -0.105251f, 0.132307f, -0.015178f, 0.093624f, -0.011275f, 0.096680f, -0.095377f, 0.153735f, -0.112188f, 0.052980f, -0.015208f, -0.048115f, -0.119120f, -0.006071f, 0.029240f, -0.060803f, 0.089350f, 0.112790f, 0.003788f, -0.032284f, -0.345530f, -0.164213f, -0.126274f, -0.331160f, -0.143536f, -0.032603f, -0.030000f, -0.107114f, -0.130053f, -0.005249f, -0.075724f, -0.165189f, -0.189826f, -0.003054f, -0.165779f, 0.050469f, -0.046512f, -0.135158f, 0.133006f, -0.299672f, -0.035361f, 0.037930f, 0.055335f, 0.025290f, 0.154303f, 0.076247f, -0.158236f, 0.134962f, -0.235425f, -0.103905f, -0.012773f, -0.165205f, 0.061629f, 0.089083f, 0.097145f, -0.023583f, -0.131230f, 0.100254f, -0.068419f, -0.073160f, -0.066734f, 0.023398f, 0.149744f, -0.309202f, -0.114000f, -0.098132f, 0.185288f, -0.010159f, -0.111354f, 0.071853f, 0.005312f, -0.023594f, 0.088276f, 0.142937f, -0.183969f, -0.065435f, -0.165310f, -0.048811f, 0.041837f, 0.104293f, 0.026957f, 0.065969f, 0.072822f, -0.071646f, -0.155296f, 0.185101f, -0.118469f, -0.193525f, -0.024630f, -0.048330f, -0.052458f, 0.025249f, -0.156432f, -0.012554f, 0.047725f, -0.165566f, 0.161763f, 0.087052f, 0.150044f, -0.095323f, 0.059682f, 0.165277f, 0.096172f, 0.132143f, -0.082966f, 0.120147f, 0.072319f, 0.136256f, -0.083926f, -0.044550f, 0.056545f, 0.142551f, -0.089095f, -0.122358f, -0.114322f, -0.148119f, 0.044487f, -0.072705f, 0.137735f, 0.080142f, 0.132209f, 0.057977f, 0.142981f, -0.103515f, 0.110241f, -0.124377f, 0.110869f, -0.184008f, -0.071236f, 0.119058f, 0.047221f, -0.008513f, 0.064719f, -0.120472f, -0.014457f, -0.112860f, -0.001028f, 0.073416f, -0.108829f, 0.039216f, -0.124699f, 0.024874f, 0.116606f, 0.036372f, 0.101542f, 0.008190f, -0.037267f, -0.128940f, 0.048074f, -0.078167f, 0.113374f, 0.053804f, 0.116292f, 0.187781f, 0.142673f, -0.059391f, -0.108404f, 0.091513f, -0.190700f, -0.090443f, 0.009612f, 0.020973f, -0.141578f, -0.071011f, -0.003337f, -0.018585f, 0.069285f, -0.067126f, -0.057145f, -0.132763f, 0.054864f, 0.150415f, 0.136596f, -0.105943f, -0.218896f, 0.021990f, 0.065570f, 0.076087f, 0.135352f, -0.117649f, -0.134208f, 0.103954f, -0.118562f, 0.060125f, 0.203165f, 0.110004f, 0.133133f, 0.034552f, 0.105219f, 0.141684f, -0.033315f, -0.130131f, 0.126898f, 0.021814f, 0.169255f, 0.041249f, -0.170526f, -0.023952f, 0.042977f, -0.088229f, 0.116694f, -0.080099f, -0.016915f, 0.027027f, -0.047187f, -0.033341f, -0.107887f, 0.034083f, -0.138720f, -0.046453f, 0.043349f, -0.113147f, 0.080064f, 0.058553f, 0.150569f, 0.117879f, -0.040188f, 0.107145f, -0.030791f, 0.105386f, 0.079342f, 0.184666f, -0.276195f, -0.060864f, 0.024539f, -0.128002f, -0.173360f, -0.070435f, 0.023634f, -0.118519f, -0.127050f, 0.183373f, 0.089725f, 0.168010f, 0.026834f, -0.217387f, 0.179249f, -0.168892f, 0.016841f, 0.149958f, -0.136502f, -0.070833f, -0.036502f, 0.149679f, -0.100934f, -0.113904f, 0.114165f, 0.097799f, -0.033295f, 0.083332f, 0.017883f, -0.173755f, -0.037211f, -0.031919f, 0.000946f, -0.096346f, 0.115202f, 0.153533f, 0.076410f, 0.170789f, -0.056992f, -0.096132f, 0.025882f, -0.143513f, -0.045604f, 0.057682f, -0.179116f, 0.162310f, -0.017119f, 0.041871f, -0.097421f, 0.087878f, -0.048978f, -0.080747f, -0.169861f, -0.045135f, -0.211853f, -0.086415f, -0.109007f, -0.183739f, -0.037825f, -0.037339f, 0.039754f, 0.085195f, 0.003182f, -0.128728f, 0.163076f, 0.034669f, 0.082482f, -0.129096f, -0.080696f, -0.090763f, -0.085846f, 0.071757f, 0.032018f, 0.066770f, 0.091586f, 0.141612f, -0.121582f, 0.062781f, 0.004810f, -0.086033f, 0.011626f, 0.163898f, -0.343220f, -0.048816f, 0.128017f, -0.070090f, -0.132540f, -0.124465f, 0.027623f, 0.035466f, -0.132968f, -0.072903f, -0.003031f, 0.128638f, 0.103016f, -0.135712f, -0.156641f, -0.369488f, 0.007625f, -0.083821f, -0.088134f, -0.136949f, 0.041943f, 0.096188f, -0.194574f, 0.112561f, -0.056144f, -0.144241f, 0.049213f, -0.038340f, -0.035281f, -0.100154f, 0.012563f, 0.164030f, 0.114823f, -0.083575f, -0.052234f, 0.094421f, 0.036016f, 0.215349f, -0.032433f, 0.004192f, 0.114002f, -0.054382f, 0.074391f, -0.010316f, -0.077246f, 0.196293f, 0.010801f, 0.170277f, 0.034986f, 0.225351f, 0.235440f, 0.203424f, -0.031693f, -0.049826f, -0.046491f, -0.062241f, 0.093660f, 0.104251f, 0.103251f, -0.246966f, -0.036841f, -0.007877f, 0.214311f, 0.160680f, -0.200222f, -0.094665f, 0.113623f, 0.165923f, -0.002066f, 0.182801f, -0.036959f, -0.002905f, 0.316784f, 0.072618f, 0.209434f, 0.225601f, -0.178451f, 0.131457f, 0.162087f, -0.014394f, 0.049009f, 0.026057f, 0.025055f, -0.151622f, 0.007314f, 0.069284f, -0.032753f, -0.222258f, 0.188264f, -0.021672f, 0.072340f, -0.027181f, 0.044032f, -0.087082f, 0.066785f, -0.147935f, -0.175699f, -0.135048f, -0.041854f, -0.107836f, -0.354299f, -0.256169f, -0.084626f, 0.044569f, -0.131064f, 0.090622f, -0.013003f, 0.109005f, 0.092783f, 0.130890f, 0.075800f, 0.074595f, -0.001937f, 0.111551f, 0.180847f, -0.085840f, -0.078730f, 0.112047f, -0.126520f, -0.206634f, 0.073123f, -0.161253f, 0.082439f, -0.106087f, -0.031355f, 0.062871f, 0.007671f, -0.165393f, -0.144961f, 0.041520f, 0.193501f, -0.031235f, -0.123541f, -0.090552f, -0.039958f, 0.063759f, -0.050074f, 0.056385f, 0.144709f, 0.108800f, 0.035925f, 0.075312f, -0.032595f, 0.051110f, 0.096041f, 0.051364f, -0.022336f, 0.150432f, 0.055872f, -0.004969f, -0.096302f, 0.109674f, -0.023343f, -0.051837f, 0.131457f, -0.012102f, 0.121372f, 0.154626f, 0.095180f, -0.070801f, 0.081549f, -0.172408f, 0.160706f, -0.179644f, 0.069920f, 0.099101f, -0.011396f, -0.189192f, -0.026500f, -0.171316f, 0.089815f, 0.031978f, -0.150865f, -0.014464f, -0.133535f, 0.038762f, -0.003128f, 0.104806f, 0.036173f, -0.160178f, -0.057487f, -0.178189f, 0.044621f, -0.053154f, -0.148100f, 0.004719f, -0.022359f, -0.008782f, 0.126608f, 0.220382f, -0.098266f, -0.012211f, 0.128343f, 0.080576f, 0.004484f, 0.117117f, 0.143156f, -0.069000f, 0.026019f, 0.046027f, -0.095768f, -0.102355f, -0.018234f, 0.012083f, 0.149470f, 0.141482f, 0.068397f, 0.127233f, -0.005446f, -0.023981f, -0.020296f, 0.023230f, 0.062861f, 0.023663f, -0.043425f, -0.077376f, -0.150279f, -0.099711f, -0.116842f, -0.028348f, 0.082713f, -0.061947f, 0.043960f, -0.142604f, -0.023453f, -0.029135f, 0.104089f, -0.115862f, -0.079058f, -0.017727f, -0.240653f, 0.215206f, 0.143490f, 0.147628f, -0.076223f, -0.030171f, -0.049936f, -0.128216f, -0.182665f, 0.072919f, 0.162328f, -0.048615f, 0.115095f, 0.163729f, 0.076607f, -0.117709f, -0.079313f, 0.005905f, -0.093426f, 0.085048f, -0.013843f, 0.109907f, -0.102850f, 0.163482f, 0.052138f, 0.074795f, 0.012661f, 0.053028f, 0.047264f, -0.184265f, 0.128061f, 0.134265f, -0.089211f, 0.085122f, 0.082909f, -0.147307f, 0.188740f, 0.136375f, -0.041336f, -0.032484f, 0.074432f, 0.100542f, 0.070177f, -0.111965f, 0.090418f, -0.095742f, -0.160196f, 0.171453f, 0.081250f, -0.036119f, 0.069742f, 0.074227f, 0.031203f, -0.162854f, 0.124641f, 0.218108f, 0.179204f, 0.084046f, -0.064657f, 0.113923f, 0.214513f, 0.106993f, -0.029530f, 0.113150f, -0.005383f, -0.010206f, 0.114681f, -0.134098f, 0.146688f, 0.092778f, 0.022981f, -0.057084f, -0.134878f, -0.023790f, -0.164263f, 0.106023f, -0.078232f, 0.215087f, -0.056940f, -0.047661f, 0.088858f, -0.037182f, 0.158096f, 0.149443f, 0.072701f, -0.095075f, -0.116999f, -0.070295f, -0.061442f, -0.024260f, -0.073166f, 0.007407f, -0.015335f, -0.054168f, 0.029060f, 0.027608f, 0.136546f, 0.042673f, -0.004229f, -0.143654f, -0.158114f, -0.180923f, -0.121419f, 0.024681f, -0.018429f, 0.092768f, -0.176222f, 0.010104f, -0.112335f, 0.088884f, -0.085434f, 0.173834f, 0.024995f, -0.008171f, -0.193587f, 0.049318f, -0.059543f, -0.112381f, -0.127631f, -0.152166f, 0.267695f, -0.017552f, 0.050341f, -0.059132f, 0.008707f, 0.045569f, -0.271178f, -0.243812f, -0.185947f, -0.233002f, 0.065741f, -0.162091f, -0.015364f, 0.126170f, -0.053463f, 0.087731f, 0.027341f, -0.087557f, -0.086114f, -0.102142f, 0.008433f, 0.159253f, -0.122327f, 0.046165f, -0.157646f, -0.002667f, -0.022887f, -0.057734f, 0.068748f, -0.083401f, -0.049955f, -0.086611f, -0.149043f, -0.035341f, -0.090995f, -0.108402f, -0.191942f, -0.019889f, -0.007396f, -0.008252f, 0.013760f, 0.025280f, 0.116392f, 0.101964f, -0.004856f, -0.047646f, 0.201503f, -0.151003f, -0.075761f, -0.058983f, 0.045938f, -0.073624f, 0.057050f, 0.007634f, 0.081195f, -0.191429f, -0.073594f, -0.203898f, 0.014227f, 0.002797f, 0.060104f, -0.127251f, -0.114283f, 0.155814f, -0.028758f, -0.140416f, -0.162115f, -0.239031f, 0.108237f, -0.084117f, 0.001767f, 0.034312f, 0.224446f, -0.047532f, 0.089974f, -0.140786f, -0.211800f, 0.031153f, 0.097731f, -0.215641f, -0.141333f, -0.083206f, -0.175081f, 0.212192f, -0.072446f, 0.134044f, -0.166009f, -0.221659f, -0.002636f, -0.074916f, -0.019911f, -0.027532f, 0.092576f, 0.124951f, 0.133831f, 0.261463f, 0.218100f, -0.101064f, -0.090298f, -0.003257f, 0.037800f, 0.175462f, 0.083216f, -0.054334f, 0.126307f, -0.114800f, 0.241726f, -0.179881f, 0.021307f, 0.201782f, -0.124576f, -0.029961f, 0.005948f, -0.202803f, 0.070232f, -0.055930f, 0.245944f, -0.033482f, 0.209129f, -0.056866f, -0.038369f, 0.019164f, 0.134037f, -0.131238f, 0.158488f, -0.002395f, -0.020405f, -0.158642f, -0.083768f, 0.017581f, -0.010181f, -0.099103f, -0.043808f, 0.106961f, -0.222057f, -0.054266f, 0.141700f, -0.327625f, -0.086347f, 0.084963f, 0.086412f, 0.094944f, -0.072792f, -0.044758f, 0.113523f, -0.014093f, -0.034850f, -0.102096f, 0.077516f, -0.085648f, 0.059784f, 0.026647f, -0.004033f, -0.204606f, 0.077266f, -0.029892f, 0.032343f, -0.120097f, 0.137460f, 0.068532f, -0.087909f, -0.002389f, -0.074710f, -0.067594f, -0.009637f, 0.053473f, 0.048813f, 0.073013f, -0.135049f, -0.052120f, -0.100832f, 0.013285f, 0.183536f, -0.104351f, -0.136474f, -0.056987f, 0.111968f, -0.250497f, -0.054502f, -0.172137f, 0.022324f, 0.071332f, 0.049553f, 0.073317f, 0.120079f, -0.175031f, -0.119133f, -0.108591f, 0.060177f, 0.133512f, -0.180870f, 0.121954f, 0.183504f, 0.013030f, -0.145884f, 0.044163f, -0.066760f, -0.024983f, 0.021741f, -0.072003f, 0.110450f, -0.187314f, -0.056362f, 0.043333f, 0.000378f, -0.025465f, -0.053453f, 0.133545f, 0.088965f, 0.057322f, 0.144742f, 0.073891f, 0.068662f, -0.128220f, 0.076981f, 0.158942f, -0.006493f, 0.032102f, 0.157195f, -0.013233f, -0.010152f, 0.142884f, 0.090600f, 0.008757f, -0.179316f, 0.121029f, -0.107020f, 0.001093f, -0.067574f, 0.023126f, 0.111371f, -0.180056f, 0.155309f, -0.034212f, 0.039480f, -0.168437f, -0.110797f, -0.140991f, 0.028360f, 0.091076f, -0.190480f, -0.148183f, 0.079412f, 0.151713f, -0.125390f, -0.087733f, -0.071948f, -0.019716f, 0.016614f, -0.031117f, 0.144946f, 0.083972f, -0.169547f, -0.015291f, -0.060207f, 0.072727f, -0.000864f, 0.004535f, -0.115668f, 0.092220f, -0.057972f, 0.126000f, 0.104788f, 0.142677f, -0.028712f, 0.142417f, 0.197419f, -0.069801f, -0.014506f, 0.140467f, 0.046379f, 0.216757f, -0.049584f, -0.081406f, -0.000722f, -0.003888f, 0.113056f, 0.006989f, -0.104785f, 0.136025f, 0.089479f, -0.180054f, 0.020730f, 0.043363f, 0.000826f, -0.158483f, -0.136325f, 0.257252f, 0.014815f, -0.050407f, 0.154495f, -0.105936f, 0.039765f, 0.124056f, -0.163169f, 0.062119f, 0.029687f, -0.123032f, -0.046993f, -0.113871f, 0.188212f, -0.006891f, 0.110055f, -0.106400f, -0.134586f, 0.043147f, 0.000154f, 0.171663f, -0.096100f, -0.144872f, -0.059321f, 0.147661f, 0.088812f, 0.224955f, -0.020670f, -0.045162f, 0.140682f, -0.307436f, -0.047910f, 0.260320f, 0.125790f, 0.117023f, 0.143490f, -0.054844f, 0.294290f, -0.082208f, -0.188363f, 0.126651f, 0.091028f, -0.013958f, -0.151970f, -0.147115f, 0.117578f, 0.094107f, -0.096712f, -0.151282f, -0.068345f, -0.294871f, 0.147667f, 0.117801f, -0.300272f, 0.179428f, -0.012984f, 0.022154f, -0.180720f, 0.161727f, -0.196931f, 0.190459f, -0.050626f, 0.071584f, -0.014424f, 0.072047f, -0.183265f, -0.250336f, 0.106197f, 0.181416f, 0.233766f, 0.139330f, -0.111597f, 0.019977f, -0.143843f, 0.258256f, -0.120946f, 0.127588f, 0.014468f, -0.111307f, 0.148328f, -0.041334f, -0.059502f, -0.128615f, 0.023590f, 0.232816f, -0.144463f, -0.123101f, 0.153710f, 0.191409f, 0.137594f, -0.073627f, -0.260181f, -0.044670f, 0.136705f, -0.043115f, -0.050820f, 0.150319f, -0.085459f, 0.005018f, 0.031897f, -0.172385f, -0.050919f, 0.169307f, 0.016523f, -0.127576f, -0.226444f, -0.185404f, 0.114168f, 0.108600f, -0.024862f, 0.133733f, -0.100921f, -0.057131f, -0.033555f, -0.080302f, -0.070386f, -0.098988f, 0.176570f, 0.128562f, -0.036912f, -0.072105f, -0.097235f, -0.097520f, -0.089776f, -0.046435f, -0.098609f, 0.077369f, 0.090154f, 0.039006f, -0.117957f, 0.252615f, 0.112478f, -0.200239f, -0.143209f, -0.005822f, -0.043964f, -0.003261f, -0.031504f, -0.075738f, 0.083595f, -0.184029f, -0.038135f, -0.092197f, -0.099284f, -0.031665f, 0.097841f, -0.185544f, -0.130707f, -0.183622f, 0.029687f, -0.036974f, 0.137955f, 0.019490f, -0.198590f, -0.154234f, 0.152660f, -0.355770f, -0.041439f, -0.155790f, -0.229624f, 0.189849f, 0.154791f, 0.137759f, 0.143610f, -0.127275f, 0.059305f, 0.021031f, -0.352872f, 0.319134f, 0.607779f, -0.395960f, 0.358042f, -0.085823f, -0.026290f, 0.498617f, 0.043365f, -0.473847f, -0.037807f, 0.035510f, 0.015157f, 0.176521f, 0.517876f, 0.431511f, -0.809737f, -0.748615f, -0.080280f, -0.092367f, 0.072602f, 0.273192f, -0.108581f, 0.062835f, 0.121853f, 0.753901f, -0.144788f, 0.137674f, -0.000509f, 0.200076f, 0.250518f, 0.616770f, 0.106390f, -0.150820f, -0.149330f, 0.277188f, 0.699496f, 0.118275f, 0.318239f, 0.536354f, 0.003857f, 0.068824f, -0.053464f, -0.306660f, 0.052158f, 0.169596f, 0.279582f, 0.156023f, 0.437092f, -0.313585f, 0.002356f, 0.034232f, 0.093011f };
static const float power_predictor_layer_1_biases[32] = { -0.024743f, 0.024057f, 0.001548f, -0.023320f, -0.012716f, -0.049807f, 0.033641f, 0.006365f, 0.020289f, 0.036883f, 0.048083f, -0.049152f, 0.021586f, -0.050625f, 0.031062f, -0.046297f, -0.011284f, 0.002034f, -0.033507f, -0.041586f, 0.026573f, 0.017218f, -0.024017f, -0.028816f, 0.035389f, -0.008228f, -0.023481f, -0.004406f, -0.040184f, -0.029077f, 0.025561f, -0.010908f };
